category,0,1,2,3,4,5,6,7,8,9,10,11,12,13,14,15,16,17,18,19,20,21,22,23,24,25,26,27,28,29,30,31,32,33,34,35,36,37,38,39,40,41,42,43,44,45,46,47,48,49,50,51,52,53,54,55,56,57,58,59,60,61,62,63,64,65,66,67,68,69,70,71,72,73,74,75,76,77,78,79,80,81,82,83,84,85,86,87,88,89,90,91,92,93,94,95,96,97,98,99,100,101,102,103,104,105,106,107,108,109,110,111,112,113,114,115,116,117,118,119,120,121,122,123,124,125,126,127,128,129,130,131,132,133,134,135,136,137,138,139,140,141,142,143,144,145,146,147,148,149,150,151,152,153,154,155,156,157,158,159,160,161,162,163,164,165,166,167,168,169,170,171,172,173,174,175,176,177,178,179,180,181,182,183,184,185,186,187,188,189,190,191,192,193,194,195,196,197,198,199,200,201,202,203,204,205,206,207,208,209,210,211,212,213,214,215,216,217,218,219,220,221,222,223,224,225,226,227,228,229,230,231,232,233,234,235,236,237,238,239,240,241,242,243,244,245,246,247,248,249,250,251,252,253,254,255,256,257,258,259,260,261,262,263,264,265,266,267,268,269,270,271,272,273,274,275,276,277,278,279,280,281,282,283,284,285,286,287,288,289,290,291,292,293,294,295,296,297,298,299,300,301,302,303,304,305,306,307,308,309,310,311,312,313,314,315,316,317,318,319,320,321,322,323,324,325,326,327,328,329,330,331,332,333,334,335,336,337,338,339,340,341,342,343,344,345,346,347,348,349,350,351,352,353,354,355,356,357,358,359,360,361,362,363,364,365,366,367,368,369,370,371,372,373,374,375,376,377,378,379,380,381,382,383
data+analyst,-0.042341482,-0.03220062,-0.017870598,0.040847324,0.0015322467,0.037268586,-0.016720349,-0.0036787544,-0.055441163,0.00088057364,-0.027210783,-0.026823146,-0.024707504,0.01634554,0.074997954,0.009270535,0.046863485,-0.0057714186,-0.012129921,-0.017253567,-0.043107092,0.0029144096,-0.021193694,-0.10211809,-0.048859477,-0.0621147,0.0008248275,-0.023735344,-0.058103018,-0.05101693,0.038064443,0.05172822,0.065510176,0.08930512,0.07803725,0.065497175,0.009214452,0.028708104,0.052330166,-0.038451776,-0.05890297,-0.069550805,-0.043401342,-0.044037323,0.014721052,-0.13993661,0.0057256194,-0.010608719,0.009758238,0.047643155,-0.060344696,-0.06379917,-0.020661142,0.007746637,-0.06279368,0.013317177,-0.07021973,0.026419617,0.011635765,-0.083756596,-0.04757145,-0.0065558054,-0.024386141,0.00089261716,-0.017653922,0.034374453,-0.1062636,0.06828014,0.0077229794,-0.0385091,-0.041812044,-0.019298438,-0.09924077,0.023325846,0.04575019,-0.022563737,0.051153164,-0.04472538,0.07370265,-0.030709947,0.0057496973,0.03047947,-0.10025719,0.10977614,-0.092102885,-0.077886105,-0.00467407,-0.009571269,0.017244726,0.019294932,0.07868531,0.0016518817,-0.050779443,-0.016856031,-0.029634835,-0.04714282,-0.020162713,0.021791052,-0.030748121,0.016915517,-0.016763607,-0.004661948,0.0038512016,0.02900203,-0.14198457,0.018803585,0.04631811,0.032347847,-0.0015110001,-0.012972335,-0.03085112,0.06040504,-0.1257701,-0.060176317,0.040486123,-0.0061383625,-0.10411932,0.034086343,0.025475733,0.07064013,-0.009473316,0.14270434,-0.06321394,-0.08501571,-0.075570405,-0.032372437,-0.012508719,1.9791866e-32,-0.04210892,0.13951871,0.03261874,0.02409442,0.046930477,-0.003828686,0.05924836,0.00546942,-0.05020365,0.04492425,-0.042629134,0.09767945,-0.001721389,-0.010990187,-0.030291358,0.025312638,0.06481146,0.054519974,-0.048649848,-0.014069473,0.014447575,-0.0024965408,-0.024927199,-0.0073203174,0.052735977,-0.002561043,0.08895983,0.02020954,0.061374504,0.032668862,-0.0057697557,-0.02932535,-0.04422995,-0.038921576,0.050410908,0.05558221,-0.030422999,-0.12824187,0.06948002,-0.012241877,-0.08896478,0.05230531,0.068372086,0.024216993,-0.04944533,0.0007728586,0.07794933,0.04384842,0.08294065,0.08599533,-0.012135314,-0.053535115,0.007954577,0.06821302,0.0038492945,0.04455485,0.024344133,-0.024483992,-0.038855158,0.0016510208,0.008371323,-0.09715731,-0.07191653,-0.017249972,0.0048989053,-0.039532516,0.010915794,0.012136888,0.10679752,-0.04552013,-0.014292869,-0.010307503,0.13094589,0.032990344,-0.031045472,0.03785504,0.030668592,-0.017943121,0.04668988,0.02091702,0.033306748,0.006988745,-0.0013986138,-0.028513568,0.07724393,0.07697548,0.041309774,-0.096824184,-0.018186951,0.06431941,-0.0075319153,0.047047522,-0.03665411,0.052551284,-0.09032856,-1.7331039e-32,0.0070119197,-0.036956426,-0.03417172,-0.0013158426,0.06031015,0.08516452,0.046079695,-0.0775953,0.040224828,0.014207546,-0.041610997,-0.015358276,-0.025592389,-0.054401908,-0.07883389,-0.029710587,-0.049188267,0.05443937,-0.008118012,0.049589932,-0.0037014084,0.09720033,-0.043147106,0.09333766,0.083721265,0.0054602185,-0.059502296,0.0012238857,-0.014742519,0.07939165,0.004360406,-0.008884474,-0.06438746,0.03499034,-0.020599639,-0.016561477,0.031613983,-0.076560125,0.014716378,0.11687173,0.03898412,0.029261725,0.0142290285,-0.052841943,0.0039459,-0.032123227,0.0924881,0.0039078025,0.042563178,-0.056463536,-0.02085462,0.019652918,-0.07411325,0.054968268,0.0044514174,-0.035359893,0.042833447,-0.08262202,0.0041278703,-0.04821735,0.005574834,0.104659036,0.11370105,-0.012229956,0.13459666,-0.06565973,0.012284672,-0.0077629504,-0.08558396,-0.087991305,0.03549633,-0.06479032,0.030821644,-0.070056684,-0.074645326,0.014702816,-0.046095308,-0.11289968,-0.060405374,0.03869558,-0.028443672,0.01071547,-0.032058712,0.01185493,-0.0010922807,0.05134561,0.010250492,-0.037668303,0.039222006,-0.026366109,-0.07915317,-0.043619946,0.030454623,0.052025102,-0.017941235,-6.550367e-08,-0.044048507,0.09200432,-0.047494497,0.028610181,-0.022717256,-0.031530153,-0.049984924,0.013503249,0.08195938,-0.009629132,0.03488003,-0.11271237,-0.050246097,-0.019459916,0.036196787,0.024401397,0.03224064,0.045259766,-0.039019402,-0.016094498,0.09466627,0.056923646,-0.065714605,0.022603171,0.007662906,-0.0503548,-0.07528829,0.07245868,-0.0059525473,0.008319595,-0.02169254,-0.05238783,0.020654673,-0.055988245,0.035670094,-0.023741636,-0.0009085506,-0.04040512,0.028793525,0.07804126,-0.05871422,0.06023485,0.007130642,0.039428893,0.0018031321,-0.0051310672,-0.048214387,0.017969852,-0.025940614,-0.021145038,-0.005162117,-0.058622837,-0.021086555,0.009194724,0.0021690186,0.050560027,-0.014375069,0.06266617,-0.020883687,0.030406872,0.059986882,-0.04700649,-0.045128834,0.019320635
cyber+security,-0.05841198,-0.022961957,-0.013112507,-0.012818635,0.02211273,-0.014380781,0.020358965,0.00010338535,-0.069074616,0.01002815,0.0024513584,-0.08067437,0.037992325,0.008163588,0.035589952,-0.009377915,0.061729252,-0.04232202,-0.007073986,-0.13442251,-0.018255373,-0.034151353,0.010879287,-0.06646119,-0.11547612,0.009322749,0.01173501,0.03232564,-0.057038736,-0.0634697,0.044985108,0.00026649068,-0.028425852,0.06647709,-0.008323463,0.07366779,0.05853285,-0.009239296,0.03574678,-0.04797205,0.009908884,-0.116345115,-0.018486997,-0.026346516,0.00957193,-0.058561966,-0.035804816,-0.030086631,0.0073955567,-0.031584628,0.03143393,0.0016867657,0.012399857,0.078791216,-0.0561994,0.05262351,0.04744961,-0.036562197,0.027800184,-0.10791114,-0.030848145,0.023510767,-0.050318323,0.02067049,-0.025907245,-0.048616428,0.001058666,0.0030570664,0.10252057,-0.017007934,-0.06887469,-0.0077693034,-0.024875114,0.055585735,0.0008172881,0.06350225,0.04791637,0.01759904,0.05487416,-0.036905617,0.084281355,0.058172442,-0.037773527,0.0801833,-0.02253572,-0.03174332,-0.055185232,0.0090636825,-0.021027083,-0.024337968,0.15950976,-0.02259381,-0.016697275,0.015151185,0.03487271,-0.050978307,-0.038746815,-0.043959916,-0.058414444,0.012650027,-0.010155399,-0.082211524,-0.05094188,0.02257477,-0.07963614,0.008857111,-0.012486522,0.06083335,0.03638782,0.03982783,-0.051914476,0.028688926,-0.054645702,-0.03969581,0.030197244,0.057958234,-0.12023713,0.06333439,0.039948825,0.0038788512,0.059023783,0.053056348,-0.06854073,-0.072828434,0.0142924925,-0.027052278,0.0619885,1.6458467e-32,0.037435014,0.14635903,-0.040274013,0.008061322,0.03676341,0.04022817,0.027813016,0.022720203,-0.014160285,0.014998464,-0.08470646,0.07623239,-0.021793418,-0.040269274,0.018804025,-0.009821046,0.034566987,0.042398144,0.05568497,-0.021879353,-0.015946819,-0.084236436,0.027289007,0.013077265,0.11042957,0.022436721,-0.010697315,-0.016135272,0.024044093,0.012414986,-0.037714224,0.01926915,-0.04780399,-0.01568442,0.040818114,0.028092898,-0.021640813,-0.11084388,0.0028970363,-0.08420143,-0.055653937,0.04873455,0.0554231,0.017749252,-0.0008315766,-0.0055956044,0.014401734,0.0061412985,0.03404272,0.112951145,-0.06339282,-0.05043554,-0.025180772,0.0004644455,-0.020118015,-0.013107811,0.059744906,-0.033779413,0.022675188,0.01878736,-0.03564387,-0.039096724,-0.08646576,-0.005589394,0.028211156,-0.0733829,0.0005191893,0.00534208,0.08759965,0.034366895,-0.046937656,0.016271804,0.10229319,0.07037134,-0.056425203,-0.014261149,-0.034391277,-0.014270348,0.020482052,0.054227795,-0.06843848,0.025874978,0.04466632,0.0064806445,0.14133139,0.038295202,-0.013561226,-0.017329372,-0.032939684,0.035102136,-0.03617865,-0.02979005,0.04382726,0.101714484,-0.06504562,-1.4656916e-32,-0.047222238,0.014759014,-0.0763254,0.016595827,0.0432806,0.03866199,0.043880712,0.0107733775,0.052230027,0.04097274,-0.008183487,0.0054357336,0.030312395,0.0068643326,-0.015244729,-0.08429043,-0.057750743,-0.009917955,-0.009614132,0.05997686,0.031402413,0.043380328,-0.13612856,0.07128503,0.04768462,0.05903621,0.0019379715,0.0517329,-0.008437525,0.038811214,0.0945205,-0.07677913,-0.08929898,0.0542232,-0.033178944,-0.069705054,0.11495638,0.00078854006,-0.00996029,0.06815101,0.097018644,0.046760924,-0.004822152,-0.0044771633,-0.035738535,-0.011329045,0.1004259,0.014809755,-0.05145832,-0.059428237,-0.05042653,0.013808501,-0.018472563,0.05655526,0.01955233,-0.0018948624,0.004970504,-0.010232473,-0.06819432,-0.06559794,0.09770785,0.07361413,0.017600907,0.07246958,0.085968606,-0.036663048,0.028146423,-0.003789675,-0.03129149,-0.031522702,-0.041386753,-0.042589415,0.0006042441,-0.08593178,0.011339259,-0.11975812,-0.029244145,-0.059653945,-0.02657904,0.04319789,-0.024899133,-0.021819044,-0.08719637,-0.024245396,0.046229087,0.06826807,0.07113891,0.008660162,0.08877943,-0.019551052,-0.097189985,-0.055897556,-0.06552559,0.028250173,0.011144525,-5.8915468e-08,0.022535296,0.072682194,-0.00961385,-0.041672267,0.019667113,-0.028620303,-0.02064016,-0.042556,-0.025888782,-0.029533088,0.031417314,-0.0870027,-0.032489296,-0.054544114,0.010749605,0.02213523,0.00348256,0.09324095,-0.06591955,-0.076909125,0.045012,-0.0017965693,-0.08310802,0.022197952,-0.0072060893,0.038362816,0.009897381,-0.008326119,0.028468132,0.061063085,-0.10236667,-0.043305,0.048998762,-0.073382296,0.029259982,0.05744054,0.079425015,-0.06437166,0.07864385,-0.005929188,-0.07076204,0.056090098,0.038551636,0.037045393,0.0002883868,-0.0058993413,-0.08498268,0.006058608,0.008976013,-0.06751789,-0.004866221,-0.059203297,-0.009515416,0.10129283,0.0057770945,0.0017730275,-0.0074161314,-0.037238225,0.03331523,0.05411974,0.09575035,-0.10078253,-0.06370964,-0.011069151
software+engineer,0.01898362,0.033213276,0.0036653886,-0.022206271,0.036089424,-0.06730088,0.0825661,-0.0106634945,-0.027124118,0.038208973,-0.051463887,0.0008482338,0.08268391,-0.024425877,0.043221384,0.0576237,0.07524274,-0.11584667,0.02251919,-0.03678171,-0.038190916,-0.035523236,-0.025943955,-0.06433134,-0.044383436,0.014053262,0.058382843,0.03409673,-0.0002987856,-0.016812215,-0.018590897,0.005841014,-0.0035649405,0.06587622,0.067821465,0.038742267,0.031695742,-0.0035403469,-0.005719341,-0.032906692,-0.0553458,-0.052080657,-0.07763821,-0.010315945,-0.006445903,-0.04034567,-0.048453607,-0.062869355,-0.012198269,0.04082252,-0.03275097,-0.087691605,0.014572065,0.053865906,0.0077503338,0.02953075,0.032983188,0.022855388,-0.0074601225,-0.06997774,0.077417314,-0.029850887,0.031024499,0.0003578487,-0.020427333,0.026600514,-0.032859597,0.088771164,-0.0061492617,-0.11763091,-0.065734126,-0.038684677,-0.06906191,0.012416206,-0.03897848,0.050696906,0.0067994273,0.033137254,0.047015186,-0.0020603922,0.039709337,0.08634138,-0.09523473,0.04387914,-0.037242707,-0.022771854,-0.05407067,0.03282502,0.02062092,0.01930727,0.0056191767,-0.024499383,0.029919725,-0.008115628,0.078204244,-0.06382447,-0.010005683,-0.018049212,0.04317007,0.024488315,0.028209286,0.012293303,0.056513216,-0.070336156,-0.06325361,-0.00035455363,0.0071178013,0.059896637,0.064378664,-0.022232024,-0.06453736,0.017151488,-0.06642253,-0.08904381,0.020040961,0.03008144,-0.05506959,0.038534846,-0.04953693,0.04805121,0.017981004,-0.044802364,0.011286089,-0.09645123,0.0102061825,0.014741626,-0.03823079,1.3756362e-32,-0.038782217,-0.001960086,-0.053175367,0.02559874,0.1347048,-0.055873737,0.057724826,-0.021044657,-0.05982393,-0.09701868,-0.06241583,0.036893588,0.009342449,0.055907596,0.056266546,-0.0771896,0.034624644,0.052331217,0.07793447,0.0074741724,0.0018462145,-0.103133775,0.03105623,0.0148538975,0.054346003,0.019698896,0.047022324,-0.017086508,0.049749807,0.01649095,0.0027804393,0.0079871705,-0.051301513,-0.012853364,-0.061584093,0.033442307,-0.07056048,-0.050173566,0.021745605,0.017826779,-0.07321984,0.051003635,-0.0014337434,-0.019320242,0.081945136,0.01810111,0.0345943,0.009819924,0.07762289,0.08175945,-0.055297293,-0.0146924285,0.044572167,0.050517213,0.029700806,-0.022777481,0.07844733,-0.025661232,0.018709203,0.05194958,-0.09321086,-0.022094183,-0.08005314,0.037891842,0.009105252,-0.038238384,0.031778447,-0.032982416,0.06482082,0.066116944,0.06843526,-0.0008038504,0.071596965,0.019658297,-0.1419432,0.0065668044,-0.042290352,0.04237832,-0.027299225,0.034038115,-0.075513266,0.052086152,-0.026182624,-0.0047114403,-0.020043628,0.0062153977,0.068075515,-0.007953518,-0.06072356,0.0681809,-0.039854143,-0.005842757,0.065968,-0.0039017089,-0.06105607,-1.1542608e-32,-0.0048631257,0.009404036,-0.036641683,0.04299257,0.1294986,-0.0068363925,0.033468362,-0.021708382,-0.0660432,0.034889724,-0.009398503,0.00041656432,0.021025386,0.04565342,-0.060258456,-0.05435716,0.0048688194,-0.08716606,0.018349068,0.06417828,0.011257114,0.09377383,-0.011982203,-0.008849011,0.044288527,0.054751664,-0.07536619,-0.002111275,0.0034228293,-0.042085405,-0.045725882,0.00032300103,0.017979447,0.055785958,0.09922004,-0.103131495,0.046351764,-0.008551061,-0.033542804,0.017223682,0.059708234,-0.08182312,-0.031966157,-0.015399527,-0.071946844,0.052569587,-0.047985006,0.029929748,-0.05300725,-0.056061313,0.027165076,-0.025220236,-0.037133347,0.021213632,0.02989497,-0.0030575334,0.029379137,0.010768279,-0.09159061,0.053872593,0.09935421,-0.027105523,0.08793976,0.06987252,-0.0022379255,0.017939722,0.034695517,0.0560192,-0.20635463,-0.05605029,-0.03146973,0.053782668,-0.009991573,-0.06479165,-0.025475727,-0.041469168,-0.07670605,-0.07395962,-0.017079206,-0.0037768676,-0.11497919,0.02375153,-0.05119259,0.04741307,-0.047366112,0.02286648,-0.011178655,-0.009767338,-0.040253732,-0.014310772,-0.18175623,-0.041172944,-0.052790806,0.10537465,0.031655964,-7.220803e-08,-0.06338141,0.003019878,0.00034768495,-0.050826613,-0.028592845,-0.03156939,0.007363333,0.027181307,0.061177056,-0.0018545378,0.009526057,-0.1189923,-0.03258879,0.05617713,0.078474864,-0.017086202,0.023988277,0.031922024,-0.05085965,-0.07625884,0.09346976,0.069058426,0.020178257,0.01692813,0.008318573,0.02485238,-0.012132558,0.0020809188,0.0068598352,-0.035880186,-0.027801657,-0.046274103,0.029913493,-0.021759056,0.016066132,-0.017772922,0.0104647735,-0.019317621,0.03804495,0.051501267,-0.022590617,0.013422943,0.04775141,-0.013652368,-0.027414521,-0.07993465,-0.079627275,0.02908376,-0.06190851,0.013248601,-0.040466487,-0.021657744,0.008536371,0.122998424,0.037829194,0.053662784,0.010727375,-0.0230942,0.07901643,0.14740503,0.10432574,0.015824946,-0.035299294,0.0061587165
ui+ux,-0.004271053,-0.027387287,0.017468283,-0.012735481,-0.06033486,0.00083242106,-0.0013292134,0.018448018,-0.065573595,-0.009487495,-0.0263779,-0.0685742,0.06359416,0.030355014,0.04236952,-0.012740137,0.04642723,-0.091249645,0.012939943,-0.05671096,-0.012754705,-0.027433211,-0.023972047,-0.07004626,-0.07928414,-0.06257041,0.058321167,0.014526209,-0.044647012,-0.06429954,-0.026802156,0.087782025,0.06035333,0.02193659,0.06367806,0.08837487,-0.01289905,-0.011556684,0.061047845,-0.062199075,-0.113049865,-0.06687556,-0.0013533165,-0.074793495,0.049250323,-0.018913414,-0.023116622,-0.08369049,0.054839246,0.026931139,-0.0277672,-0.04897215,-0.02185324,-0.009897699,-0.050611287,0.046873357,-0.054034963,0.049176976,-0.016149767,-0.038775165,0.041703746,-0.0107374815,-0.0045395033,-0.014860414,-0.011456262,0.008984279,-0.064424686,0.023175448,-0.022990325,-0.051273283,0.027900245,-0.069323055,-0.07314104,0.04348462,-0.019830592,0.03404185,0.0977424,0.025188906,0.058644556,-0.052241888,-0.019202169,0.10053716,-0.05321901,0.037377615,-0.12303212,0.016090296,0.032914806,0.06500006,0.007529183,0.04449451,0.03686809,-0.07996304,-0.023979492,-0.049406003,0.067047924,-0.042644184,-0.004354588,0.013563993,0.031210165,-0.011969521,0.065409146,0.023108682,0.032847557,-0.03349829,-0.16524765,0.06407614,0.0142181665,0.07215626,0.04230751,0.016585147,-0.024088409,0.030409051,-0.10918188,-0.113887414,-0.071402945,-0.04728393,-0.039779782,0.0060976916,0.050073415,0.04462018,-0.003435926,0.032607347,0.018748999,-0.049089525,0.019261735,0.05482378,0.006050886,2.0932106e-32,-0.06578116,0.022554198,-0.0627213,0.09248143,0.030083044,0.038138226,0.050046086,0.057273146,-0.040782668,-0.03933307,-0.028872272,0.04190471,-0.035990592,-0.03865865,0.017299639,-0.068025835,-0.057193045,-0.014387464,-0.020799404,-0.018980015,-0.028285164,-0.042235944,0.031772822,-0.0055493144,0.09902005,-0.024250155,0.058601756,0.028811337,0.015889445,0.035887256,-0.006841244,0.014003662,-0.060813993,-0.03337837,-0.0013293712,0.090929046,-0.06330139,-0.07639426,-0.009017582,-0.0041494663,-0.061606742,0.014305134,-0.085127376,-0.002463593,0.004072591,0.0019530831,0.044106644,0.025569648,0.004995092,0.010673142,-0.096801706,-0.039156727,0.055300068,-0.01580849,0.046440806,0.055778053,0.09396864,-0.08171285,-0.007036111,0.101365216,-0.09111825,-0.02065153,-0.05974311,0.06878819,0.06773604,-0.048629005,-0.0040614456,-0.022947581,0.09004422,0.011999837,0.010757494,-0.08027624,0.110403754,0.060541656,-0.07836986,0.0063932883,-0.071862556,0.030131627,0.004340576,0.04027392,-0.05998181,0.013451322,0.044931784,-0.010841852,0.13598649,-0.014030505,0.056895908,-0.017519034,-0.095334016,-0.009729931,-0.024190081,0.04021053,-0.02211562,0.07287691,0.0012105498,-2.0051772e-32,-0.023201507,-0.006947514,-0.011847337,-0.007733472,0.059351657,-0.0013917788,0.015708277,-0.06914767,-0.0058688694,0.072929114,0.015232404,-0.0070990724,0.013214828,0.025322694,-0.09067501,-0.08963699,-0.032843895,-0.042768605,0.025644597,0.09013556,-0.023132548,0.025781268,-0.03680456,0.048309024,0.010106065,0.020447277,-0.0665877,0.006316024,0.013229684,-0.007011423,0.027165309,-0.049977396,-0.007741007,0.045538872,0.023715246,-0.119501285,0.034654588,-0.07558331,0.0072158882,0.04676246,0.04538869,-0.09787938,-0.027300516,-0.023189453,-0.05525756,-0.07839645,0.070482,-0.07535404,-0.005476255,-0.083317995,0.025523398,0.004543824,0.00970363,-0.0078041125,0.00080852857,0.02675388,0.1068654,-0.009617356,0.012654679,-0.0063149813,0.12367866,0.015281453,0.13965103,0.048643894,0.03657261,-0.07528746,0.042327683,0.0049906624,-0.07217431,-0.02297479,-0.0843974,-0.028424691,0.013071471,-0.057821058,0.00016218837,-0.099711105,-0.03614901,-0.062207952,0.030648734,-0.05108072,-0.034824554,-0.020460185,-0.038162462,0.08307907,0.005751446,0.021250216,0.010844236,-0.008072315,0.044823334,0.015222944,-0.10382585,-0.024643578,-0.0314922,0.09147243,-0.0631023,-6.725504e-08,-0.08768797,0.029106252,-0.03683421,-0.016055668,-0.035512496,-0.0213971,-0.045635927,0.026925664,0.006076141,0.005895171,0.0019681673,-0.014398626,-0.047804195,0.08902262,0.0542412,-0.017235512,-0.018790655,0.14053348,-0.03991387,-0.058352824,0.049321674,0.019144064,-0.0128373355,0.031623002,0.003261381,-0.041961413,-0.05590436,0.047337636,0.040145412,-0.020658253,-0.012988119,-0.029118603,0.015012967,-0.06350672,0.023881856,-0.013875776,0.05365675,0.04724796,0.05444481,0.02364169,-0.0774382,0.09071001,-0.0044660764,0.02175437,-0.023532685,-0.047774363,-0.11843133,0.038146734,-0.06810172,-0.006182921,-0.018427309,0.00014754737,-0.057786085,0.09005421,0.028084343,0.071827054,0.013275775,-0.040365145,0.04530268,0.057432048,0.0018225338,0.04897097,-0.023436755,0.021131191
ui+ux,-0.010672378,-0.054869745,-0.04017935,-0.069299825,0.016329212,-0.069623016,-0.09289584,0.021361561,-0.03488087,0.03283939,-0.03720161,-0.05894491,0.033380102,0.018927593,0.04081169,-0.018272607,0.06377785,-0.07939105,-0.01892228,-0.07418165,0.006578648,-0.08423199,0.027733836,-0.031856023,0.0003753227,-0.0099447,0.0045250882,0.012119359,-0.06614615,-0.061714124,0.03151099,0.0728961,0.022708576,0.009130387,0.043547437,0.091705,-0.016070705,0.031701237,0.015862972,-0.08025573,0.1164409,-0.07380864,0.031789098,-0.1112007,0.11290879,-0.038099755,-0.0003217398,0.09009492,0.018284753,-0.009717166,-0.039257355,-0.095469795,-0.0120259365,-0.027437683,-0.08603257,-0.08323467,0.022585953,-0.01253259,0.056324493,-0.06207132,0.021831797,-0.062633015,0.08568188,0.016031982,0.055977035,0.001291678,0.06625716,0.03625481,-0.07387959,0.012546414,0.05882628,-0.10427805,-0.08161073,0.036771573,-0.017544154,0.03673686,0.071429275,0.059854053,0.025624208,-0.04904454,0.014550401,0.06209536,-0.013016818,-0.06748841,-0.08813253,-0.0006185879,0.020218685,0.019909305,-0.027166918,0.0022981642,0.013045017,0.0021500976,0.016404327,0.0069901156,0.072977796,-0.038600102,-0.0016097055,0.009341533,-0.061322752,0.011016404,-0.014936484,-0.037908386,0.03323533,-0.06686417,-0.06257948,0.009822164,0.023259358,0.040745948,0.03914353,0.017857298,-0.1707549,0.018870464,-0.10110546,-0.05857243,-0.009620227,0.0010188167,-0.02419147,-0.0103135975,0.0390457,0.08023187,0.009116681,0.009065916,0.0064084665,-0.028455446,-0.017922167,-0.014976315,-0.06585481,1.0375128e-32,-0.026641011,0.016426546,-0.0036824383,0.010275323,-0.0039791935,0.05037044,0.023456745,0.09271654,-0.14326297,-0.0428545,-0.08341108,0.023156548,0.039591603,0.12866658,0.043468725,-0.08112378,0.036429185,-0.02763675,0.0047170725,-0.021713614,0.024880553,-0.05442826,0.0108352695,0.0054594735,0.07615981,0.020722106,0.02346744,-0.010889826,0.039439425,0.037618812,0.030214421,0.0007161302,-0.029814884,-0.074354656,-0.03927288,0.024463339,-0.075692005,-0.050882857,-0.005187202,-0.029334443,-0.009583485,0.06165803,-0.082674436,-0.04743518,0.016613279,0.00012688765,0.016213447,-0.04309375,0.03654309,0.013107596,0.021593941,0.024288692,0.018752972,-0.026975134,0.056063194,-0.036479644,-0.05570478,-0.040420596,0.046526484,-0.02418227,-0.0009514044,0.007299109,-0.068019316,0.04759042,-0.07741644,0.06428085,0.083140604,0.060625125,0.021940853,0.023307139,0.06627597,-0.060586043,0.06263203,0.1556222,-0.031439003,0.04082404,-0.023739971,0.045565497,0.025854107,0.05662778,-0.003898599,0.054504734,0.06611681,0.005973559,-0.01161716,0.037168246,-0.007571399,-0.002993969,-0.020808132,-0.019531777,-0.0300667,-0.004009811,0.019796401,0.08475422,0.009843864,-9.593978e-33,0.015418559,-0.007807743,0.00055562,-0.023837542,0.034662392,-0.019410152,0.04093231,0.010522552,-0.010222576,0.0291007,0.08728581,-0.033526946,0.11516877,-0.037661757,-0.03092753,-0.06407675,0.009983587,-0.06641568,0.06953449,-0.035154007,0.072629236,-0.05578389,-0.011999423,0.01697017,0.016984517,0.014987302,-0.052742943,0.01973521,0.021171622,0.010183497,-0.06536165,0.054136753,-0.079808705,0.06588094,-0.035004638,-0.0007409636,-0.12214485,0.004709221,-0.020635039,-0.0015835633,0.05833174,0.04737069,-0.016314868,-0.020882096,-0.043535065,0.034105472,0.03527282,0.07690206,0.071141034,-0.06953659,0.032406986,0.095801,0.07651488,-0.04325844,0.023343083,0.101892754,-0.014004329,0.052932303,-0.042764448,-0.020030811,0.027259039,0.028761512,0.084084846,0.023888966,-0.0003075807,0.048166603,0.0017689414,0.034254488,-0.0853715,-0.0635567,0.05983338,0.0030226381,-0.07881766,-0.059023872,-0.024476819,0.028522743,-0.04420432,-0.05671301,-0.04418106,-0.07018452,0.012616794,0.045749467,-0.025715318,0.024210699,0.030471113,0.052623764,-0.008310657,-0.09462039,-0.02822909,-0.01766266,-0.14134215,-0.046863724,-0.07467212,0.038292885,-0.01597065,-5.2018745e-08,0.026343768,0.0074136904,0.08972461,0.020608872,0.006781621,0.0049307547,-0.027513161,0.030878637,0.018389113,-0.022446906,0.035470057,-0.013951518,-0.044204418,0.010540468,-0.026884744,0.021498851,-0.035837915,0.03931782,0.039865512,-0.046315107,0.059639275,0.034402695,0.023920277,-0.044345234,0.05412079,-0.027006377,-0.0017123366,0.034964576,0.026009824,0.0031874583,0.019167388,-0.057011068,0.045967236,-0.020011526,0.017985944,-0.022902811,-0.10426836,0.01356069,-0.05851011,-0.026121397,0.01007075,0.018621152,0.12926453,-0.054145835,-0.055589564,-0.09010417,-0.075873494,0.008316023,-0.008046893,-0.022795971,-0.0060723126,-0.0067172493,0.009958028,0.054499675,0.09372495,-0.0049034655,0.018258464,-0.0722004,0.045407888,0.10090823,0.06245906,-0.20594299,-0.0018785353,0.06388232
ui+ux,-0.007898154,-0.06316155,-0.03407035,-0.0040111486,0.008653508,-0.027203277,-0.020974146,0.028585581,-0.07266882,-0.014749618,-0.035454944,-0.03765736,-0.0054506706,0.05497462,0.08789797,0.013384181,0.04642422,-0.054341152,-0.015208462,-0.053823363,0.0052063465,-0.022588126,0.041223124,-0.06163376,-0.10478046,0.010216181,0.015423539,-0.045299117,0.0048622913,-0.11020544,0.027626203,0.0150153935,0.05050584,0.029922666,-0.050706014,0.08665335,0.038342383,-0.033193972,0.03502388,-0.077265844,-0.11323223,-0.03605992,-0.052937474,-0.033282664,0.07678926,-0.050647095,-0.016079696,-0.03008991,0.03609553,0.07323032,-0.0006713212,-0.09261908,-0.03370331,0.02417514,-0.066071205,0.05479487,0.007862932,-0.030341053,0.017473403,-0.051471192,0.02555718,-0.037121482,0.0033344668,0.004151834,-0.04746355,-0.05358545,-0.0717081,0.032920025,-0.020889474,-0.033070285,-0.055013835,-0.02236224,-0.028428832,0.03162134,0.0060887174,0.017722856,0.05837558,-0.034529362,0.05333375,-0.018171037,-0.008868073,0.103650495,-0.030240765,0.099571064,-0.1178875,0.017594589,0.015284955,0.081457034,-0.032298952,0.004832005,0.01674418,-0.048799764,-0.0018944405,0.0106685385,0.011584778,0.024717772,0.006557843,-0.017834812,-0.020751,-0.038438525,-0.0011006374,0.005083125,0.05432747,-0.043935634,-0.1814719,0.029980306,-0.0032772112,0.059671476,0.03807166,0.056607697,-0.082641676,-0.017198332,-0.097259775,-0.037853643,0.09540511,-0.04259535,-0.04863793,0.03780162,0.0734213,0.032756034,0.049282614,0.101975314,0.057956178,-0.024950767,0.062170047,0.024776468,-0.0001945,1.7452027e-32,0.012805851,0.08355009,-0.03984922,0.11492487,0.083213784,0.032307263,0.09111552,0.08565224,-0.11301991,6.117478e-05,0.0065326444,0.048258003,-0.07432592,0.05092588,0.04502594,-0.098053694,-0.010125241,0.037634462,0.0051520295,-0.029663146,-0.009229492,-0.04420349,0.0007653723,0.086008295,0.08122051,-0.048170198,0.028590446,0.041744143,-0.039414473,-0.007889694,-0.018340172,-0.0084933145,-0.05429177,-0.009352287,-0.029695796,0.039133273,-0.016731935,-0.077672556,0.061694793,0.03713364,-0.060621046,0.030268779,-0.051398586,0.010234959,-0.00610445,-0.023948263,0.027386349,-0.011104785,0.014649082,0.037319254,-0.09405495,-0.045150943,0.09832454,-0.007125698,0.031593487,-0.010566988,0.087671824,-0.078562744,-0.0056902836,-0.0008374871,-0.04022247,0.014738543,-0.07491085,0.0659402,0.009342173,-0.047807947,0.09034115,-0.047995687,0.10198768,-0.02958567,-0.0884717,-0.0076062926,0.1169841,0.0033110029,-0.08563767,-0.025244337,-0.07962162,0.035280813,0.10584768,0.03792848,-0.043513503,0.014535482,0.022743719,-0.015515629,0.044096902,-0.041760154,-0.009250572,-0.0064338422,-0.060047586,0.020659763,0.0057494175,0.04927894,-0.020830967,0.06411168,-0.006560448,-1.497474e-32,-0.046877008,-0.039834686,0.023064552,0.066761,0.10270359,-0.010039519,-0.013539904,-0.041811064,0.08658571,0.014894513,0.0087693175,0.0040309085,-0.016220113,0.05975734,-0.084300935,0.0035224857,-0.04638601,-0.05669584,0.065160714,-0.023224609,0.019330919,0.074322246,-0.085792646,0.033969406,0.032102954,0.0102218175,-0.036111206,-0.037428185,0.048685886,0.02908341,0.068060614,-0.06329334,0.034717705,-0.002510824,0.022083847,-0.07607232,-0.00012427823,-0.03822292,0.025283271,0.036236398,0.084683925,-0.012374166,-0.0046912325,-0.06566539,-0.037746552,-0.0018458252,0.033967283,-0.011368768,-0.03940139,-0.058863964,0.016210852,0.023032265,-0.008381475,-0.076027535,-0.013178731,0.0011771907,0.08585516,-0.045354426,0.03643824,-0.018584147,0.08475261,0.058180064,0.10966116,0.02511679,0.012910245,-0.07280511,0.019942619,0.06295668,-0.06810621,-0.053864338,-0.034441493,-0.05003976,-0.002642184,-0.060137525,0.0059874356,-0.079566926,-0.051787812,-0.11507692,-0.0034673936,-0.01858115,-0.061039753,0.017758355,-0.025653215,0.059637427,-0.010404833,0.07183967,0.005942189,0.021499125,0.010050153,-0.050814953,-0.07738109,-0.0018149028,-0.043775667,0.05221489,-0.036690045,-6.257621e-08,-0.07463639,0.012504701,0.01306402,0.00051093043,-0.027222313,-0.038370587,-0.012293797,0.06549538,0.06881904,-0.00044501995,0.004357061,-0.030547617,-0.0337374,0.071188785,0.09274511,-0.009506631,-0.019261274,0.12961164,-0.023407958,-0.07435548,0.10680569,0.007836626,-0.028928094,0.0075852214,0.0070492877,-0.046170834,-0.027216194,0.013492737,-0.015850507,-0.016849095,-0.0022678003,-0.0770741,0.022390421,-0.023639508,0.039579906,-0.028186193,0.04185602,-0.03549762,0.03889901,0.030155636,-0.045719787,0.09348496,0.074065104,0.03688789,-0.051136613,-0.037742373,-0.12872371,-0.008048468,-0.05303976,-0.068322524,-0.039949726,-0.0039505684,-0.041964706,0.012574861,0.024831891,0.10703587,0.02276228,0.03299231,0.0990501,0.015500059,0.083062135,0.010241676,-0.007345384,0.026515568
ui+ux,-0.004271053,-0.027387287,0.017468283,-0.012735481,-0.06033486,0.00083242106,-0.0013292134,0.018448018,-0.065573595,-0.009487495,-0.0263779,-0.0685742,0.06359416,0.030355014,0.04236952,-0.012740137,0.04642723,-0.091249645,0.012939943,-0.05671096,-0.012754705,-0.027433211,-0.023972047,-0.07004626,-0.07928414,-0.06257041,0.058321167,0.014526209,-0.044647012,-0.06429954,-0.026802156,0.087782025,0.06035333,0.02193659,0.06367806,0.08837487,-0.01289905,-0.011556684,0.061047845,-0.062199075,-0.113049865,-0.06687556,-0.0013533165,-0.074793495,0.049250323,-0.018913414,-0.023116622,-0.08369049,0.054839246,0.026931139,-0.0277672,-0.04897215,-0.02185324,-0.009897699,-0.050611287,0.046873357,-0.054034963,0.049176976,-0.016149767,-0.038775165,0.041703746,-0.0107374815,-0.0045395033,-0.014860414,-0.011456262,0.008984279,-0.064424686,0.023175448,-0.022990325,-0.051273283,0.027900245,-0.069323055,-0.07314104,0.04348462,-0.019830592,0.03404185,0.0977424,0.025188906,0.058644556,-0.052241888,-0.019202169,0.10053716,-0.05321901,0.037377615,-0.12303212,0.016090296,0.032914806,0.06500006,0.007529183,0.04449451,0.03686809,-0.07996304,-0.023979492,-0.049406003,0.067047924,-0.042644184,-0.004354588,0.013563993,0.031210165,-0.011969521,0.065409146,0.023108682,0.032847557,-0.03349829,-0.16524765,0.06407614,0.0142181665,0.07215626,0.04230751,0.016585147,-0.024088409,0.030409051,-0.10918188,-0.113887414,-0.071402945,-0.04728393,-0.039779782,0.0060976916,0.050073415,0.04462018,-0.003435926,0.032607347,0.018748999,-0.049089525,0.019261735,0.05482378,0.006050886,2.0932106e-32,-0.06578116,0.022554198,-0.0627213,0.09248143,0.030083044,0.038138226,0.050046086,0.057273146,-0.040782668,-0.03933307,-0.028872272,0.04190471,-0.035990592,-0.03865865,0.017299639,-0.068025835,-0.057193045,-0.014387464,-0.020799404,-0.018980015,-0.028285164,-0.042235944,0.031772822,-0.0055493144,0.09902005,-0.024250155,0.058601756,0.028811337,0.015889445,0.035887256,-0.006841244,0.014003662,-0.060813993,-0.03337837,-0.0013293712,0.090929046,-0.06330139,-0.07639426,-0.009017582,-0.0041494663,-0.061606742,0.014305134,-0.085127376,-0.002463593,0.004072591,0.0019530831,0.044106644,0.025569648,0.004995092,0.010673142,-0.096801706,-0.039156727,0.055300068,-0.01580849,0.046440806,0.055778053,0.09396864,-0.08171285,-0.007036111,0.101365216,-0.09111825,-0.02065153,-0.05974311,0.06878819,0.06773604,-0.048629005,-0.0040614456,-0.022947581,0.09004422,0.011999837,0.010757494,-0.08027624,0.110403754,0.060541656,-0.07836986,0.0063932883,-0.071862556,0.030131627,0.004340576,0.04027392,-0.05998181,0.013451322,0.044931784,-0.010841852,0.13598649,-0.014030505,0.056895908,-0.017519034,-0.095334016,-0.009729931,-0.024190081,0.04021053,-0.02211562,0.07287691,0.0012105498,-2.0051772e-32,-0.023201507,-0.006947514,-0.011847337,-0.007733472,0.059351657,-0.0013917788,0.015708277,-0.06914767,-0.0058688694,0.072929114,0.015232404,-0.0070990724,0.013214828,0.025322694,-0.09067501,-0.08963699,-0.032843895,-0.042768605,0.025644597,0.09013556,-0.023132548,0.025781268,-0.03680456,0.048309024,0.010106065,0.020447277,-0.0665877,0.006316024,0.013229684,-0.007011423,0.027165309,-0.049977396,-0.007741007,0.045538872,0.023715246,-0.119501285,0.034654588,-0.07558331,0.0072158882,0.04676246,0.04538869,-0.09787938,-0.027300516,-0.023189453,-0.05525756,-0.07839645,0.070482,-0.07535404,-0.005476255,-0.083317995,0.025523398,0.004543824,0.00970363,-0.0078041125,0.00080852857,0.02675388,0.1068654,-0.009617356,0.012654679,-0.0063149813,0.12367866,0.015281453,0.13965103,0.048643894,0.03657261,-0.07528746,0.042327683,0.0049906624,-0.07217431,-0.02297479,-0.0843974,-0.028424691,0.013071471,-0.057821058,0.00016218837,-0.099711105,-0.03614901,-0.062207952,0.030648734,-0.05108072,-0.034824554,-0.020460185,-0.038162462,0.08307907,0.005751446,0.021250216,0.010844236,-0.008072315,0.044823334,0.015222944,-0.10382585,-0.024643578,-0.0314922,0.09147243,-0.0631023,-6.725504e-08,-0.08768797,0.029106252,-0.03683421,-0.016055668,-0.035512496,-0.0213971,-0.045635927,0.026925664,0.006076141,0.005895171,0.0019681673,-0.014398626,-0.047804195,0.08902262,0.0542412,-0.017235512,-0.018790655,0.14053348,-0.03991387,-0.058352824,0.049321674,0.019144064,-0.0128373355,0.031623002,0.003261381,-0.041961413,-0.05590436,0.047337636,0.040145412,-0.020658253,-0.012988119,-0.029118603,0.015012967,-0.06350672,0.023881856,-0.013875776,0.05365675,0.04724796,0.05444481,0.02364169,-0.0774382,0.09071001,-0.0044660764,0.02175437,-0.023532685,-0.047774363,-0.11843133,0.038146734,-0.06810172,-0.006182921,-0.018427309,0.00014754737,-0.057786085,0.09005421,0.028084343,0.071827054,0.013275775,-0.040365145,0.04530268,0.057432048,0.0018225338,0.04897097,-0.023436755,0.021131191
cyber+security,-0.021454867,-0.053977877,-0.042910267,-0.0027742244,0.0042931647,0.02368475,0.019413019,-0.011757473,-0.07291559,-0.03927508,-0.050192863,-0.06882479,0.03626425,0.05036923,0.03877341,-0.008236695,0.004407899,-0.023292873,0.0005752562,-0.095012695,-0.001702853,-0.048551574,-0.0099667385,-0.09219207,-0.13310505,-0.0017243224,0.023561632,-0.06386899,-0.07713078,-0.08264966,-0.00026685453,0.03544752,0.020438569,0.081770234,0.0036550337,0.065501034,0.0015983634,-0.005294125,0.12403502,-0.0614184,-0.058528874,-0.022465002,-0.0073569613,-0.0940207,0.025176853,-0.051578328,-0.005092466,-0.06484192,0.024217822,-0.016962541,0.016773008,-0.035163756,-0.0045755957,0.025366677,-0.060877435,-0.012006397,0.033896882,-0.002258701,0.03664876,-0.07682271,0.022900311,-0.034416724,0.032885823,0.006438292,0.0015113864,-0.015051414,0.014065777,0.097085886,0.043915104,-0.028823445,-0.028254332,-0.04411901,-0.0097421175,0.056942064,0.014436674,0.0737224,0.08233722,0.0007056134,0.098898515,-0.033398625,0.09300318,0.0157008,-0.06658602,0.08024469,-0.07089627,0.02218261,-0.07587174,-0.035632085,0.0015171737,0.064533085,0.05478757,0.024256457,-0.007403193,0.025142359,0.09392722,-0.09300782,-0.02153749,-0.012462508,-0.040083837,-0.0036733134,-0.03662159,0.018819986,0.058902442,-5.092769e-05,-0.058928333,-0.022575073,-0.00088965474,0.034954973,0.06418697,0.0064367745,-0.035690516,0.06997896,-0.09432352,-0.062164236,-0.0046142847,-0.0041652485,-0.04078605,0.058756005,0.006373785,0.027197875,0.018155828,0.09419938,-0.046190724,-0.07280985,-0.008845855,-0.005422363,-0.020456303,1.378618e-32,-0.11925413,0.059260465,0.04253206,0.0063127703,0.002388362,-0.02140992,0.04404433,0.05404193,-0.04600485,-0.0094968,-0.089902624,-0.0007176208,0.020304272,0.015185879,0.015566009,-0.017225854,0.048412204,-0.034619126,-0.033588715,-0.03890757,0.011799219,0.000113525646,0.028344085,-0.040475532,0.12932646,-0.061299305,0.025246844,0.038418338,0.083461784,0.050760746,-0.03785471,0.079004675,-0.065709814,-0.034331024,0.057413027,0.0592354,0.015079188,-0.07909147,0.020260729,-0.02375717,-0.020992089,0.02105952,-0.011995374,-0.004002299,0.0505319,-0.0163395,0.025129432,-0.0008512622,0.062401023,0.016737808,-0.13889998,0.012434622,-0.03762039,-0.03447193,0.004530353,-0.030891998,0.06375723,-0.053970397,0.06882153,0.0072682174,-0.060266025,0.0062718573,-0.04814886,-0.012402822,0.019638168,-0.06099909,0.057461087,0.013019518,0.030997876,0.0445542,-0.01963661,0.01330283,0.07703957,0.015005587,-0.08176663,0.022027193,0.00805693,0.042326253,0.036560517,0.07028677,-0.103073396,0.04152921,0.042094238,-0.012227846,0.08829764,0.072206505,0.023253798,-0.029175766,0.0036303534,-0.013668171,-0.052093208,-0.10202356,0.07825618,0.12006916,-0.09009232,-1.3782867e-32,-0.04650062,-0.0023556536,-0.07314672,0.04800519,0.06717178,0.0026250393,-0.013397526,0.016531022,-0.03395553,0.06469968,-0.00693912,0.05244738,0.06860622,-0.015409975,0.022904467,-0.022885982,-0.04565532,0.0023584247,-0.06775079,0.039446447,0.08546672,0.031026691,-0.016856892,0.046855636,0.059625417,0.03965068,-0.015499926,0.0116170775,0.06131719,0.066824496,0.029244332,0.00775249,-0.03707956,0.07773009,-0.043530297,-0.09342136,0.033170152,-0.077178285,0.03876846,-0.0025425025,0.04822956,0.01975004,-0.010484221,-0.01955783,-0.016150273,0.016245931,0.060566872,0.043666758,0.040302105,-0.06395037,0.03554786,0.04537729,-0.03614318,0.02472595,0.07293888,0.04581188,0.0134491855,-0.004067905,-0.062440716,-0.020430775,0.03600074,-0.003838343,0.0732643,0.037739996,0.025650457,-0.036926713,0.040066555,0.09099983,-0.09001294,-0.11277881,0.021102529,0.0015071279,-0.048984483,-0.07078476,-0.0944614,-0.07860784,-0.075305015,-0.034954675,-0.014220742,0.037088655,0.04430426,0.0051776064,-0.07821225,0.042535055,0.022778565,0.071892366,0.010780809,-0.035132147,0.028681526,-0.05633773,-0.1278031,-0.08365766,-0.04755223,-0.017973648,-0.013218059,-6.02022e-08,0.0076590157,-0.004780373,0.012400068,-0.008725605,0.0018057018,-0.029419836,-0.11139202,-0.029143292,0.00672622,-0.06734136,0.038062505,-0.06819466,-0.050843567,-0.05333774,0.023976456,-0.023908483,-0.13015465,0.07299244,-0.0029943867,-0.071845375,0.09665023,-0.013740076,-0.040017933,0.042207137,0.0058854255,0.050226554,-0.050499234,-0.03926964,0.010094987,0.008355694,-0.07949269,-0.08014283,-0.011291208,-0.0066180984,0.0045387475,-0.00088122656,0.099172585,-0.04208368,0.019474678,0.017816983,-0.030474821,-0.027606724,0.053420153,0.0421278,-0.10387257,-0.031713992,-0.006383983,0.0011222531,0.007711882,-0.03245087,-0.05392638,-0.00824066,-0.022866728,0.10930945,0.006805562,0.07039575,-0.002353002,-0.056647584,-0.01600727,0.14713377,0.053803515,-0.124733426,-0.050027985,0.03157092
cyber+security,-0.039042983,-0.008551135,-0.029063411,0.02161613,0.013476683,0.005900291,0.016818224,-0.013726109,-0.0490146,0.017550338,-0.029274246,-0.06338393,0.09737341,0.0013030433,0.053633016,0.010706749,0.028202876,-0.08205099,-0.011263955,-0.077651136,-0.034874726,0.02438542,-0.035339337,-0.06644228,-0.08521049,-0.019983632,-0.013132415,0.07875132,-0.07894878,-0.07291302,-0.021271788,0.057413317,0.052274752,0.06815194,0.031802915,0.09974155,-0.0018472571,-0.04770693,0.055381306,0.005033395,-0.07460941,-0.049222633,-0.0097334385,-0.047006752,-0.015215575,-0.049116317,-0.0014378392,-0.10163703,0.04685402,0.016246438,0.020123055,-0.052908413,0.016790016,0.05249223,-0.057069838,-0.008808633,-0.011930694,-0.030013997,0.02093351,-0.066144906,-0.019353133,-0.07987502,0.012069948,0.02016829,0.004588505,-0.064258136,-0.0787732,0.018482316,0.04032653,-0.04218831,-0.107533656,-0.028727576,-0.07585625,0.040206045,0.04441247,0.082420945,0.102643676,-0.0018869491,0.09338457,-0.06381126,-0.030026207,0.030916475,-0.08513237,0.03128388,-0.04570061,-0.01228919,0.03063321,0.011919192,0.019574005,0.07241276,0.06986892,-0.031013982,-0.010298481,0.025425768,0.0028704286,-0.013396494,-0.06997153,-0.009049067,-0.092235394,0.029289667,0.018936323,-0.035365377,-0.006141692,-0.0304597,-0.11165772,-0.0040540146,0.0002974323,0.106018014,0.014256337,-0.05171923,-0.024257042,0.0067314687,-0.07859522,-0.06722705,-0.013361273,0.015698735,-0.07133295,-0.011945233,0.028600747,0.070940346,0.08428053,0.013452699,0.005109806,-0.067405,-0.018617311,0.045872275,-0.03215469,1.7260778e-32,0.029864492,0.09339618,-0.032814104,0.01908413,0.096788056,-0.021712044,0.024195267,0.076831646,-0.06887251,0.027420225,-0.01705758,0.047867414,-0.0043902434,-0.021968538,0.028399838,-0.021608332,-0.021340502,0.050752744,-0.012403912,0.035341673,0.04121534,-0.052080616,0.014202218,0.024022339,0.13439535,-0.018287312,0.015491966,0.015759224,0.015136162,0.043941516,0.010425034,0.0053457483,-0.03506307,-0.058001556,-0.013955605,0.03845754,-0.0068456773,-0.065883614,0.022927003,-0.03279592,-0.049450137,0.02044161,-0.0033692808,0.052994773,0.046675794,-0.018537395,0.048370644,-0.008720487,0.06772554,0.032445133,-0.13131939,-0.095062464,0.07244726,0.014306202,0.06186313,-0.0012027187,0.08310699,-0.031420723,-0.005283876,0.021386879,-0.12064503,0.034362722,-0.053102385,0.012528663,-0.004585452,-0.049678925,0.040137306,0.0065423492,0.094386965,-2.7915564e-06,-0.029470932,0.026616355,0.10659788,0.029312786,-0.070357785,-0.06933393,-0.043362644,0.042439535,0.06896161,0.06903537,-0.10527208,0.010984655,0.016831398,0.034432117,0.040622424,-0.007792092,0.052128375,-0.0021415388,-0.0276554,-0.01927149,-0.035384767,-0.0215741,-0.002327586,0.017518066,-0.07542267,-1.5613285e-32,-0.051230405,0.02346806,-0.048628125,0.03564938,0.067419685,0.018522043,0.026969893,0.0013463895,0.022687856,0.049046315,0.03831156,0.055591743,-0.014638134,-0.06480347,-0.02244793,-0.084806666,-0.078363515,-0.027042944,0.02194204,0.032220144,0.036926404,0.05061771,-0.020057956,0.0633139,0.07020451,0.007370337,-0.04201031,0.0071822195,0.030068161,0.057359427,0.044880066,-0.007736806,-0.04089975,0.07278889,-0.05101323,-0.11341285,0.054039918,-0.0133222435,0.006969038,0.06741319,0.13607869,-0.013032082,-0.010579223,-0.0070646163,-0.07968997,-0.015888792,0.06635249,-0.022126999,-0.04866402,-0.024550114,-0.05153387,0.010151769,-0.030362992,0.016432498,-0.0056730215,0.0024391145,-0.0076659196,0.006394635,-0.010849263,-0.013791126,0.107465096,0.027066804,0.103314556,0.012769143,0.018833427,-0.11230808,-0.024687197,0.07327379,-0.07068101,0.020849055,-0.07947573,-0.014588414,-0.021883843,-0.11338647,0.01144896,-0.06791528,-0.02345258,-0.05569501,-0.012565633,0.010080422,-0.08605749,0.051291373,-0.09629985,0.06592252,0.05594008,0.03851671,0.03940209,0.04139055,0.045354906,0.030164635,-0.17872871,-0.08276007,-0.0062651597,0.026089314,-0.08677868,-6.440232e-08,-0.04892098,0.08437542,-0.018483162,0.04673722,0.03117959,-0.0066956235,-0.07864455,0.046123065,0.009758107,-0.006743586,0.03548941,-0.021045335,-0.0270374,-0.045012016,0.019984113,-0.023166025,-0.028101644,0.12432833,-0.0651125,-0.07967007,0.043672476,0.029736523,-0.053895056,0.034591947,-0.0020247898,0.051677994,-0.041190047,-0.025484804,0.006930016,-0.007403489,-0.026273929,-0.07593316,-0.009244524,-0.022783302,0.028093688,-0.006773093,-0.02989496,-0.042271398,0.025909651,0.09133003,-0.06210754,0.009792435,0.028247904,0.040130753,-0.05366642,-0.0017322466,-0.10023503,0.022094097,-0.04427085,-0.045132462,0.030039305,-0.04138446,-0.06297696,0.094772354,0.051449843,0.09742264,0.061848614,-0.05948086,0.048687175,0.07918953,0.037152026,0.008573877,-0.060584776,-0.007607965
software+engineer,-0.027718304,-0.0013226276,0.036921993,0.012963031,-0.0800006,-0.017734937,0.014665648,0.04286879,-0.03331092,0.039944466,-0.05234251,-0.1084323,0.0034745983,0.02445624,-0.007836064,0.096943736,0.07228642,-0.058711577,0.025656559,-0.08468552,-0.022620743,-0.024481101,-0.041746728,-0.07220456,-0.019057188,-0.018619513,0.0958772,0.056917034,-0.011793522,-0.023411611,-0.074725285,0.032504655,0.03695958,0.04630996,0.03455318,0.06240548,0.04779191,-0.0075024543,0.0054605776,0.061251875,-0.055418454,-0.018985499,-0.043174088,-0.089002624,0.025406094,-0.030047042,-0.004528794,-0.05873484,-0.008068973,0.0701592,0.027520774,-0.043046057,0.0090303905,0.05049337,-0.048832998,-0.029572152,0.03471617,0.051676486,0.002734099,-0.05893553,0.0017055131,0.01420091,-0.033764377,-0.029430214,0.009338294,-0.06250743,-0.07428248,0.01345947,-0.005504186,-0.063859425,-0.08453695,-0.022211298,-0.07119667,-0.069548935,0.0018012469,0.00881849,0.031677686,0.038932864,0.092846155,-0.08826436,0.03248077,0.07824472,-0.03957349,0.06687524,-0.13125181,-0.015591918,0.05735291,0.07278205,0.028710458,0.057314027,0.09266856,-0.037597045,-0.037280004,-0.038856596,0.005254312,-0.03509811,-0.00800115,0.03473858,0.021872291,-0.022914559,0.04186164,-0.017586652,0.0270574,0.006297756,-0.10636828,0.017258665,-0.037980236,0.01308205,0.034686293,0.013578237,-0.02253242,0.009721133,-0.16358536,-0.040880185,0.003792297,0.015760645,-0.0893295,0.012118641,-0.05576866,0.06797609,0.0062990705,0.052284293,-0.08648422,-0.0707155,0.00912797,-0.037549738,-0.07871957,1.2059648e-32,0.07856352,0.03615822,-0.055482276,-0.0071584815,0.07890986,-0.055894643,0.06795112,0.015456513,0.006090887,-0.005172684,-0.051246926,0.052335367,-0.0400502,-0.046207026,0.0011103438,-0.008294681,0.020293217,0.073864,-0.06771892,0.059527997,-0.014920792,-0.07658599,-0.024481764,0.016299475,0.04691565,0.019704929,0.06618174,0.046454158,0.06767617,-0.009092241,-0.026944505,0.006956164,0.06593742,-0.021394674,-0.010973139,0.024476297,-0.0019199436,-0.09877848,0.07675856,0.014865453,-0.0651184,0.024998363,0.058017023,-0.036524475,0.05879747,0.01685202,0.089111485,-0.022852354,-0.006534743,0.07221808,-0.06897514,-0.03104838,0.03933913,0.0548819,-0.009208779,-0.008671056,0.07609183,-0.07152574,-0.0046884418,0.104902245,-0.11017429,-0.05034462,-0.0022785515,0.06556495,-0.02616932,-0.07955602,0.04134648,-0.0069227,0.116988234,-0.014579257,-0.027833648,0.025413712,0.14751114,-0.0115008745,-0.07408955,-0.012796306,-0.007798447,0.06974745,0.017010197,0.06777994,-0.009485267,0.024265647,0.018949505,-0.055176955,0.06591954,0.03460649,0.04285379,0.0056777736,-0.021133725,0.035792913,-0.05523493,-0.015946921,-0.058014695,0.044205498,0.009734286,-1.0783821e-32,-0.0073664337,0.023632335,-0.04038362,0.016200025,0.046560723,0.080415,0.03209849,0.0020621486,0.046590798,-0.010194835,-0.054149564,-0.014200591,-0.014362232,0.03314377,-0.09165896,-0.063226715,-0.063703954,0.01402697,0.029693909,0.08473108,-0.05919575,0.072299376,-0.067977905,0.08213624,0.023121934,0.05167147,-0.041365486,-0.027585909,0.0045525734,0.023040859,0.025449969,-0.056441158,-0.03654106,-0.03312764,-0.0093452055,-0.12751378,0.03699376,-0.019777799,0.020306075,0.10239284,0.064996555,-0.008808799,0.03260219,-0.04749301,-0.036218736,-0.03447892,0.03274769,-0.065740176,0.019549008,-0.1081143,-0.021218278,-0.0040036454,-0.012186908,0.0086231185,-0.046969444,0.00065589335,0.057513565,-0.008118482,-0.0660129,-0.012565554,0.08248307,0.060890567,0.1380729,0.056075957,0.0036203892,0.0011458974,0.06395752,-0.035928905,-0.057243448,-0.0189046,-0.08425839,-0.04399308,0.051056784,-0.06358388,0.029697599,-0.05311335,-0.054049082,-0.0944013,0.039537657,0.034854975,-0.07837555,-0.013337976,0.00613547,0.031580582,0.027172701,0.03394957,0.005898886,-0.019418838,0.031800926,-0.007828728,-0.15201445,-0.017194847,-0.032269582,0.023583274,-0.022186514,-6.419665e-08,-0.02221258,0.030500432,-0.058343504,-0.021758107,-0.009528048,-0.071766816,-0.043719925,0.11322636,0.064228356,0.0453802,-0.0122922305,-0.07296407,-0.08365579,-0.0046279947,0.05612857,0.06860229,0.0031415115,0.04288492,-0.07504424,-0.0505996,0.021766845,0.059951913,-0.012919291,-0.0017106521,0.03261278,0.013366447,-0.05680111,0.0962558,-0.027075896,0.019006405,0.046256553,-0.028381938,-0.015607821,-0.031126762,0.037709806,-0.096995376,0.05917662,0.025301877,0.08542652,0.044157494,-0.030510612,0.02445711,0.032954942,0.033372805,0.0013782537,-0.022507604,-0.13682276,-0.019031823,-0.03924683,-0.0477711,0.010839669,-0.028180802,-0.010665773,0.035661586,0.06638753,0.07787604,0.0113690505,0.0061224643,0.0165712,0.06756417,0.002322479,-0.048389927,-0.004478711,-0.0057812035
data+analyst,-0.0014092596,-0.032426026,-0.0076240674,0.030837968,-0.08805195,-0.018399779,0.006421719,-0.0009993262,-0.12187258,-0.025050316,-0.048824463,-0.05694017,0.011834141,0.012742405,0.053775255,0.01820972,0.007895007,-0.047067072,-0.028272746,-0.09146249,-0.020623052,-0.011530164,-0.039095834,-0.041934807,-0.09173232,-0.024139429,0.05201383,-0.03517221,-0.010374846,-0.065264344,-0.008060176,0.025625993,0.09319918,0.06323205,-0.019547753,0.0629514,0.032631073,0.0431988,0.07364547,0.017968446,-0.08855414,-0.0767247,-0.03797268,-0.06553081,0.015922293,-0.0130080525,-0.034711838,-0.063035294,0.042609394,0.049340576,-0.13558778,0.002205658,0.007445444,0.021206645,0.0018329805,0.04519544,-0.03496128,-0.009359724,-0.015043601,-0.04665643,-0.032852523,-0.0012498809,0.03148364,0.028444014,-0.02989742,0.057078797,-0.11782402,0.06097691,-0.016670961,-0.002225096,-0.07465428,-0.030152762,-0.12219944,0.059215445,0.012910889,0.0083297165,0.05021636,-0.002566892,0.07650147,-0.053739414,-0.06447164,0.054347098,-0.07971302,0.13297056,-0.05744607,-0.043127738,-0.006325737,0.077177964,0.022658808,0.025758479,0.06844455,-0.05294774,-0.026969919,-0.014846782,-0.0016153454,-0.025259992,-0.0660704,0.00628404,0.045526933,-0.043815535,0.0018678076,-0.0155720925,0.045984015,0.013315635,-0.16385657,-0.0011261713,0.065821536,0.06012833,0.03025352,0.01737484,-0.019522307,-0.033245757,-0.11213486,-0.11286443,0.04102023,-0.016538462,-0.11853167,0.057758655,0.020481233,0.09627889,0.0073972424,0.12516882,-0.010928249,-0.090236284,0.0027768426,0.03586445,-0.06997376,1.6666404e-32,-0.042523026,0.026101727,-0.02860541,0.056169238,0.0071769073,-0.01186311,0.0060942853,0.05653862,-0.028638223,0.034079775,-0.029473497,0.101779535,-0.08244829,0.017642954,0.026638292,0.0015263946,0.010335128,0.060551308,-0.09335593,0.030786604,0.042847015,-0.0113091245,0.020404913,0.008387907,0.09611747,-0.0037023365,0.06078333,0.033854745,0.036171515,-0.0109655,0.047223892,-0.012325144,-0.05770832,-0.022026105,0.0046579605,0.049159214,-0.022553021,-0.05533997,0.07041655,0.023620171,-0.05678088,0.02059911,0.017798318,0.026471514,-0.010765973,-0.004114333,0.05276258,0.022336094,0.03450161,0.036495358,-0.057470597,-0.07946255,0.07468302,0.0027625964,-0.0037042699,0.0709464,0.060910556,-0.09403038,-0.026263408,0.05229277,-0.06304023,-0.025275148,-0.042748228,-0.009459992,-0.007689343,-0.013596734,0.03861618,0.008080461,0.070719756,-0.011825036,-0.05637186,-0.01389727,0.04032735,0.03666362,-0.010301048,-0.0047490527,-0.047593877,-0.044310916,0.041110326,0.08145399,-0.011631012,-0.0073852693,0.066099,-0.05558172,0.068253115,0.00059330935,0.0626228,-0.0019623912,-0.05221312,-0.00095072185,-0.057373468,0.04267553,-0.05392866,0.06638375,-0.07797787,-1.58607e-32,-0.041109927,0.0017857674,-0.010810925,0.07156999,0.0914207,0.068761505,0.023455104,-0.10434889,0.07804245,0.017335087,-0.011461257,-0.024883319,-0.014152883,0.016440997,-0.056968883,-0.012720645,-0.08110482,0.030780092,-0.03253387,0.046395496,-0.07015719,0.11021164,-0.066654086,0.049003653,0.018698405,0.037085403,-0.030523319,0.004859344,0.066682175,0.036229335,-0.021440916,-0.056256983,-0.035314478,-0.004893934,-0.015354813,-0.1096229,0.013353832,-0.10295557,0.024603894,0.06705363,0.07309877,0.02902753,0.0029538951,-0.014512971,-0.02369216,-0.018834373,0.07178196,-0.0011380165,-0.023994375,-0.071253546,-0.010821919,-0.0055253333,-0.037406895,0.002750276,0.007831105,-0.0068972423,0.030429002,-0.06257306,-0.04274327,-0.008798397,0.030668698,0.012556568,0.14102226,0.060686205,0.04299521,-0.022454515,0.025454653,-0.014900606,-0.0898558,-0.0888436,0.017067203,-0.041302696,0.0146984095,-0.06564744,-0.042076,-0.045147058,-0.10859424,-0.066342235,-0.011402014,0.04149348,-0.041926738,-0.043815855,-0.022530563,0.05330123,-0.0017657805,0.059178837,0.0009155923,-0.02092303,0.070161276,-0.053248316,-0.11761286,-0.0045501157,-0.08103642,0.09287743,-0.04095453,-6.015416e-08,-0.043100502,-0.008745319,0.011623274,-0.0036109323,0.018839153,-0.03557384,-0.098537765,0.023998093,0.030602938,0.014245428,0.0011793452,-0.050689884,-0.059460104,0.000106525054,0.08952595,-0.0017638652,0.02836747,0.10719664,-0.017747328,-0.0014993262,0.099670865,-0.034346983,-0.054450713,0.04520791,0.02784322,-0.05705591,-0.055951323,0.016060406,-0.022138966,0.0033997104,0.036040854,-0.07969253,0.06238383,-0.07723091,0.03897217,-0.041089687,0.028843263,0.02794885,0.039389484,0.04235612,-0.05439849,0.091593035,0.040808093,0.08201219,-0.016813224,-0.024977002,-0.11045399,0.0657473,-0.0017635477,-0.033850048,0.028610734,-0.0064541143,-0.013739899,0.027673578,0.032662716,0.06919331,0.025450211,0.031906307,-0.01010969,0.0053562913,0.041599892,0.0049014525,-0.023004405,0.0039505735
cyber+security,-0.02108145,-0.06293426,-0.05107781,0.03488985,0.0072236056,0.028085435,0.025693454,0.001767401,-0.04549466,-0.0058344323,-0.037230447,-0.045062438,0.073376834,0.05374033,0.020520395,0.018737618,0.05782239,-0.034349788,0.0072489423,-0.08464744,0.0115521485,-0.0034579544,0.031571217,-0.07503109,-0.21381849,-0.013013468,0.012178149,-0.024792006,-0.11720939,-0.058657683,0.022267539,-0.027740106,0.06030291,0.03353751,-0.017679697,0.040230464,0.057526845,0.075002015,0.11065689,-0.055094074,-0.06779083,-0.038382072,-0.0018928406,-0.044606514,-0.013112835,-0.062888674,-0.05898331,-0.030272366,-0.009969153,-0.046862535,-0.043938875,-0.08343442,-0.0063617365,0.06682007,-0.034251034,0.03222552,0.0053555616,-0.027355956,0.018122017,-0.04703089,-0.041063253,-0.035060022,0.03642069,-0.01415679,-0.017728562,0.018747773,-0.013209573,0.08740844,0.027432097,-0.00883661,-0.0055478886,-0.014219335,-0.044480268,0.05341342,0.029662384,0.05051995,0.08834782,0.0068837106,0.12747224,-0.038458794,0.05366485,0.046125636,0.031623755,0.10558695,-0.056450475,0.01882738,-0.082909524,-0.0077010514,0.025636062,0.081030644,0.08248428,-0.029598353,0.008576054,-0.0016339888,0.061304446,-0.07838386,-0.051482968,-0.022898372,-0.051798977,-0.025444962,-0.024201177,-0.08165893,-0.007200687,-0.04524559,-0.0897087,-0.027735673,0.011641213,0.018561602,0.03853081,0.03391795,-0.025158169,0.026069818,-0.10516927,-0.059881587,0.04301565,0.051091727,-0.06559124,0.08629676,0.03799774,0.03704863,0.025233759,0.077810764,-0.025373576,-0.021860043,0.014502718,0.04762959,-0.051343244,1.8440388e-32,-0.044056382,0.103955105,-0.03859187,0.02979388,0.019367393,-0.038158733,0.07320324,0.07195786,-0.05404433,-0.0011422477,-0.050095763,-0.0021554208,-0.0030889255,-0.0014470884,-0.01777651,-0.0011510154,0.020052575,0.03983985,-0.081843294,-0.0378481,0.015947022,-0.036368318,0.003756383,-0.008315584,0.10494165,-0.0054654847,-0.027326047,0.021995047,0.03659614,0.0104630515,-0.041482393,0.047824815,-0.09579737,-0.041757967,0.08074896,0.0478704,-0.010769451,-0.066248775,0.0038325093,-0.03147791,0.002689414,0.041723344,-0.007572378,0.016400855,0.043444593,-0.05920398,0.0070560393,-0.016939318,0.035498466,0.0012019974,-0.07684501,-0.0309635,0.039062828,-0.004912297,-0.03502202,-0.00891788,0.065559946,-0.0340655,0.05186922,-0.03123387,-0.02586769,-0.019451313,-0.029608345,-0.0064096893,0.054950148,-0.06718912,0.0628402,0.009569591,0.07588328,0.05682036,-0.025046593,-0.020763272,0.06447583,0.018298939,-0.027971452,-0.021754708,0.0074058636,-0.010976905,0.032888558,0.07030447,-0.105109565,0.012498783,0.056514777,0.0038138977,0.085061185,0.02233787,0.02996083,0.010047058,-0.044963334,0.053588234,0.01243127,-0.053092454,0.0018466045,0.11240755,-0.0657958,-1.6752045e-32,-0.022290692,0.011601522,-0.06123914,0.028967213,0.05819263,0.016615886,-0.027005788,-0.035824426,0.07259807,-0.024482923,-0.013837121,0.046004977,-0.022292,0.0010439812,0.0063332124,-0.017764285,-0.077106155,0.017732538,-0.04015449,0.027269788,0.021188054,0.0461973,-0.03844644,0.05573172,0.0029207629,0.054189384,0.037953388,0.06322042,0.0722787,0.08579043,0.011252416,-0.050567165,0.018100873,0.06452382,-0.053692475,-0.033997484,0.058416698,-0.14179882,0.02480371,0.027263382,0.06148407,0.0501436,-0.018790243,-0.05904361,-0.01898538,0.00095519033,0.060082905,0.06913613,-0.0016335854,-0.07301607,0.0064925794,0.017039081,-0.06272585,0.053527642,0.017210122,-0.022885436,0.016186876,-0.038016975,-0.04170923,-0.024033757,0.024950838,0.06438821,0.037640892,0.038369317,0.06511504,-0.043579403,-0.0113339545,0.005731969,-0.12037663,-0.06772247,-0.00912575,0.013665373,0.0354716,-0.044596568,-0.08557831,-0.111594915,-0.0669971,-0.033487514,-0.06968302,0.06980922,-0.0028342432,0.005061229,-0.08983491,0.027080597,0.025469625,0.103168495,0.033261582,0.0022174309,0.011347051,-0.04659984,-0.060069207,-0.09892486,0.007651835,0.028111951,-0.016181137,-6.3510434e-08,0.046456017,0.031159367,0.025704768,-0.008558398,0.029753173,0.0011399144,-0.124991715,-0.048890706,0.007969487,-0.040121406,0.04568386,-0.048729774,-0.00017494205,-0.09587158,0.054716706,-0.083764635,-0.06597668,0.05456737,-0.026286349,-0.06886119,0.067459084,-0.052720472,-0.101109006,0.026646249,0.059903815,-0.0013601116,-0.054215237,-0.0575086,-0.0077344305,0.05307439,-0.08526715,-0.08201597,0.0489749,-0.0027413173,0.07411109,0.036534674,0.050010934,-0.06663303,0.08248383,-0.008642154,-0.038003754,-0.005079047,0.042198654,0.03379051,-0.08683666,-0.015678335,-0.0795721,-0.019199379,0.029404927,-0.032747354,-0.015135303,0.0011051686,-0.0051222183,0.13268368,0.021128865,0.095391594,0.03892505,-0.026837746,-0.013699251,0.10112385,0.08940247,-0.092155345,-0.049704436,-0.02238796
data+analyst,0.00020835309,-0.0136315795,0.0042109364,-0.009298433,0.004648629,-0.01465275,-0.058768492,0.011101232,-0.08258657,-0.024579883,-0.086239226,-0.08193234,0.009604574,0.014776484,0.036135495,0.038018845,-0.005123948,-0.0913468,0.00212066,-0.03564785,0.005173668,0.01185859,-0.06482782,-0.07331197,-0.07574673,0.035237808,0.09263627,-0.031424593,-0.04457065,-0.07208816,0.021754615,0.015436574,0.060948044,0.10343895,-0.0058178282,0.10638833,-0.0106207365,-0.053514857,0.010760292,-0.082622014,-0.05938403,-0.027558945,-0.0057527577,-0.033232596,0.08719669,-0.0077969776,-0.07847809,-0.06972944,0.015201163,0.020262545,-0.04715815,-0.06635766,-0.011266367,0.023495682,-0.0433534,0.0798001,-0.016993029,0.019439176,-0.039942503,-0.07313195,0.06726256,-0.027472083,-0.023998732,0.0032710214,-0.013177751,0.056335893,-0.05304768,0.060958564,0.026745986,-0.06242882,-0.017632194,-0.03636912,-0.021575898,0.0069659892,-0.008246251,0.051100746,0.0711957,0.008812613,0.07170027,-0.065851584,-0.0003230545,0.07392419,-0.09315876,0.14174722,-0.06859639,0.0109720295,-0.027316464,0.04141918,-0.022180468,0.0017071107,0.0753901,-0.053218853,-0.027013559,-0.016873159,0.06347584,-0.032534428,-0.05005082,-0.025230527,-0.050717056,-0.027470367,-0.0061732056,0.05267918,0.04726724,-0.04407248,-0.09601468,0.039008863,0.053401414,0.07840645,0.0018224213,-0.020919729,-0.052385315,0.010691787,-0.06908928,-0.06381136,0.07290477,-0.043517727,-0.07068054,0.03901639,0.042027395,0.044443734,0.011013259,0.04932,-0.020775704,-0.0631005,-0.0061141197,-0.0041088196,-0.08129978,1.4297861e-32,-0.07647097,0.065965936,0.027805896,0.0239456,0.0871286,-0.056686394,0.039701845,0.069934934,-0.075392,0.038951986,-0.004658828,0.024317354,-0.0683804,0.014204822,0.057998836,-0.06892264,0.0070036426,0.06933463,-0.044643827,-0.038034905,0.005317816,-0.074950024,0.052552663,0.03240121,0.13849539,-0.03168592,0.05447201,-0.009614364,0.029219575,-0.011632442,-0.023357369,0.0037807992,-0.066176035,0.00041083118,-0.05529748,0.06997233,-0.0510458,-0.10017645,0.031891525,0.045307428,-0.0401812,0.0706052,-0.035640232,0.03136533,0.005140796,0.0034298287,0.041966505,-0.043975245,0.08242971,0.014242753,-0.07799612,-0.055327054,0.051637597,0.048457645,0.03409771,-0.0069517577,0.0862467,-0.068329,0.012338855,0.022447282,-0.05222883,-0.08037609,-0.0955563,0.054806914,0.013863411,-0.035898775,0.039439745,0.037401676,0.07254389,0.015824484,-0.029047377,-0.049834657,0.06959496,0.031439308,-0.09286858,-0.018697018,-0.035606183,-0.0077868598,0.06353337,0.0570728,-0.11889267,0.018896814,-0.0019734632,-0.05405171,0.06314577,0.0505428,0.056266148,-0.046020735,-0.036192976,0.028538957,-0.023714783,0.013515457,-0.038728725,0.065788604,-0.04369977,-1.2811246e-32,-0.08370188,-0.0042084595,-0.04740044,0.03223929,0.120395616,0.011441288,-0.015085454,-0.030817507,0.11385944,-0.0051765502,-0.018359547,0.034924764,-4.820882e-05,0.021242766,-0.045294117,-0.026670665,-0.011051702,-0.049405616,0.016669456,0.067413434,-0.03164244,0.09358363,-0.05555895,-0.018094355,0.04665843,0.032034617,-0.01948381,0.014198335,0.0804914,0.0077977655,0.036020603,-0.04544942,0.0003400115,0.029826824,-0.021036789,-0.04907804,0.028933352,-0.05569819,0.043425597,0.085120514,0.02912312,-0.06902867,0.024248071,-0.012072884,-0.050281573,0.036798425,0.009628503,-0.0038080816,-0.059442297,-0.0884576,0.0018873189,0.015997775,-0.02935945,-0.026288994,0.0066517903,0.0067326273,0.05272955,-0.011386739,0.0059387074,0.026102684,0.10131282,0.042735443,0.10562762,-0.02052625,0.031034684,-0.068027794,0.055809624,0.0066269455,-0.13609864,-0.055001732,-0.024085244,-0.045936234,-0.037074175,-0.023673221,-0.07691453,-0.08821297,-0.07515849,-0.055928078,0.04787413,-0.04881211,-0.078310266,0.018123409,-0.04740232,0.07420772,0.018253399,0.0130187,0.051368274,-7.283896e-05,0.011765768,0.022283988,-0.0991481,-0.019457847,-0.04847601,0.06697965,-0.08662343,-6.3659016e-08,-0.06608106,0.004042712,-0.024315335,-0.0023121436,0.0123750605,0.013775401,0.00706909,0.0846343,0.061445296,-0.03002773,0.01135602,-0.03555666,-0.02732359,0.013464772,0.056576636,-0.048705913,-0.036751434,0.113133095,-0.02615539,-0.06845154,0.06650902,0.04000158,-0.028724503,-0.057598792,-0.0011569344,-0.009304232,-0.0039529637,0.04424474,-0.026819237,-0.0075006834,-0.016228633,-0.03762909,0.10694542,-0.02180245,0.068907164,0.021449948,0.10248404,0.008712277,0.05058536,0.022580372,-0.024418121,0.0601108,0.039323986,0.03182845,-0.06779517,-0.0008124191,-0.03379893,0.06383354,-0.0033869974,-0.022722898,-0.021371767,0.010475105,-0.053008266,0.11124811,0.06524396,0.05875765,0.045568433,0.0066693565,0.08190083,0.059306905,0.08658244,-0.03216828,-0.048100997,0.029223936
ui+ux,0.015105361,0.006476634,0.0021832373,0.017205482,0.0018327719,-0.06913288,-0.00882358,-0.033969548,-0.12987122,0.011858286,-0.03136559,-0.04574719,0.042319108,0.010750163,0.06848524,-0.012826552,0.019101594,-0.05634751,0.00022753022,-0.035495494,0.013515301,-0.047668323,0.0052158316,-0.054807227,-0.0932625,0.01919161,0.02371345,-0.04396699,0.033041596,-0.1355212,-0.021307368,0.0051355287,0.045954313,0.07740656,-0.029627481,0.15084879,0.019682458,-0.041353166,0.026971884,-0.00886252,-0.107123055,-0.107884675,-0.043009035,-0.051842213,0.039965834,-0.030308463,-0.0549033,-0.047688805,0.0010310605,0.043909233,-0.03956222,-0.083987124,-0.024731038,-0.0486504,-0.07058402,0.08604153,0.02866141,0.0057175136,0.0014917044,-0.09954971,-0.025391465,-0.012028302,0.0022985302,0.049884867,0.044790413,-0.020486176,-0.020419106,-0.01473976,0.035629656,-0.025088424,0.002494714,-0.08586186,-0.1186387,0.044123106,-0.009140772,-0.009455379,0.06137404,-0.015026228,0.050408874,0.017432805,0.033872344,0.095158845,0.015560813,0.1307502,-0.0400278,-0.018439986,0.009779114,0.086438954,-0.008262184,-0.017635284,0.017078023,-0.07194202,0.0039219093,0.039108627,0.008087429,-0.052729297,0.008522,-0.015368046,0.011240658,-0.009058874,-0.0039837365,-0.019753095,0.05264282,0.02146151,-0.10465073,0.083066106,0.012563884,0.12113967,0.0037871024,0.018669236,-0.046211764,0.028694592,-0.099157624,-0.043282796,0.047276195,-0.033512697,-0.06749836,0.03529241,0.11590664,0.05539612,0.027736878,0.100659885,-0.010321115,-0.08495782,-0.029818203,-0.0151609,-0.0477053,1.1257877e-32,0.042070046,0.020039815,-0.050203502,0.019747024,0.039848413,0.021679051,0.06578232,0.083605714,-0.04653474,0.03892049,0.05635234,0.038862284,-0.06907184,0.08504289,0.06453056,-0.037175592,0.05609674,0.037976056,0.034269504,0.005282613,0.0122899925,-0.0549462,0.012936014,-0.006383125,0.06282708,0.033282753,0.0012700483,0.052465312,-0.04256806,-0.021557735,0.029839907,-0.08160805,-0.044085298,0.017437825,-0.044118732,0.016252367,0.003124662,-0.049645193,0.041390065,0.037158094,-0.11231863,0.050492298,-0.017170459,-0.013310918,-0.0033463894,0.035814285,0.06797887,-0.08787584,0.044826306,0.054339543,-0.0531341,-0.050766487,0.033987448,0.049526636,0.022016091,0.011973904,0.057126336,-0.12538745,0.016027242,0.019188423,-0.0428793,-0.023881959,-0.10364421,0.06134926,0.01443478,-0.09478034,0.08342469,-0.0010216534,0.08674348,-0.017534323,-0.082274765,-0.024815574,0.1248202,-0.013140404,-0.063434,-0.0059013534,-0.05097328,-0.04633535,0.000111422465,0.081593595,-0.0022883024,0.07277464,0.067344025,-0.030935865,0.05407276,0.04999178,0.07524899,-0.014604524,-0.07389603,0.03872362,-0.069678456,-0.02384381,-0.0315373,0.05539767,-0.034059096,-1.1116505e-32,-0.02774572,-0.03305491,0.010777909,0.06524642,0.09236796,0.0035624888,0.018559804,-0.041121546,0.005387176,0.0002571628,0.03472964,0.066562764,-0.03417235,0.06810475,-0.10530003,-0.0017054224,-0.047548838,-0.056156557,-0.049059615,0.024920192,0.0064443303,0.11231206,-0.093027644,0.05117662,0.0354466,0.017844655,-0.027278509,-0.038882885,0.03320346,0.04741083,0.04745213,-0.030168375,5.5333032e-05,0.04559499,0.06958901,-0.10170523,-0.040301315,-0.018288648,0.020827813,0.10536305,0.015668109,-0.024832683,0.054240286,-0.040862728,-0.003603134,0.01471473,0.0049119303,-0.02219958,-0.050942983,-0.06666901,0.012689298,0.011937067,-0.020485759,-0.050818555,0.028342359,-0.08252193,0.014040303,-0.034022056,0.030723438,-0.039585367,0.07238666,0.070011005,0.070751674,0.037031658,0.015660033,-0.03258841,-0.04657888,0.043809272,-0.08513779,0.022814246,-0.06046501,-0.001165089,-0.020111362,-0.04894542,-0.07530299,-0.07669991,0.009202532,-0.065381944,0.04396445,0.022787975,0.004379754,0.03585036,-0.014131259,0.023708966,-0.0074704457,0.036040008,-0.023994341,-0.0056782686,0.03848615,-0.07649174,-0.12668802,0.004583413,-0.04403624,0.043981686,-0.04158393,-5.930759e-08,-0.040612876,0.02512243,0.00037737252,-0.02487292,-0.025084322,-0.036147088,-0.018849274,-0.0036372792,0.09108498,-0.048304215,0.029603746,-0.0636633,0.008162551,0.072922245,0.07823954,-0.060506646,-0.009861871,0.1306146,0.0075128693,-0.09988641,0.014073797,-0.010326966,-0.0358337,-0.024869766,0.012655669,-0.0068803155,0.01296909,-0.026231958,-0.06048087,0.037167527,-0.029561508,-0.028523663,0.000454855,-0.02667117,0.047209315,-0.037996337,0.0106407255,-0.03409668,0.05170506,-0.02447332,-0.052344814,0.08129105,0.13047639,0.045493208,-0.045896094,-0.03778535,-0.044183355,0.030990742,-0.007355129,-0.025631066,-0.04497942,-0.01813417,-0.033970155,0.04609067,0.057576366,0.049508415,0.05745948,0.0051418697,0.053220265,0.03693007,0.046212878,-0.036200427,-0.020109043,-0.013145857
cyber+security,-0.021918986,-0.0473654,-0.047917206,-0.0012163229,-0.0069341753,0.03607515,0.027118659,-0.021091236,-0.016553568,-0.017674373,-0.063643105,-0.043327745,0.042156737,0.05201563,0.036703914,0.022688815,0.023506435,-0.04931726,0.01179879,-0.07433392,-0.06605713,-0.030856686,-0.020062447,-0.09399779,-0.11178873,0.008636572,0.023138901,-0.07817199,-0.068133935,-0.041588593,-0.021084258,0.034094866,0.0019195016,0.11105727,0.026486175,0.058829058,-0.018894907,-0.0015106078,0.11349251,-0.043046135,-0.061553095,-0.059151486,-0.035535805,-0.08449021,0.030690089,-0.03550053,-0.016732445,-0.039223548,0.024306199,2.66521e-05,-0.006420291,-0.051943533,0.00352357,0.01167247,-0.08709055,-0.017176798,0.024879498,0.030689072,0.044607695,-0.066127375,0.0020171332,-0.047016244,0.038797222,-0.0046757013,0.010413323,0.010613496,0.012636471,0.09219768,0.040017117,-0.020217646,-0.0061165025,-0.050516035,-0.008305139,0.03849383,0.01777426,0.045848604,0.059627414,-0.012862172,0.09987073,-0.017423553,0.08814719,0.052620713,-0.04168047,0.097617164,-0.101252906,0.03157955,-0.044537403,-0.036928885,0.005439965,0.035977196,0.06359234,0.032676622,-0.009317948,0.024942117,0.11063833,-0.081717715,-0.030431276,-0.016995687,-0.049894784,-0.013624181,-0.038485292,0.015317121,0.060768683,-0.013261152,-0.0440102,0.010250065,-0.0063465037,0.027644074,0.06265476,0.014742521,-0.036094807,0.038201626,-0.09128394,-0.048902586,0.0037564745,-0.005092366,-0.031446554,0.062303565,-0.024963394,0.03534639,0.03976013,0.080811515,-0.038024362,-0.067444555,-0.02190417,-0.01050622,-0.055006992,1.3006939e-32,-0.104231864,0.075748995,0.064566575,-0.015610397,0.0130025465,-0.024277387,0.05972927,0.030739792,-0.054869354,-0.0038454337,-0.08426119,0.031232007,0.018929834,0.018652113,-1.7468694e-05,-0.017331885,0.06752992,-0.037565455,-0.011478149,-0.057409544,-0.004553976,-0.001027133,0.053120084,-0.03436452,0.1085648,-0.059328802,0.05335643,0.039730716,0.1261345,0.037913065,-0.06407014,0.077334546,-0.049413648,-0.022761354,0.055668045,0.060956266,-0.027178038,-0.066690035,0.014069605,0.01631231,-0.04311227,0.052516717,-0.009691192,-0.015911974,0.007901637,-0.01477369,0.051034003,-0.0049028643,0.034438338,0.024197217,-0.15255934,-0.0071386076,-0.02722083,-0.0073487083,0.023810625,-0.022869946,0.0720287,-0.056906033,0.06835683,0.025231458,-0.10346723,-0.029641174,-0.033191927,-0.036706936,-0.023357688,-0.10589915,0.022664396,0.06514711,0.017808652,0.038002536,-0.0035308532,0.05496019,0.1157076,-0.0052292035,-0.062458873,-0.005936102,-0.004561096,0.06056227,0.023132682,0.042966515,-0.094559744,0.05494983,0.05848623,0.0052869283,0.0141903935,0.09707717,0.032929413,-0.0021407525,-0.035205904,0.016172582,-0.054599248,-0.10431337,0.090081096,0.0762569,-0.07415187,-1.277754e-32,-0.06042501,-0.0331735,-0.095413126,0.07705155,0.09840145,-0.014947521,0.01733086,0.0071877236,-0.022948062,0.061196342,-0.006898144,0.05321116,0.05729638,-0.013010965,0.02062607,0.006287452,-0.051627234,-0.026105175,-0.043934975,0.013953936,0.06986042,-0.006571275,-0.0021626004,0.0067415056,0.044925954,0.05566656,-0.012173486,0.0103377905,0.05662286,0.07006599,-0.012768732,0.0155055085,-0.03127857,0.08278843,-0.030619102,-0.07003508,0.030493306,-0.06497002,0.017822577,-0.035542622,0.013448637,0.014608942,0.021136282,-0.05205517,-0.000608268,0.037005488,0.085659966,0.051341288,0.038823824,-0.082025155,0.039746057,0.07440085,-0.046378538,0.026757866,0.035399277,0.015049918,0.03717575,0.036701538,-0.060130488,0.0015635033,0.01542975,-0.011198624,0.08439572,0.058858603,0.03590373,-0.008219574,0.029574009,0.08302448,-0.064397395,-0.12386032,-0.009061053,-0.01903486,-0.061010357,-0.10632054,-0.07042519,-0.071881875,-0.06861485,-0.06159032,-0.02053442,0.033804704,0.010533106,0.00033321002,-0.10214695,0.041681107,0.01836826,0.034586426,0.020037219,-0.045001216,0.0136873275,-0.019452184,-0.14442532,-0.081100084,-0.047109783,-0.0024433937,0.0021558092,-5.973537e-08,-0.0005345976,0.011542858,0.03893027,-0.011506936,0.010006253,-0.026311897,-0.07912406,0.031642552,-0.017494006,-0.054936636,0.05416827,-0.07328029,-0.026846994,-0.025150055,-0.0020865365,-0.04209246,-0.097379275,0.05931746,-0.0050657946,-0.068050355,0.06311071,0.0035657005,-0.04558901,0.034755237,0.0103192115,0.061569225,-0.053977173,-0.040474016,-0.032168254,-0.032278817,-0.11116698,-0.089027606,0.00805834,-0.029966952,0.03724727,-0.038478315,0.0750516,-0.047639426,0.024861239,0.03633851,-0.05516815,-0.0036409798,0.051000286,0.020305943,-0.096907884,-0.034364555,0.024865033,-0.0042189416,0.0087117655,0.026812177,-0.03599711,-0.020573225,-0.0037892193,0.11202368,0.033781763,0.06179333,0.032397337,-0.06258643,-0.012397005,0.16713455,0.00971112,-0.085337915,-0.050699044,0.03136943
cyber+security,-0.009399649,0.06054855,0.006028737,0.03250322,-0.0050344886,-0.024109676,0.055382725,-0.016730135,-0.0903844,0.029449172,0.0005416943,-0.12710279,0.039058696,-0.021767685,0.022992473,-0.01909619,0.034278747,-0.124527805,0.009425566,-0.11850623,-0.065342106,0.0017154121,-0.030931253,-0.064176254,-0.05330908,0.038519792,0.014445155,0.08751177,0.041744586,-0.025633162,-0.036176737,0.04973756,0.03733714,0.035812117,0.014879048,0.03696068,0.02613336,-0.016024,0.008665713,-0.007120325,0.0466813,0.043543003,0.040348038,-0.1442463,0.0063171443,-0.065220945,0.07662425,0.024263334,0.05812568,0.011486288,0.04361544,0.010569316,0.07731593,0.041802052,-0.028090458,-0.01996481,0.043223016,0.025200073,0.022320965,-0.061764006,-0.011228719,0.042796236,-0.011106373,0.020078912,0.06911216,-0.06689761,-0.026308391,0.022456774,0.023452146,-0.04696171,-0.08797738,-0.10775361,-0.04812191,-0.031599212,0.035281703,0.06737701,0.031560127,-0.0580639,0.10142593,0.017926738,0.07428731,-0.075305045,-0.06777901,0.06462111,-0.041939955,-0.030396683,-0.013469392,-0.0021029795,0.11535768,0.013905682,0.08558417,-0.033722654,0.02789286,-0.005368905,-0.003053908,-0.04357879,0.003819454,0.08720544,-0.07173592,0.029479805,0.031862628,-0.02144444,0.054641724,-0.009736612,-7.7860466e-05,0.039741047,0.023775928,0.10024675,-0.0006665223,0.000115535855,-0.06454129,-0.004005208,-0.10569474,-0.019493924,0.061359458,-0.015411544,-0.00921488,0.041940786,-0.01617159,0.0252552,0.13309617,0.025904635,-0.02467734,-0.055194564,-0.009231311,-0.04664931,-0.06618739,3.2235828e-33,0.07445198,0.0526706,0.015594413,-0.02695156,0.10500388,0.0014939366,-0.028176682,0.09462778,0.028757457,0.03365743,-0.05338699,0.09293026,0.021928877,-0.06312048,-0.042318884,0.008136183,0.014253758,0.0003792346,-0.06351873,-0.0030295271,0.000538517,-0.077678375,-0.024868017,0.019570816,0.06328038,0.014370195,0.055459913,-0.013830149,0.16852836,0.011399543,-0.031033365,0.009211075,-0.031745646,-0.074523814,-0.024708211,0.014714949,-0.08543372,-0.05560854,0.0039012418,-0.08563046,-0.027988201,0.034226548,0.04658361,-0.03726623,0.011604473,0.037414607,0.055567633,-0.017747935,0.07935289,0.05949938,-0.11491464,-0.094713956,-0.031578846,0.006207378,-0.024781108,-0.020153858,0.032904733,0.029371813,0.037222333,0.055649854,-0.089371204,0.07072343,-0.039617598,0.023760589,-0.03777003,-0.031895507,-0.014885586,0.070702866,0.026793024,0.016085356,0.0035924825,0.059273586,0.09781792,0.06368175,-0.0719149,0.029375862,-0.04487509,-0.035286684,-0.027318042,0.108150445,-0.0005724776,0.058279436,0.04139065,0.04188707,0.068274,0.06004501,-0.027131477,0.0023778304,0.027708834,-0.0015755417,-0.007918345,-0.07212887,0.04964571,0.0098205,-0.07302331,-3.6822313e-33,-0.08017535,-0.0243828,-0.051966034,-0.021638207,-0.008647023,0.003827377,0.094688505,0.11874856,-0.029682348,0.043582827,-0.07498482,0.07979958,0.04391932,-0.016719548,-0.004525643,-0.05562655,0.0093789995,-0.030189369,-0.018332444,0.043491725,0.03188031,-0.013651755,0.019429771,0.07242692,0.090322204,0.05655607,0.021996703,-0.009448508,-0.03816317,0.064820826,-0.035142522,0.0042730346,-0.07843737,0.06297303,-0.038103353,-0.08506457,0.017035631,0.009011292,0.014029562,-0.022067357,0.023607355,0.0064546764,0.01522342,-0.025485935,0.07128649,0.027935036,0.006224918,-0.007783945,-0.03297548,-0.10134636,0.011615675,-0.010207798,-0.017149972,0.04101702,-0.036550112,-0.006452383,-0.0026130322,-0.012352785,-0.051503714,-0.028250031,0.00543857,-0.0029801065,0.062587604,0.033658933,-0.024338502,-0.005320932,0.026023693,-0.029526576,-0.020190457,-0.07507005,0.04385024,0.0058576693,0.023741644,-0.05252164,-0.01990617,0.015776105,0.011671784,-0.09443995,0.0020192903,0.053455044,-0.029413575,-0.018927991,-0.031614322,-0.019054728,0.027709145,0.041256856,-0.07416111,0.040350646,0.03885092,0.0096807005,-0.16881584,-0.05996372,-0.053936876,0.01517312,0.007879702,-3.428202e-08,0.012232569,0.0036625217,0.03622549,0.001580597,-0.033450793,-0.006192173,-0.09578373,-0.040843997,0.06991181,0.01637674,0.009842096,-0.09854213,0.0004634866,-0.0073680175,-0.07337809,0.018345345,0.015100516,0.052996643,-0.018531814,-0.06912289,0.104224354,0.0065225367,-0.08230426,0.080036804,0.019523732,0.0038556803,-0.11353322,0.024771374,-0.04860482,-0.0018499434,-0.071538195,0.010312585,-0.041481584,-0.03067996,-0.034800712,-0.097414345,0.042101413,-0.043433815,-0.044622384,0.011510517,0.008936684,-0.06027089,-0.032058395,-0.042521324,0.007180182,-0.040988125,-0.040051196,0.024438184,-0.022488076,-0.025243573,0.06921471,-0.018449433,0.0133519145,0.09879253,0.049699478,-0.036319625,0.070757255,-0.0372007,-0.041003503,0.09360615,0.025038645,-0.12276733,-0.07780525,0.03569022
data+analyst,0.026088735,0.03551306,-0.03864294,-0.04173705,-0.0038320487,-0.055399142,-0.018759297,0.013535041,0.0066357157,0.02484004,-0.053848863,-0.01861146,0.027556876,-0.024911828,0.025194345,0.079613484,0.006653471,-0.08020499,-0.0067370073,-0.0014652791,-0.03962332,0.013269157,-0.016974023,-0.028693665,-0.069601364,-0.017096248,0.05875047,-0.029053058,0.010904572,0.0015991437,-0.037472546,-0.08871619,0.025849938,0.054866675,-0.022040492,-0.0018563101,0.0810338,-0.013021283,-0.02108517,-0.038410254,0.045906395,-0.08057529,-0.09645708,-0.043510202,-0.0048665293,0.05614032,0.056332815,-0.033277575,-0.09072726,-0.01150076,-0.022972956,-0.0816819,0.0034596932,0.025927221,-0.00040156528,0.017344687,0.06454127,0.0005924631,-0.010817915,-0.0107653905,0.021765992,0.046591435,-0.09285202,0.016193861,0.070170484,0.0072875014,-0.01271916,-0.058121257,0.0034642364,-0.036547378,-0.09049476,-0.07709613,-0.018629108,0.090077564,0.020788185,-0.03896414,-0.04556389,0.05845578,0.099646576,-0.024914024,-0.008385299,0.091689445,-0.009324922,0.078557126,-0.050516736,-0.061350618,0.035008777,0.000898168,-0.0063642375,0.102490924,0.07269557,-0.045541584,0.04184214,0.05325605,-0.03194729,0.0412196,-0.020117188,0.00030370694,0.03647672,-0.017168405,-0.016403317,0.063313335,-0.057113294,0.02774411,-0.10591691,0.013968017,0.053816438,-0.026447704,0.020253884,0.00985659,0.0034837814,-0.035702627,-0.04966992,-0.0869913,-0.023536699,-0.037393738,-0.16242595,0.054561686,0.043595534,-0.032298584,-0.017873047,0.05851699,-0.008739322,-0.07471386,0.044844363,-0.03605191,-0.041828472,-3.0175331e-33,-0.024325177,0.07006902,-0.03026112,0.07502967,0.03522901,0.00750183,-0.029953986,-0.07078671,-0.11741422,0.065792896,0.039763164,0.046933435,-0.043420855,-0.12754782,-0.001970044,0.063579,0.031103218,0.06497067,0.021064267,0.0685615,0.058976967,-0.032870937,0.024357965,0.0012168685,0.108829714,0.049276106,-0.03500542,0.05674229,0.14029364,0.009650431,0.009198726,-0.05553327,0.04963752,0.028482674,0.08373093,0.0756755,0.039707877,-0.066534735,0.07308189,-0.020756358,-0.025907544,0.03446722,-0.018212443,0.050100885,-0.04684465,-0.009710739,0.07108884,0.026233446,-0.0076668686,0.022886684,0.069520436,-0.06293486,0.122547045,-0.033397634,0.044004694,-0.032674767,0.03455959,-0.092082635,0.009982483,0.0080463085,0.062195294,-0.038033783,-0.017419867,-0.009420362,0.016146159,0.029047346,0.0059908703,-0.019589866,0.04834495,-0.059684742,-0.011566372,-0.04195781,0.024675056,0.0155282905,-0.10279926,-0.027713051,-0.02821761,-0.06510406,-0.008925551,0.063200675,-0.058470048,0.0010009124,0.030416481,0.0760897,0.0041990024,-0.055231113,-0.03687666,0.03698214,0.06482918,0.034451865,-0.08962759,-0.041055225,0.02951851,0.044644494,-0.010045207,1.3588149e-33,0.04919534,-0.04027337,-0.046269327,-0.0009270151,0.028355213,0.035946168,-0.035083365,-0.09353168,0.05769636,-0.024991611,0.019827634,-0.10608624,-0.005784469,-0.03265304,0.011797663,-0.020052336,-0.027066847,-0.044076458,-0.042519793,-0.01590633,0.010939313,0.04958042,-0.02681111,0.1284247,0.045029663,-0.018770441,-0.035091095,-0.021372484,0.051912826,-0.040655095,-0.02642222,-0.11014653,-0.020439908,-0.004844962,-0.104533404,-0.019856457,0.07329905,-0.10719344,-0.0029332312,-0.014488035,-0.005047135,0.02969187,-0.09774148,0.017272953,-0.0062510855,0.060272455,0.02946126,0.10021131,0.029612279,-0.09736269,0.051549204,-0.005433129,0.086694844,0.0055111703,-0.038427323,0.048494816,0.12590836,0.028434051,0.043853197,0.01612272,0.010827515,0.045863442,0.04809563,0.11889904,-0.005640573,-0.04083687,0.032375637,0.0028646088,-0.05869768,-0.049627945,0.017602848,-0.113757096,-0.09085373,-0.04668885,0.026254186,0.021320183,-0.018498164,-0.04543689,-0.0370548,0.09679706,0.01887391,0.06095295,-0.0057571153,0.04188284,0.06535598,0.07726299,0.04271955,-0.08484576,-0.00044601868,0.013270869,-0.06831677,-0.1117928,-0.049316008,0.050488397,-0.031852163,-1.6537761e-08,-0.053855166,0.026576404,-0.03231741,-0.05449174,-0.06343172,0.025886051,-0.0094459765,0.023015743,-0.009765338,0.041648064,0.041537616,-0.023326488,-0.026780842,-0.03194659,0.09367362,-0.026917448,0.041892245,0.06439486,-0.026836053,0.05259552,0.02609793,0.021901442,-0.069580324,-0.045075666,0.10897095,-0.023823464,-0.020713085,0.07062046,-0.048182737,0.021228867,0.02758707,-0.07888178,0.09091119,-0.019261992,-0.0054532085,-0.013316914,0.051088456,0.036719628,-0.008268633,-0.077972144,-0.037089825,0.06956353,-0.011142948,0.05604062,-0.029409057,0.07753191,-0.03571762,0.093731254,0.014186675,0.012087608,0.0040649557,-0.02081137,0.013349652,0.021234289,0.022918703,-0.008665494,0.014554431,0.038225606,-0.016602421,-0.021642506,0.06994593,-0.0020590096,0.05416061,-0.034816157
cyber+security,-0.065980814,-0.024460519,0.002785958,-0.024392921,0.006667652,-0.09241125,0.042191003,0.01620228,-0.051790066,0.023826119,-0.07534953,-0.077423014,0.022192836,0.050096806,0.04854704,0.039459806,0.021334184,-0.05603521,-0.0061316313,-0.054645866,0.035606105,0.029067572,-0.017578121,-0.06402107,-0.057664584,-0.004457024,0.026611703,0.019469267,-0.02798291,-0.023934865,-0.0067110206,0.05995315,0.05465238,0.09500192,0.031131389,0.04032515,0.021449268,0.020688904,0.0030931593,-0.02928482,-0.06258571,-0.009833086,0.029798647,-0.05663757,0.039440583,-0.07235512,-0.025144262,-0.11231679,0.015299157,-0.01676025,-0.036794297,0.0071501182,-0.029205397,0.034241207,-0.052457012,0.0011055806,0.036869735,0.022298627,-0.021222679,-0.060728043,-0.009264289,-0.0022094173,0.014761267,-0.028210707,0.025171537,0.012534652,-0.049750622,0.064337984,0.07448307,-0.065125726,-0.066366985,0.017729655,-0.06766725,0.07008653,-0.062815234,-0.0048854346,0.07892156,0.051611476,0.13647991,-0.085464366,0.09509885,0.051753074,-0.073445275,0.09965425,-0.035306096,0.020942703,-0.04595888,0.025953783,0.03637135,0.04511741,0.032422528,-0.028427644,-0.01746409,0.008684944,0.09130201,-0.100849845,0.005912778,-0.035042696,-0.056800783,0.04642168,-0.02688631,-0.049885616,-0.022749623,0.0003037273,-0.09231926,-0.0061071916,0.053856723,-0.027309762,0.047215335,-0.004807587,-0.04972163,0.052261844,-0.1090248,-0.05787645,-0.04851989,0.02027239,-0.102735065,0.102055974,-0.04670919,0.04568705,-0.029596627,0.021004016,-0.063957706,-0.07355974,0.02607835,-0.043172494,-0.06929934,1.2367422e-32,-0.029928928,0.056758083,0.02756753,-0.004095444,0.014543573,-0.09379513,0.038959518,0.06962956,-0.037430234,0.0567726,-0.098125726,0.06423552,-0.020870792,0.011382289,0.026326226,0.021256054,0.016803408,0.0028857586,0.0028795945,-0.045251302,0.0295145,-0.07436837,-0.006405249,-0.030610245,0.12964989,0.0063734106,0.008474008,0.020002926,0.08779417,0.044179335,-0.09089021,0.021070685,0.0039390475,-0.02427972,0.085218586,0.014535146,-0.04617385,-0.10601137,0.04151861,0.065621756,0.019476498,0.028077131,-0.011752392,-0.010100862,0.022408715,-0.0060162637,0.060161572,-0.014415246,0.025884552,0.11955891,-0.058738355,-0.044918913,0.0038650115,0.015180975,-0.019722868,-0.023707753,0.015188076,-0.0882189,0.03721528,0.043243892,-0.061043777,-0.0807954,-0.041396674,-0.0076000574,0.027738193,-0.061587233,0.035350222,0.04373049,0.091409944,0.0042411387,-0.032334663,-0.01553088,0.06260134,-0.020757684,-0.04243976,-0.019971006,0.036390238,0.067765325,0.0077115293,0.043585606,-0.07628587,0.0076085613,0.01248035,-0.05117487,0.08254993,0.07896971,0.059053797,-0.054827407,-0.050884537,0.048748113,-0.009737364,-0.0775462,-0.022713266,0.089179076,-0.022037068,-1.0858082e-32,-0.054468803,-0.016819146,-0.090112954,-0.010111385,0.08113926,-0.01579677,0.046846677,-0.027362384,0.0033172928,0.046308883,-0.010833565,0.011605844,0.0352062,-0.026296396,-0.022528876,-0.012959272,-0.03878144,0.06866602,0.0014916566,0.07240759,0.042729355,0.07839007,-0.020338874,-0.00945271,0.052130397,0.0063383854,0.031097239,0.00011950958,0.03972547,0.03747336,0.028924894,-0.0045236126,-0.0654971,0.01821594,0.0043111583,-0.097152926,0.11308654,-0.0887852,-0.024537686,0.037246335,0.025427254,0.026690064,-0.020894887,-0.0023678024,-0.07910686,0.0040671965,0.049624167,0.07469405,0.05694483,-0.10976229,0.09316868,-0.022004724,-0.020173788,0.021909991,0.03809625,0.0069710254,0.07393558,0.004153677,-0.079532124,0.022357848,0.078855656,-0.01048851,0.03875305,-0.015592826,0.05505475,0.01243932,0.0729432,0.07185387,-0.107275106,-0.045425225,-0.0058373217,-0.051489744,-0.0007982404,-0.045407657,-0.082505986,-0.06507647,-0.05207196,-0.03688538,-0.0031293698,0.032369476,-0.0060002077,-0.018520243,-0.050433397,0.04952535,-0.0066441703,0.090756275,0.020969106,0.029324105,0.01342799,-0.050559465,-0.1632847,-0.022926025,-0.024516467,0.08940122,-0.03384889,-5.6239596e-08,-0.012281941,-0.0074303886,-0.051905353,0.02145362,-0.05818488,0.02190127,-0.08756912,0.01557475,0.04526131,-0.069650546,0.020259973,-0.033319816,-0.03358598,-0.054939326,0.053762525,-0.0286083,-0.021969479,0.05098726,-0.008033862,-0.07375705,0.094137825,-0.026629398,-0.06354023,0.011102875,-0.0028323885,0.007477647,-0.035738003,0.026781425,0.024941266,-0.009700592,-0.02619597,-0.07921481,0.0039693504,0.003808685,0.07462614,-0.047392257,0.07933885,-0.07772572,0.07073476,-0.013499653,-0.009424262,0.057701003,0.04099218,0.038210656,-3.1354666e-05,0.027560767,-0.027405672,-0.009479307,-0.0071097696,-0.001865828,0.027435238,-0.016560154,-0.064248666,0.124136,0.05646888,0.067657225,0.027377248,-0.027951254,-0.027691822,0.16298494,0.057248026,-0.045336667,-0.06003487,0.0078657735
ui+ux,-0.05975966,-0.005474937,0.05320375,-0.049757537,-0.017002022,-0.03640272,-0.03202468,-0.016678337,-0.11065008,0.027394671,0.025237156,-0.0139430845,0.0367407,-0.002966212,0.093695104,0.0433146,0.08369467,-0.075362556,0.008816111,-0.012111495,-0.001018168,-0.042461544,-0.04671765,-0.010687661,-0.020259505,-0.05661405,0.0038679964,0.040607315,-0.017305594,-0.09748687,-0.03355399,0.13827959,0.03230721,0.029610261,0.05281032,0.045646172,0.026953869,-0.087730885,-0.07310797,-0.12322811,-0.068229005,-0.037235774,0.0093218535,-0.07286656,0.09494062,-0.068469144,0.010730336,-0.053739592,-0.031705543,0.060505297,0.01249829,-0.047784053,-0.026280412,0.046279788,-0.040740672,0.059938136,-0.033942193,0.07848099,-0.0064753126,-0.030585373,0.021211373,0.006416948,-0.003725682,0.021144515,0.025880607,-0.005079434,-0.00010840881,0.030301256,-0.0076374984,-0.048904788,0.010250475,-0.09366552,-0.030042635,0.025715506,-0.008974881,0.025997749,0.07232493,0.01232257,0.058714706,0.031166846,0.06442302,0.10193089,-0.08665257,0.014917844,-0.08045341,-0.022072228,-0.020813998,-0.014345279,-0.02882071,0.023610594,-0.022072816,0.01976008,-0.029838184,0.019932814,0.027635738,-0.10003021,-0.0038244047,-0.04220344,-0.004153393,0.041935317,0.020365583,0.08869584,0.034994148,0.029315935,-0.077171765,-0.045493525,0.08879534,0.06358998,0.06619007,0.058024313,0.004679497,0.044962194,-0.08145322,-0.07961605,-0.0002992725,-0.036636453,-0.016947707,-0.013992728,0.023851207,0.05135161,-0.026012853,0.005758249,-0.06685389,-0.1158153,-0.029553121,0.06358511,-0.007209323,1.787056e-32,-0.017719254,0.0917536,0.038999766,0.006994127,0.047614142,-0.037569653,0.10441149,-0.012137549,-0.030376825,-0.07178246,-0.061540145,0.028672706,-0.008435714,0.031147275,0.0072543146,-0.11874623,0.056678038,-0.02976113,0.012688782,-0.01865209,-0.059551477,-0.014339611,0.008991788,-0.10937388,0.07094663,0.036531262,0.030577166,0.058360096,0.07181382,0.046519432,-0.06530029,0.03335455,-0.043361627,-0.052772433,-0.08514655,-0.014307315,-0.0052427566,-0.1423334,0.05336189,-0.020168219,-0.056766503,0.031452682,-0.08101486,-0.00021100555,-0.022862755,0.022756362,0.029601272,0.007499802,0.04008777,-0.006235763,-0.078216754,0.005304544,-0.051461555,-0.012484049,0.016389167,-0.0031228275,0.022373136,-0.09906393,0.011701596,-0.04932008,0.012213539,-0.06312016,-0.037893623,0.09672699,0.009008787,-0.023417719,0.02053307,-0.018614758,0.06994638,0.0059485817,-0.056238327,-0.035313245,0.10702111,0.023762468,-0.01875673,-0.018215211,-0.009742888,0.08493784,0.027649391,0.07186116,-0.0074834786,0.044947907,-0.019251306,-0.009737738,0.079738945,0.051498994,0.07581592,-0.0863078,0.020107891,0.08917087,-0.02525936,-0.03909862,0.022724712,0.06731686,-0.07170763,-1.5676942e-32,-0.0020143024,0.00909969,0.00083262275,0.034222577,0.0593871,-0.081579775,0.028679108,0.014407982,-0.058208328,0.039060872,0.0019848282,0.021822952,-0.036254786,0.009652096,-0.03731499,-0.015087379,0.042894892,-0.05806739,0.0424561,0.03835123,0.12553029,0.024798015,-0.041093234,0.019623265,-0.027914442,0.019885693,-0.07597347,-0.008781924,0.020275027,-0.046383396,0.0025269666,-0.03926929,-0.019293673,0.016476672,0.018305909,-0.02207787,-0.008230787,-0.02586504,0.003190347,0.059933744,0.073555805,-0.08873659,0.0029945048,-0.007964367,-0.025590954,-0.03411657,0.06853595,-0.098496355,-0.011881386,-0.043991312,0.016992396,0.07900504,-0.011700715,-0.040249467,0.011023764,-0.053820305,0.051308136,-0.05570686,-0.025792688,0.0076667173,0.15378836,0.0030781718,-0.0096267965,0.00857483,0.083805904,0.018903706,0.058831863,-0.018590422,-0.079316415,-0.025688173,-0.031652205,0.008225901,0.008696694,-0.087161355,-0.035924662,-0.057593793,-0.08385534,-0.0917977,0.014993226,-0.08489716,-0.005377954,-0.000115019066,-0.025150232,0.05612548,-0.05057564,0.0437265,0.022241225,0.04400556,-0.016510623,-0.01919345,-0.098390914,-0.040925104,-0.06490523,0.03002151,-0.049811184,-7.274564e-08,-0.03718657,-0.009592283,0.013569034,0.033100322,-0.044472255,0.03181653,-0.05674484,0.05244413,0.12931801,-0.0164641,0.016675483,-0.088691,-0.04054725,-0.0014236134,0.088169105,-0.033845775,-0.04417494,0.08225804,-0.05340013,-0.05707883,0.025299607,0.06695065,-0.044889666,-0.005907765,0.0077386103,0.04236982,-0.052030392,0.12243124,0.02169788,-0.011096711,-0.06607353,0.002670352,-0.0351117,0.024626264,-0.014896814,-0.052994892,0.082448706,0.013633768,0.022286966,-0.04962923,0.050774872,-0.014917767,0.023269635,0.052681886,-0.08743228,-0.011111864,-0.058765877,-0.041352,-0.04557282,0.017876072,-0.01019175,-0.012163386,0.02721306,0.074621566,0.029638799,0.009287056,0.063663915,0.027091669,0.0122895,0.09485182,0.14597052,-0.034489837,-0.06348186,0.04847162
ui+ux,0.04287053,-0.0155241275,0.0055021485,-0.016885994,-0.06268216,-0.026014991,-0.016383186,0.07725332,-0.071885884,-0.03200468,-0.06383078,-0.0868628,0.07334239,0.027673524,0.097052805,0.020194404,0.014734759,-0.044194248,0.048479564,-0.10474929,0.040979795,-0.010162222,-0.020540517,-0.03212488,-0.12124806,-0.0014081282,0.083746634,-0.0076130405,-0.0043021026,-0.05721965,0.010725901,0.0040587774,0.09483108,0.056166504,-0.00097168196,0.06660975,0.01163628,-0.03427107,0.049641866,-0.036208995,-0.07570802,-0.049586814,-0.056476824,-0.052428495,0.07107166,-0.029513044,-0.012115213,-0.03040449,0.020588243,0.04971392,-0.076864034,-0.05129363,-0.013991872,0.0036887804,-0.04105285,0.032660246,-0.0078083174,0.05189648,-0.004316474,-0.07584001,-0.037793502,-0.026511062,0.03173454,-0.041627612,-0.0039517516,-0.025658034,-0.10433612,0.06166794,0.02916537,-0.007743889,0.0016444216,-0.07668647,-0.10369253,-0.011941929,-0.03182886,0.011052768,0.08147043,-0.0073805316,0.021273332,-0.056341413,-0.045076825,0.11236848,-0.0702166,0.08292364,-0.077280164,-0.002477978,-0.000931771,0.07867012,-0.009124449,0.034509208,0.042080507,-0.07225639,-0.023297954,-0.043101937,0.015976643,-0.025102116,-0.014775202,-0.051514864,-0.004462088,-0.014627429,-0.00732327,0.03575627,-0.0024911973,-0.022809222,-0.16675071,0.074100874,-0.008632387,0.08382944,0.005414425,0.06506027,-0.056630846,-1.29823e-05,-0.11540048,-0.041423276,0.048272587,0.013090097,-0.08741886,0.03529983,0.05844805,0.08275978,0.035139315,0.07247417,0.020983323,-0.022576882,-0.027437357,0.039761353,-0.003355978,1.3064653e-32,-0.069731876,0.057902094,-0.066193044,0.11592314,0.027913662,-0.013571688,0.06757656,0.07462238,-0.053700723,0.008254821,-0.037437197,0.08919034,-0.05964331,0.040289722,0.040840894,-0.07234437,-0.06016844,0.009681913,-0.028062433,0.009939636,-0.033709407,-0.0207997,-0.009095286,-0.009027777,0.07545763,-0.014308541,0.027047915,0.052381035,-0.024836792,-0.021297697,0.012127811,0.022870416,-0.05489463,-0.0015687061,-0.012158661,0.037652094,-0.032499555,-0.07793394,0.085976556,0.034035873,-0.066311456,0.026815569,0.0007096012,-0.016633753,0.016086174,0.015081061,0.06106759,-0.021234615,0.030691821,0.0195483,-0.03400152,-0.06601776,0.10582276,-0.028296743,0.023523705,0.0036162531,0.07757072,-0.11450812,-0.00096246833,0.08887309,-0.07385365,0.026507204,-0.010412486,0.01511902,-0.044808403,-0.023016771,0.026570762,0.014706278,0.119559646,-0.023781281,-0.05659588,0.003070008,0.10161134,-0.01736263,-0.080721974,-0.03059413,-0.034719042,0.010376411,0.03871927,0.07804835,-0.04660203,0.040637564,0.06712456,-0.028895782,0.08655503,0.002053934,0.051975638,-0.012258069,-0.054167803,0.021365449,2.2842969e-05,0.033408888,-0.025205279,0.11642193,0.0096811745,-1.220129e-32,-0.0068448344,-0.0070530344,-0.0027193713,0.042689495,0.09779202,0.021350916,0.0263915,-0.0017202697,0.013332045,0.017840484,0.009043162,-0.009659417,-0.03314578,0.052195325,-0.06529128,-0.013011146,-0.0017569301,0.009168343,0.020064391,0.00259521,-0.014100342,0.066786416,-0.08162254,0.05681502,0.032920934,0.0039595272,-0.008318332,-0.043604534,0.05270635,-0.005007952,0.050618228,-0.08274268,-0.019590192,0.01630364,0.033149388,-0.12914464,-0.015419423,-0.056015264,0.053828906,0.05329576,0.061164178,-0.037721906,0.0066073653,-0.054780893,-0.0090667205,-0.010276697,0.09563086,-0.027704861,-0.044513404,-0.086556554,0.032735057,9.175073e-05,-0.023317002,-0.06840846,-0.006047703,-0.031103019,0.08295338,-0.05472006,0.051548347,-0.04025052,0.100914784,0.010021659,0.13197735,0.05733084,0.022245713,-0.074286446,0.004284803,0.028813442,-0.14013605,-0.013662927,-0.05034881,-0.0068699294,-0.01911419,-0.053806476,-0.02797972,-0.06689388,-0.07478752,-0.056796264,0.00087985414,-0.034757912,-0.07226453,0.04555049,-0.04494594,0.057030402,0.0004835756,0.09373949,-0.05695006,-0.039308593,0.016015096,-0.038623314,-0.112061426,-0.0010384849,-0.0370715,0.07026174,0.02293417,-5.8882108e-08,-0.07540318,0.019116292,-0.00058657554,0.020841375,-0.008343969,-0.03333396,-0.07985612,0.0005848028,0.080463536,-0.04417398,-0.023281302,-0.051984873,-0.049121585,0.046515927,0.07518238,0.015751094,-0.0072492524,0.15254258,0.0140978675,-0.018537657,0.086571455,0.011416528,-0.032089088,-0.027519455,-0.012692245,-0.07194394,-0.023715883,-0.0010281551,-0.013284381,-0.03942257,-0.004641835,-0.08017195,0.026324898,-0.02989075,0.041320037,-0.026208594,0.05179148,0.046881594,0.028484717,0.06495255,-0.07645966,0.037444815,0.07902995,0.028122231,-0.032433,-0.0032473626,-0.0880309,0.07793793,-0.013137878,0.008182745,0.024351614,0.025409816,-0.052511442,-0.0030442118,0.029828222,0.052830018,0.028360128,-0.034047574,0.012041732,-0.007899213,0.044795837,-0.005173971,-0.0011427713,0.043913297
