category,0,1,2,3,4,5,6,7,8,9,10,11,12,13,14,15,16,17,18,19,20,21,22,23,24,25,26,27,28,29,30,31,32,33,34,35,36,37,38,39,40,41,42,43,44,45,46,47,48,49,50,51,52,53,54,55,56,57,58,59,60,61,62,63,64,65,66,67,68,69,70,71,72,73,74,75,76,77,78,79,80,81,82,83,84,85,86,87,88,89,90,91,92,93,94,95,96,97,98,99,100,101,102,103,104,105,106,107,108,109,110,111,112,113,114,115,116,117,118,119,120,121,122,123,124,125,126,127,128,129,130,131,132,133,134,135,136,137,138,139,140,141,142,143,144,145,146,147,148,149,150,151,152,153,154,155,156,157,158,159,160,161,162,163,164,165,166,167,168,169,170,171,172,173,174,175,176,177,178,179,180,181,182,183,184,185,186,187,188,189,190,191,192,193,194,195,196,197,198,199,200,201,202,203,204,205,206,207,208,209,210,211,212,213,214,215,216,217,218,219,220,221,222,223,224,225,226,227,228,229,230,231,232,233,234,235,236,237,238,239,240,241,242,243,244,245,246,247,248,249,250,251,252,253,254,255,256,257,258,259,260,261,262,263,264,265,266,267,268,269,270,271,272,273,274,275,276,277,278,279,280,281,282,283,284,285,286,287,288,289,290,291,292,293,294,295,296,297,298,299,300,301,302,303,304,305,306,307,308,309,310,311,312,313,314,315,316,317,318,319,320,321,322,323,324,325,326,327,328,329,330,331,332,333,334,335,336,337,338,339,340,341,342,343,344,345,346,347,348,349,350,351,352,353,354,355,356,357,358,359,360,361,362,363,364,365,366,367,368,369,370,371,372,373,374,375,376,377,378,379,380,381,382,383
data+analyst,-0.06779165,-0.03942696,-0.044609383,0.04795371,-0.02025459,0.04621481,0.0057747746,0.025648063,-0.049264606,-0.003945413,-0.044398088,-0.019011714,-0.007835465,0.04481287,0.052940782,0.019204188,0.055966184,-0.00849954,0.013152054,-0.01453594,-0.03326785,-0.012872486,-0.0134040695,-0.104870826,-0.050437786,-0.063486665,-0.018245745,-0.040204685,-0.054486167,-0.032669008,0.021724202,0.02322204,0.033016875,0.077824235,0.034628958,0.06907608,0.025954062,0.013342706,0.057512533,-0.049878698,-0.02371193,-0.08014052,-0.058588866,-0.057705276,0.048783213,-0.11059259,0.029315127,0.010027697,-0.00067107525,0.041884687,-0.0686793,-0.056198042,-0.026709558,0.026260434,-0.059713222,0.022222158,-0.04013514,0.022267515,0.0146637,-0.0850947,-0.03215407,-0.020560592,-0.018462045,-0.0075265374,-0.027311917,0.03613706,-0.073808275,0.07352938,-0.017620381,-0.05760086,-0.05047839,-0.041295208,-0.090560295,0.004997973,0.027991978,-0.013583946,0.05330085,-0.050195206,0.05287341,-0.04059982,0.027598739,0.070405945,-0.08153039,0.1177,-0.07402482,-0.063708305,0.009243027,-0.0048663463,0.025551556,0.037697233,0.08424977,0.0017734941,-0.05690544,0.0039802953,-0.03329604,-0.042359993,0.006282605,0.027506605,-0.008879634,0.019637818,-0.028505867,-0.018710246,0.013267674,0.036314856,-0.13597898,0.027421763,0.031610284,0.004079456,0.012847256,0.00041520398,-0.02747003,0.07286888,-0.13477245,-0.0665051,0.03854367,0.0038442009,-0.11792767,0.025312608,0.059852026,0.058724735,-0.007937751,0.14878498,-0.04011797,-0.08621178,-0.040281344,-0.0147875855,0.0009684205,1.17300605e-32,-0.065004475,0.14268245,0.044162743,0.031965837,0.06645336,0.004964423,0.048179463,0.0009284558,-0.051571462,0.044990968,-0.05187874,0.12510237,-0.0013660358,-0.036964417,-0.036880847,0.011656466,0.081650056,0.07193742,-0.024199484,-0.023319794,0.005215565,-0.006212818,-0.027479762,-0.00058656925,0.09024879,0.02411508,0.100920506,0.0144611625,0.06751804,0.036390334,0.01945139,-0.037119154,-0.027940067,-0.007450646,0.05432444,0.01677414,-0.08160808,-0.12419027,0.065792866,-0.02752376,-0.087652616,0.056371253,0.08188741,0.00028594988,-0.07406513,0.0058347946,0.07260301,0.055185493,0.106348895,0.0931872,0.0012561213,-0.07416568,0.017378842,0.051304076,0.014793086,0.042470768,0.03258068,-0.057688363,-0.04887234,-0.0151582565,-0.0006725357,-0.07671069,-0.057785317,-0.022438405,-0.016056124,-0.04514672,-0.009661032,0.01734983,0.09966745,-0.09494426,-0.03625751,-0.0013749435,0.14809793,0.029063394,-0.02578066,0.027425822,0.027585749,-0.020127993,0.0089211315,0.044512592,0.029554514,0.00516726,9.178147e-06,-0.02883749,0.048698675,0.08170452,0.029827226,-0.06613298,0.009458523,0.058615964,-0.029244047,0.04510526,-0.027841566,0.051598966,-0.0785277,-1.0754648e-32,0.032189686,-0.05520953,-0.03908118,-0.0077554476,0.027005695,0.061761692,0.042841602,-0.07153827,0.0378148,-0.031006498,-0.06290564,-0.021502605,-0.018430883,-0.047686987,-0.084413104,-0.019223364,-0.053444233,0.052612502,-0.020493198,0.029309953,-0.012249396,0.06951165,-0.03419752,0.07985628,0.08127266,-0.008230124,-0.041752357,0.0038203816,-0.02436221,0.088697225,0.0017437794,0.018359758,-0.044908762,0.027699113,-0.042467706,-0.018553283,0.057385627,-0.06660847,0.0125370845,0.090112835,0.0695164,0.066069305,0.011334613,-0.046082146,0.005305778,-0.008051048,0.06971105,0.037920885,0.04119295,-0.05205559,-0.010088334,0.014642431,-0.069217876,0.05742548,-0.018258397,-0.013034215,0.05002464,-0.08517501,-0.011272595,-0.04787026,0.008831187,0.1014207,0.13373604,0.0003988117,0.101659656,-0.027955085,0.007745089,-0.0035067368,-0.065309115,-0.09154471,0.039870996,-0.047465175,0.018629875,-0.0711492,-0.07034978,0.016025865,-0.05642308,-0.123676136,-0.06466537,0.06043952,-0.015284523,0.003139458,-0.027248112,0.02074452,-0.018539418,0.043947328,0.017448796,-0.05644345,0.041851882,-0.066436365,-0.12056845,-0.036914222,0.013162252,0.055247862,0.00516147,-5.784058e-08,-0.06315935,0.07372968,-0.042957153,-0.0076542934,-0.027558552,-0.028242473,-0.05347783,-0.005299245,0.08680559,-0.009306196,0.04313534,-0.113344796,-0.06828765,-0.0081586605,0.034943957,-0.006888588,0.035535716,0.029007694,-0.032748356,0.03000979,0.10373048,0.042357754,-0.027279548,0.012284173,0.018881712,-0.07034981,-0.07303317,0.07600904,0.0076429024,-0.0013723106,-0.033296358,-0.04566007,0.043231696,-0.04951383,0.0018334452,-0.015694376,0.035137974,-0.026240977,0.029823475,0.07734525,-0.044306383,0.03587515,-0.0024714903,0.025238667,0.009500167,0.00037183487,-0.03345662,-0.009360033,0.004140063,-0.0046913507,-0.005658214,-0.05167308,-0.0022856258,0.019794647,-0.0050088237,0.04023021,-0.025145499,0.057343792,-0.027138865,0.044581242,0.021295305,-0.058819264,-0.034744143,0.034042608
cyber+security,-0.031839173,-0.009482266,-0.023651635,-0.01920607,0.044170134,-0.014529434,0.03318698,0.019847892,-0.06666671,-0.001908877,-0.029360568,-0.0684044,0.03646917,0.029739425,0.014358199,-0.013250929,0.060125027,-0.03788142,-0.005770235,-0.13492988,0.017233314,-0.0058550527,0.039627366,-0.052980427,-0.108432755,0.023190577,0.03736173,0.020319844,-0.034436386,-0.039881933,0.059035234,0.008156345,-0.02075279,0.08523009,-0.016888665,0.06120825,0.074921235,-0.0075757047,0.057472784,-0.046482135,0.025300302,-0.09537261,-0.030863361,-0.028992273,-0.0118044615,-0.06345387,-0.007422385,-0.00860115,-0.0014561098,-0.025657123,0.043207318,0.011553485,0.03460052,0.07039409,-0.025918324,0.069396466,0.07094184,-0.03669864,0.009674012,-0.086950675,-0.04545624,0.014857425,-0.044594787,0.015417435,-0.026428426,-0.05835601,0.02585398,0.0027238238,0.06669596,0.020504417,-0.083011314,-0.00771562,-0.021685205,0.035309546,0.0337897,0.057534095,0.051759385,0.032150898,0.041088197,-0.04167365,0.11613231,0.059294995,-0.042563334,0.08784679,-0.030049283,-0.028375426,-0.05953416,0.032019977,-0.021670027,-0.01793557,0.14482455,-0.043023523,0.025318213,0.021413216,0.018921286,-0.08838648,0.016168592,-0.022815298,-0.053883165,0.010002478,-0.03390196,-0.08688031,-0.03521707,0.016457504,-0.058746886,-0.005328594,-0.020526227,0.053341087,0.026118267,0.065836094,-0.0592872,0.010791038,-0.06332209,-0.018422617,0.043781836,0.08000449,-0.10817228,0.08544939,0.0390463,-0.024470376,0.07303189,0.06520292,-0.0577777,-0.07318988,0.0111161005,-0.060384914,0.068746105,9.032102e-33,0.018733501,0.13060352,-0.056935087,0.015312155,0.05217674,0.017341083,0.02338185,0.04726569,0.016758889,0.0251605,-0.06891531,0.059259254,0.018537614,-0.07918155,0.012185212,0.008877861,0.058963522,0.019648183,0.07472927,0.005606763,-0.01314199,-0.09594997,0.012227663,0.015284626,0.096711576,-0.00862715,-0.0054600155,-0.05147519,0.035650626,0.0081155,-0.03946093,0.02728115,-0.06781991,-0.023093592,0.04436487,-0.00299636,-0.021612247,-0.10079466,0.003253533,-0.10257173,-0.084026165,0.040786657,0.05621502,0.011428283,0.021944895,0.0038356064,0.04412233,0.009353788,0.04005298,0.110375844,-0.038400326,-0.055757523,0.015997423,-0.017707158,-0.021837192,-0.011915476,0.058972523,-0.041747913,0.030315693,0.013018238,-0.052877773,-0.053846117,-0.06115974,0.006011508,0.0018562345,-0.08960794,-0.020664044,-0.0004252614,0.050664946,0.03172985,-0.042789288,0.017750958,0.059648108,0.086599655,-0.10434308,-0.0049479147,-0.036250003,-0.030270359,0.015999496,0.07852696,-0.05846879,0.037239447,0.05035818,-0.048652858,0.13169397,0.03773342,-0.019170085,0.011051544,-0.02069839,0.059335005,-0.019745553,-0.06428924,0.04522339,0.11570968,0.004814532,-8.336087e-33,-0.05408228,-0.018304363,-0.10607163,0.0062076193,0.020682376,0.039427128,0.033757128,0.032388814,0.018690098,-0.0057624495,-0.0369268,0.019137245,0.022647774,0.004440576,-0.03485479,-0.066158876,-0.04627607,-0.009764194,0.0041233953,0.07141315,0.048308715,0.037909787,-0.14474827,0.028830681,0.029099239,0.056230705,0.026634034,0.056230783,-0.015369729,0.03404118,0.07513277,-0.07706817,-0.069382995,0.025484702,-0.017439192,-0.054674122,0.0781001,-0.022088096,-0.026461078,0.066673175,0.060932394,0.061573904,-0.0011188763,-0.009688006,-0.011535146,0.028423471,0.07618535,0.061658517,-0.03879813,-0.044316556,-0.027828712,0.019661933,0.016118452,0.06345611,0.04284695,-0.0020040576,-0.011978315,-0.016136304,-0.05342348,-0.04445069,0.09472219,0.052612145,0.05071864,0.06336097,0.054469917,-0.0419026,0.03831627,0.0016306455,-0.028169366,-0.010393977,-0.038130216,-0.019638246,0.00028389922,-0.04106748,0.0011913514,-0.11027367,-0.015462485,-0.0366233,-0.05786697,0.05483037,-0.030471224,-0.012236116,-0.10989184,-0.030327803,0.02978968,0.069507025,0.10052089,0.011578135,0.063974485,-0.043995958,-0.10885833,-0.034912568,-0.08842506,0.030868905,0.023927556,-5.6923103e-08,0.014576574,0.036348425,0.0004819827,-0.07383908,0.030184709,-0.008245838,-0.017940108,-0.0844915,-0.012760458,-0.043755904,-0.00017588407,-0.07856566,-0.015549408,-0.04875265,0.002994299,0.044606138,0.02130987,0.08180624,-0.054242715,-0.0674781,0.08054307,-0.04238226,-0.084374115,-0.0057591656,-0.0067436146,0.029258467,0.016865471,-0.03026646,0.031484123,0.07522642,-0.13264108,-0.05391518,0.03663033,-0.07793544,0.022373293,0.034186706,0.07040342,-0.10071235,0.07113729,-0.0001103612,-0.035826698,0.0423619,0.014651432,0.025807027,-0.005791705,-0.020969834,-0.085575655,0.0021376994,0.029880686,-0.0324165,-0.0010357355,-0.07523163,0.011164259,0.088339515,0.024782857,0.0061265156,0.019935297,-0.044377025,0.023765948,0.07952467,0.047992382,-0.13312516,-0.07509396,0.007814586
software+engineer,0.00028582083,0.06336607,0.006427336,-0.06823542,0.0044490816,-0.0103054335,0.060433917,-0.016027391,-0.025250396,0.03237901,-0.07513622,-0.0385191,0.09555137,0.019439204,0.021390775,0.013154062,0.05820836,-0.14142767,0.0015901348,-0.03257977,-0.04221265,0.021332461,-0.06008448,-0.013360657,-0.058043826,0.007280117,0.035648197,-0.033986304,-0.04932744,-0.0140687255,-0.027950618,-0.029633814,0.043873355,0.062953725,0.057503603,0.07103524,0.05861958,-0.06844053,-0.011559996,-0.0032469612,-0.045307323,-0.08795099,-0.07249111,0.0062137493,0.027276304,-0.013872879,0.0041645546,-0.040119402,-0.011785277,0.07722191,-0.05488812,-0.094948016,0.050438497,0.029500198,-0.018185008,0.012212438,0.027842859,0.014036639,-0.016354011,-0.10819293,0.016831193,-0.025724899,0.00047503517,-0.0005483272,0.024753608,0.041872974,-0.056524333,0.0057690497,0.003046482,-0.06315088,-0.039026044,-0.04810888,-0.048481934,0.036867425,-0.05909053,0.039031297,0.038243357,0.04726465,0.078917496,-0.033119842,0.075822145,0.10298294,-0.07951214,0.081480734,-0.06725478,-0.020461632,-0.01845288,0.04197348,0.017232168,0.02046043,0.015286832,-0.085384324,0.05352168,-0.028989224,0.06517188,-0.04608213,0.023869948,0.0041512144,0.027752543,0.024123462,0.006861227,-0.025935775,0.07172376,-0.024199074,-0.083804496,0.05430212,-0.063379444,0.039638087,0.030155228,-0.035147004,-0.074764796,0.022751248,-0.12406527,-0.030197632,0.024379808,-0.0015972309,-0.028415786,0.011744806,-0.050297502,0.036074825,0.021448499,-0.025884103,0.05084141,-0.082099095,0.006916289,0.054285057,-0.04762308,7.211484e-33,-0.052793667,0.037221335,-0.046185263,0.044025008,0.09162837,-0.0678916,0.05574868,0.00477021,-0.0033341558,-0.064335026,-0.07637171,0.029998377,0.032910734,0.04450647,0.09189736,-0.04177183,0.02717668,0.010190873,0.06656323,0.0039399504,-0.028784044,-0.04639596,0.0066471314,0.034022707,0.09682424,-0.030364111,0.076323375,-0.045910615,0.010868894,0.029013343,0.001856094,0.014899141,-0.013465689,-0.021980979,-0.08318653,0.02042457,-0.091700055,-0.054962765,0.050326098,0.034760036,-0.03976956,0.012949569,-0.01577887,0.0010528663,0.04913993,0.025220778,0.06647554,0.013244334,0.03264654,0.06325748,-0.0683596,0.027213426,0.08638999,0.041764904,0.05733801,-0.02531192,0.11455115,-0.063380525,0.006165343,0.07133033,-0.08865579,-0.06275041,-0.050653175,0.056242615,-0.04148859,-0.08828182,-0.009690061,-0.0095882015,0.054882847,0.010733266,0.018970728,-0.016915131,0.087967955,-0.0052743847,-0.09744175,-0.009094644,-0.052711755,0.02580358,-0.03605259,0.063598484,-0.07704015,0.09135629,0.046689335,-0.0021716666,-0.015273301,-0.020070864,0.037911184,0.011612797,-0.07791285,0.04910765,-0.03768304,-0.03115378,0.032122143,-0.010761827,0.002337131,-6.867872e-33,-0.00055439153,-0.020912066,-0.0436523,0.01590192,0.10562777,-0.026094291,0.026847098,-0.009277892,-0.06752865,0.054960392,0.011987921,-0.015352135,0.021386743,0.02842925,-0.0781501,-0.017960919,-0.016715016,-0.09711557,0.01632824,0.019709494,0.009905408,0.025037764,-0.023652185,-0.031752232,0.042784218,0.029010529,-0.038915493,-0.047875788,0.032753274,-0.043749895,-0.01624668,-0.022221485,0.026492577,0.036993008,0.031050721,-0.07339101,0.044801284,-0.016707234,-0.060357258,0.008024889,0.08755897,-0.07329994,-0.022044444,-0.0373159,-0.05257762,0.06208558,-0.034979608,0.009304514,-0.05767213,-0.072469,0.0070343344,-0.00082877016,0.007692822,0.056620665,0.005438243,-0.027456686,0.028866185,-0.0033785745,-0.042437546,0.032152873,0.10542101,-0.027415778,0.10551143,0.057574384,0.0039048009,-0.050562706,0.03908834,0.047014367,-0.12202223,-0.02556436,-0.060786907,-0.015693642,-0.026352847,-0.043250967,-0.020934474,-0.06089259,-0.07073373,-0.100083165,0.011478673,-0.02471426,-0.08859139,0.010420096,-0.073967196,0.0600342,0.0035973543,0.024338543,0.05537133,-0.015652832,-0.03652962,0.020177111,-0.1517038,-0.04869254,-0.101409234,0.112465106,-0.0009495755,-6.7401324e-08,-0.046445936,0.012705847,-0.0385812,-0.034118176,-0.05210067,0.023550611,0.017512808,-0.0017576349,0.0586228,0.012208736,0.014770835,-0.12457101,-0.007144988,0.052793723,0.061886758,0.03181422,0.0034321519,0.10832563,-0.052018955,-0.03904948,0.09422196,0.07995822,-0.013418032,0.009752586,-0.009148473,0.029516082,-0.0401988,0.010317875,0.017159104,0.027591446,-0.06862361,-0.013415512,-0.008333399,-0.03880846,0.0056728786,-0.04870779,0.032214187,-0.008763383,0.084195286,0.07198041,-0.044705883,0.040851027,0.013303532,0.037090942,0.025254713,-0.08155639,-0.08169043,0.061630514,-0.079246305,0.051816035,-0.010916576,-0.03064084,0.0118073495,0.14321108,0.045451235,0.042613808,0.058756568,-0.078011535,0.074350335,0.1600429,0.06395699,-0.004548597,-0.031631656,0.029311895
ui+ux,-0.057650443,0.055610113,0.026229413,-0.047242485,-0.035952605,-0.046720076,0.011317953,0.08192908,-0.048681036,0.008831584,-0.016636975,-0.030337362,0.013420747,0.06573584,0.0067917677,0.019240096,0.01632907,-0.077808805,-0.020325545,-0.016953807,0.0049149166,-0.00927926,-0.047593575,0.014388322,-0.09679596,-0.049763415,0.04961693,-0.01307631,-0.025034368,0.006078876,0.010105606,0.15234922,0.021305772,-0.0118484255,0.02859751,0.053746562,-0.020865818,-0.008472737,0.004656891,-0.08175005,-0.060542203,-0.081591494,0.03894644,-0.0062378272,0.044041593,-0.08412642,0.04778988,-0.016549403,-0.04687321,-0.009871128,-0.0064999065,-0.05172031,0.0074649,-0.02665244,-0.035546757,0.04743249,-0.004886975,0.03688242,0.018246567,-0.015949564,0.05756196,0.0400382,-0.030046476,-0.04316342,0.00014785326,-0.029346244,-0.024775783,-0.0055828295,-0.04992589,-0.065151565,-0.013138308,-0.044973034,-0.033694755,0.05200369,0.00018695882,0.03334901,0.041339885,0.014692899,0.035802677,-0.06596534,0.050956685,0.06481824,-0.07409456,0.04765293,-0.029588442,-0.022157703,0.03342497,0.059058443,0.00079829094,0.01678531,0.04014376,-0.013610663,-0.035143703,-0.04014732,0.011553132,-0.088251404,0.053844027,-0.05870837,0.03621308,0.028870612,0.020658657,0.054889653,0.11489052,-0.028335217,-0.13301006,0.04911266,0.020438246,0.0069851433,0.05824496,0.046194382,-0.08655766,-0.045097306,-0.053787258,-0.074913,-0.083634764,-0.016326508,-0.08977742,0.032592587,0.0237508,-0.012280888,-0.033392154,0.022168271,0.052240413,-0.035644334,0.044005297,0.0609405,0.07723339,6.722924e-33,-0.056701254,-0.001363275,-0.07462092,0.13400851,0.010147301,-0.031012107,0.03989011,0.027768156,-0.057545908,-0.042767644,-0.022294868,0.062766016,-0.0018331131,-0.030595621,0.057837266,-0.08996638,-0.041348893,-0.0064141764,0.0010429927,0.0034973368,-0.022332579,-0.0620254,0.035765618,-0.014246232,0.121860884,-0.017199086,0.050149214,-0.028680047,0.019892473,0.05819369,-0.030570202,0.04048584,-0.049741834,-0.006088426,-0.035801128,0.06573074,-0.10953231,-0.09949261,-0.05037186,0.022062132,-0.030590422,-0.015142201,-0.08075607,0.018360028,0.048670586,-0.015233857,0.044146877,0.033365037,0.019874014,0.04156937,-0.055831473,-0.009033663,0.018289816,-0.03774524,0.051255226,0.05621954,0.060571313,-0.116221026,0.023549143,0.106250316,-0.017622188,-0.03987144,-0.091192104,0.0071576573,0.08295498,-0.018499725,-0.008849829,-0.014881401,0.08936392,-0.0089113545,0.007383451,-0.010697882,0.15316741,0.07524472,-0.029572664,0.023380712,0.005419868,0.084930815,-0.06772513,0.024954107,-0.0625083,-0.005214867,0.0447628,-0.047283478,0.12131218,-0.059768695,0.0045982325,0.04535726,-0.108697,0.003031785,-0.020707997,0.020895667,-0.043378264,0.062982894,0.07384056,-7.033671e-33,-0.050627768,-0.03286651,-0.04215859,0.012876684,0.06128125,-0.08221741,0.029017916,-0.048829556,-0.011549245,0.022877436,-0.06775939,-0.0687314,0.049946483,0.003258199,-0.07433682,-0.060801584,0.0018132362,-0.087568656,0.008248206,0.06875725,0.018214269,0.047355726,-0.034142558,0.025772797,-0.0016488854,-0.021658791,-0.016681569,-0.030514091,0.0015423405,0.011632647,0.071411274,-0.038448382,-0.0073789144,0.021589091,0.013546209,-0.0717461,0.027870348,-0.016181802,-0.0055941036,0.04088234,0.072854295,-0.12531924,-0.012645567,-0.0349514,-0.03874016,0.021201804,0.042108487,-0.020099962,-0.01575774,-0.09842478,0.07396645,0.020738987,0.0492609,-0.010022031,0.08544797,0.0335608,0.07296824,-0.01623508,-0.02996767,0.015900997,0.12170081,0.0010226342,0.12396979,0.01465134,0.0014078039,-0.061832227,0.05069423,0.015948951,-0.024623003,0.003988188,-0.1043345,-0.034626257,0.038759056,-0.03472239,0.038626496,-0.12355358,-0.052754134,-0.048835855,0.051788826,-0.055391163,0.0033315087,-0.013134216,-0.012786327,0.0617335,-0.04534696,-0.018972952,-0.007958849,0.0037910116,0.059544917,0.039702363,-0.081193455,0.04948398,-0.08691457,0.06732753,-0.05341587,-6.562471e-08,-0.0050607556,0.0012927715,-0.07252933,-0.040115315,-0.04029848,0.0654626,-0.00687654,0.018793754,-0.0028967217,0.024270136,-0.004895083,-0.040475544,-0.023791,0.11535292,0.03257698,-0.041271158,0.01358864,0.08758098,-0.07387413,-0.042603113,0.028838206,0.05720982,0.010591161,0.021965615,0.014509084,-0.047985405,-0.033540558,0.022228394,0.076027796,-0.009336909,-0.0055721537,0.006395203,-0.0235194,-0.016401695,-0.018284706,-0.009818265,0.051857684,0.05668158,0.071536995,0.035448786,0.017732773,0.0771057,-0.061436765,-0.011943025,-0.012578244,-0.050644603,-0.09423075,0.009446603,-0.083562985,-0.02829794,-0.07959511,-0.011332664,-0.05566979,0.13988727,0.06191632,0.06559095,0.013310372,-0.060659755,0.049815845,0.04111634,-0.04591821,0.07245907,0.037670713,0.06557958
ui+ux,-0.08903531,-0.014103669,-0.008339906,-0.051578272,0.02005577,-0.0070317048,0.044202078,0.059013013,-0.116711944,0.045521565,-0.059528243,-0.14718848,0.015845139,0.0016452636,0.054483343,-0.022035921,0.052861392,-0.06847049,-0.055880968,-0.10237541,0.011143076,-0.054676007,-0.024876239,-0.058309272,-0.003059476,-0.04847275,0.07927108,0.010770629,0.0056945016,-0.07867497,0.030189272,0.09592794,0.040124174,0.030236712,0.075784236,0.10147034,-0.02989545,-0.024510805,-0.06497501,-0.04123826,0.030075531,-0.025426205,-0.06413199,-0.14874695,0.12322569,-0.03554715,-0.017233351,0.029416434,0.03701942,-0.0011997414,0.0072771255,-0.08537678,-0.007202065,-0.012577376,-0.10070761,-0.01835614,0.08487563,-0.033707667,0.011417528,-0.02603679,-0.011931952,-0.08203916,0.049447153,-0.017992483,0.07598891,-0.008901117,-0.03528472,0.021275427,-0.03810997,-0.054423712,0.010318687,-0.117625736,-0.09511826,0.08050181,0.003096258,0.01925821,0.10129924,0.053332966,0.027727453,-0.036723457,0.010370328,0.07473005,-0.012965569,-0.07121196,-0.12052988,0.0044081905,-0.021790735,-0.0036190862,-0.007918953,0.050739896,-0.0059628505,0.019018902,-0.042050418,-0.01614854,0.117416926,-0.029619642,0.018133305,-0.0076743946,-0.0014433925,0.018454157,-0.039747614,-0.0018542586,-0.025065297,-0.040142212,-0.1131195,-0.011650803,0.042618174,0.012043133,0.07013992,0.039041575,-0.14044237,0.0007886306,-0.11197359,-0.023794655,-0.031554826,-0.011990555,-0.05439234,0.009477011,0.048222106,0.05034678,0.044905994,0.047912914,-0.08584846,-0.03624913,-0.006087007,-0.047178958,0.016191121,1.0728628e-32,0.02185183,0.06359133,-0.017647156,0.0119934715,0.061341047,0.057551324,0.010206882,0.072652705,-0.08616481,-0.057310566,-0.14781271,0.10219586,-0.010766316,0.02290523,-0.0046875277,0.00022048321,0.032917302,0.016816162,-0.062407658,-0.053778533,0.024581596,-0.040596567,-0.0067672487,0.011869545,0.05369358,0.03544102,-0.011935954,-0.02968896,0.062009264,0.011951299,0.023890393,0.031532414,0.022645542,-0.048686095,-0.05793393,-0.0037341486,-0.052441295,-0.06946509,0.025502764,0.010861555,-0.040789846,0.073499344,-0.045398198,0.0003252272,-0.041220732,-0.03412896,0.05716647,-0.10111407,0.10512798,0.04264934,-0.069575086,-0.01801949,0.032189127,-0.02802868,0.0979459,0.004734351,0.010637878,-0.011848107,0.06253128,-0.07342636,0.040644947,0.033100974,-0.012009532,-0.0035186124,-0.04386495,0.0028318895,0.043313574,0.024446938,0.07818711,-0.08449811,-0.025482444,-0.021991206,0.11618727,0.032158438,-0.0030762455,0.0330677,0.00018950632,0.03996752,-0.010333869,0.055371493,-0.019935131,0.056800637,-0.019753555,0.0013529422,0.09481174,0.023605755,0.009209003,-0.016458154,-0.004338628,0.031377092,0.026872246,0.011882462,-0.05538384,0.08947671,-0.031459615,-1.0503594e-32,0.03638667,0.0036102922,-0.04552568,-0.0020015624,0.09715331,-0.012852161,0.015819602,-0.030027546,-0.021255316,0.055085678,0.03862418,-0.058056377,0.085816294,-0.004453295,-0.06273685,-0.04624697,0.019770008,0.0010945981,0.04271004,0.053363897,0.04720469,-0.013884076,-0.08003453,-0.04459645,0.00060312886,-0.0028141362,-0.02970388,0.04163565,-0.048257954,0.019738639,-0.06713769,0.02571365,-0.05917289,0.008751786,0.02076204,-0.0412938,0.0070748636,0.0016273366,-0.019174207,0.030985974,0.07016876,8.207764e-05,7.583072e-05,-0.02128003,-0.05327962,-0.05420725,-0.013624188,0.051464092,0.011894008,-0.009050138,0.100231774,0.06326285,0.022416076,-0.019914648,-0.005612794,-0.016667701,0.015972124,0.0096511785,-0.062749185,0.03337656,0.068090454,0.019520747,0.04346891,0.042665057,0.009724631,0.03539977,0.058602758,0.078803554,-0.0707894,-0.07068972,0.018679155,-0.041495577,-0.012056283,-0.07550104,-0.07411454,-0.01023856,-0.011713135,-0.061602037,0.05418394,-0.06920934,-0.07345023,0.072910815,-0.027515939,0.05417607,0.0029585084,0.044760514,-0.028024022,-0.01529671,-0.014645583,-0.022226108,-0.07772025,-0.025034904,-0.053617217,0.059584085,0.023093194,-6.002187e-08,0.0048538963,0.0007191836,0.07798931,0.045152817,0.048277553,-0.05881289,-0.016775867,0.021854613,0.039002076,-0.03301733,0.023628775,-0.02587412,-0.015817346,-0.026732808,0.094962984,0.044774946,-0.058559548,0.09526307,0.02213366,0.010403834,0.046595294,0.053160984,0.035514396,-0.027722951,0.0026675616,0.0009788758,0.019645043,0.03497737,0.011303389,-0.030811273,-0.061182678,0.0076203956,0.04517333,0.013094768,-0.021707984,-0.08822381,-0.07554657,0.023636354,-0.10042081,-0.023303278,0.0108751515,-0.012611946,0.105298646,-0.063335575,-0.028504169,0.044138838,-0.0106493365,-0.010369419,0.019876411,-0.052565023,-0.058493268,-0.04210352,0.06563713,0.048563,0.08364348,0.001030285,0.027071027,-0.05867828,0.04047402,0.1266455,0.022273464,-0.1241073,-0.037943497,0.056573484
ui+ux,-0.09006826,-0.05066292,-0.021498524,-0.003200224,0.05514543,-0.04546635,-0.005286253,0.043155145,-0.03396457,-0.026804233,-0.03004856,-0.021760492,0.0131863095,0.054941155,0.08351687,0.02971254,0.07899113,-0.07319681,-0.035622433,-0.044663936,0.027864248,-0.04561316,0.040107664,-0.051133256,-0.12374598,0.010032615,-0.0027126225,-0.054739784,-0.0021438743,-0.1120193,0.08280474,-0.026474034,0.013972371,0.025571993,-0.054667767,0.068967715,0.07163531,-0.062565714,-0.0010391247,-0.072501354,-0.08352059,-0.06926335,-0.084696725,-0.01973303,0.09542587,-0.066137165,0.02462045,-0.004373044,0.00091853575,0.06676898,-0.022648044,-0.07968963,-0.011381066,0.0037076906,-0.06095619,0.05174318,0.06062571,-0.050703954,0.028839165,-0.009577923,0.046849784,-0.05009994,0.017567322,-0.00968851,-0.014426709,-0.06796428,-0.060971856,0.012905684,-0.03675728,-0.027130956,-0.045534153,-0.02114028,0.0018580431,0.03983131,-0.023911545,0.0035315221,0.037897684,-0.041055687,0.07705855,0.02422648,-0.0055239974,0.09048679,-0.044315085,0.067051336,-0.06239399,0.045826405,0.046922993,0.07221289,-0.051232606,-0.022541927,0.014885592,-0.04105374,-0.005012334,0.033258785,0.02503123,0.028587835,0.041422147,-0.00283256,-0.0067252107,0.032233514,-0.045419514,-0.015150424,0.09784574,-0.055495046,-0.14558636,0.010299104,-0.0074321367,0.062370222,0.04358622,0.0378504,-0.08899223,-0.017588174,-0.0788528,0.03093142,0.09526874,-0.08663903,-0.04364939,0.021132383,0.080214396,0.042761978,0.057803847,0.119628,0.094512634,-0.0042941067,0.07354235,0.07120925,0.04488273,9.400872e-33,0.02293076,0.0718339,-0.03831811,0.13673541,0.081717156,0.055585694,0.0687963,0.10102272,-0.093256906,0.019709662,0.012017501,0.020731136,-0.050556377,0.056442905,0.04159502,-0.07121212,-0.032740105,-0.006343774,0.032873206,-0.025693761,-0.019719064,-0.07323097,-0.0050966996,0.087661944,0.02430274,0.0050720843,0.038082995,0.05231565,-0.033234056,-0.0013757583,-0.017615706,-0.0019747217,-0.060802948,0.018905925,-0.022981688,-0.008476459,-0.017268404,-0.07890015,0.0289219,0.017405037,-0.026055604,-0.014783517,-0.080214866,0.008097505,-0.036429707,-0.034125734,0.04315489,0.003167678,0.03369702,0.030952262,-0.10280847,-0.03668095,0.1034778,-0.013788909,0.014085048,-0.06656839,0.04613707,-0.08731749,0.031444043,-0.019320082,-0.03258974,0.002285275,-0.044034198,0.025761854,-0.029576847,-0.047182333,0.067134485,-0.03634218,0.10085888,-0.039502118,-0.050681584,-0.009167469,0.122624554,0.028837299,-0.072001554,-0.02858313,-0.06283292,0.07166791,0.085539214,0.024096005,-0.014515076,0.006974615,0.030407593,0.005170606,0.04495724,-0.111643836,-0.07196814,0.009094587,-0.053577572,0.022720117,-0.0046968544,0.045267414,0.021735929,0.07064966,0.0387062,-7.556874e-33,-0.019652706,-0.052372746,-0.019178797,0.06657796,0.065598555,-0.06729272,-0.0040813386,0.00014155381,0.058212124,-0.0007643621,-0.028802434,-0.038716562,0.04114926,0.04552867,-0.08061041,0.049663823,-0.03385075,-0.10923108,0.09232886,-0.072131455,0.03688758,0.056386407,-0.06595535,-0.015012343,-0.014282979,0.023792716,-0.0027329053,-0.07554495,-0.0011493345,0.0095400205,0.07101485,-0.029682588,0.041995462,0.0012928579,0.008673122,-0.08031503,0.028682036,-0.00904923,0.03809168,-0.018323924,0.11625858,0.02246008,-0.044285953,-0.05496368,-0.01108225,0.02845549,-0.01505266,-0.024017848,0.00021302278,-0.05912542,0.032954417,0.010378916,0.03410825,-0.110110134,-0.030038254,-0.03174145,0.06518755,-0.039378222,0.04993876,0.030407976,0.062271748,0.039730173,0.11411848,0.013532158,-0.003092026,-0.034641597,-0.011051608,0.070540294,0.009241049,-0.05386752,-0.008432502,-0.04927227,-0.0050600893,-0.030971918,0.035969228,-0.066370755,-0.0329893,-0.10270153,0.026950693,-0.05026169,-0.055202782,-0.0047414596,-0.016541488,0.042820647,-0.018637251,0.06363897,-0.00786579,0.03158272,0.0077000447,-0.049175862,-0.09432968,0.06435834,-0.07009289,0.072825044,0.0075026383,-6.54085e-08,-0.052070808,-0.016496414,0.027670637,-0.00038247133,-0.04182457,-0.006239394,0.019062186,0.020787166,0.09644906,-0.01222482,0.04061983,-0.014711599,-0.020727186,0.06901639,0.1126187,0.008866195,-0.04726198,0.09812965,-0.021673083,-0.024694841,0.11314874,0.029391574,0.019204594,0.0049760565,0.02424252,-0.06417355,0.009288188,0.071560144,-0.006859726,-0.018231813,-0.05381536,-0.06159844,0.01599121,-0.020600753,0.023241185,-0.02786733,0.030756678,-0.05396134,0.0041581527,0.030371448,-0.018197114,0.08001131,0.017831333,-0.008536355,-0.04394299,-0.04479246,-0.11050915,-0.05011009,-0.051485565,-0.017948845,-0.03322589,-0.021021793,-0.039840404,0.03047222,0.004863189,0.04784969,0.034871195,0.0065479996,0.091780245,0.034140754,0.0733102,0.0026012727,0.039105956,0.016951095
ui+ux,-0.057650443,0.055610113,0.026229413,-0.047242485,-0.035952605,-0.046720076,0.011317953,0.08192908,-0.048681036,0.008831584,-0.016636975,-0.030337362,0.013420747,0.06573584,0.0067917677,0.019240096,0.01632907,-0.077808805,-0.020325545,-0.016953807,0.0049149166,-0.00927926,-0.047593575,0.014388322,-0.09679596,-0.049763415,0.04961693,-0.01307631,-0.025034368,0.006078876,0.010105606,0.15234922,0.021305772,-0.0118484255,0.02859751,0.053746562,-0.020865818,-0.008472737,0.004656891,-0.08175005,-0.060542203,-0.081591494,0.03894644,-0.0062378272,0.044041593,-0.08412642,0.04778988,-0.016549403,-0.04687321,-0.009871128,-0.0064999065,-0.05172031,0.0074649,-0.02665244,-0.035546757,0.04743249,-0.004886975,0.03688242,0.018246567,-0.015949564,0.05756196,0.0400382,-0.030046476,-0.04316342,0.00014785326,-0.029346244,-0.024775783,-0.0055828295,-0.04992589,-0.065151565,-0.013138308,-0.044973034,-0.033694755,0.05200369,0.00018695882,0.03334901,0.041339885,0.014692899,0.035802677,-0.06596534,0.050956685,0.06481824,-0.07409456,0.04765293,-0.029588442,-0.022157703,0.03342497,0.059058443,0.00079829094,0.01678531,0.04014376,-0.013610663,-0.035143703,-0.04014732,0.011553132,-0.088251404,0.053844027,-0.05870837,0.03621308,0.028870612,0.020658657,0.054889653,0.11489052,-0.028335217,-0.13301006,0.04911266,0.020438246,0.0069851433,0.05824496,0.046194382,-0.08655766,-0.045097306,-0.053787258,-0.074913,-0.083634764,-0.016326508,-0.08977742,0.032592587,0.0237508,-0.012280888,-0.033392154,0.022168271,0.052240413,-0.035644334,0.044005297,0.0609405,0.07723339,6.722924e-33,-0.056701254,-0.001363275,-0.07462092,0.13400851,0.010147301,-0.031012107,0.03989011,0.027768156,-0.057545908,-0.042767644,-0.022294868,0.062766016,-0.0018331131,-0.030595621,0.057837266,-0.08996638,-0.041348893,-0.0064141764,0.0010429927,0.0034973368,-0.022332579,-0.0620254,0.035765618,-0.014246232,0.121860884,-0.017199086,0.050149214,-0.028680047,0.019892473,0.05819369,-0.030570202,0.04048584,-0.049741834,-0.006088426,-0.035801128,0.06573074,-0.10953231,-0.09949261,-0.05037186,0.022062132,-0.030590422,-0.015142201,-0.08075607,0.018360028,0.048670586,-0.015233857,0.044146877,0.033365037,0.019874014,0.04156937,-0.055831473,-0.009033663,0.018289816,-0.03774524,0.051255226,0.05621954,0.060571313,-0.116221026,0.023549143,0.106250316,-0.017622188,-0.03987144,-0.091192104,0.0071576573,0.08295498,-0.018499725,-0.008849829,-0.014881401,0.08936392,-0.0089113545,0.007383451,-0.010697882,0.15316741,0.07524472,-0.029572664,0.023380712,0.005419868,0.084930815,-0.06772513,0.024954107,-0.0625083,-0.005214867,0.0447628,-0.047283478,0.12131218,-0.059768695,0.0045982325,0.04535726,-0.108697,0.003031785,-0.020707997,0.020895667,-0.043378264,0.062982894,0.07384056,-7.033671e-33,-0.050627768,-0.03286651,-0.04215859,0.012876684,0.06128125,-0.08221741,0.029017916,-0.048829556,-0.011549245,0.022877436,-0.06775939,-0.0687314,0.049946483,0.003258199,-0.07433682,-0.060801584,0.0018132362,-0.087568656,0.008248206,0.06875725,0.018214269,0.047355726,-0.034142558,0.025772797,-0.0016488854,-0.021658791,-0.016681569,-0.030514091,0.0015423405,0.011632647,0.071411274,-0.038448382,-0.0073789144,0.021589091,0.013546209,-0.0717461,0.027870348,-0.016181802,-0.0055941036,0.04088234,0.072854295,-0.12531924,-0.012645567,-0.0349514,-0.03874016,0.021201804,0.042108487,-0.020099962,-0.01575774,-0.09842478,0.07396645,0.020738987,0.0492609,-0.010022031,0.08544797,0.0335608,0.07296824,-0.01623508,-0.02996767,0.015900997,0.12170081,0.0010226342,0.12396979,0.01465134,0.0014078039,-0.061832227,0.05069423,0.015948951,-0.024623003,0.003988188,-0.1043345,-0.034626257,0.038759056,-0.03472239,0.038626496,-0.12355358,-0.052754134,-0.048835855,0.051788826,-0.055391163,0.0033315087,-0.013134216,-0.012786327,0.0617335,-0.04534696,-0.018972952,-0.007958849,0.0037910116,0.059544917,0.039702363,-0.081193455,0.04948398,-0.08691457,0.06732753,-0.05341587,-6.562471e-08,-0.0050607556,0.0012927715,-0.07252933,-0.040115315,-0.04029848,0.0654626,-0.00687654,0.018793754,-0.0028967217,0.024270136,-0.004895083,-0.040475544,-0.023791,0.11535292,0.03257698,-0.041271158,0.01358864,0.08758098,-0.07387413,-0.042603113,0.028838206,0.05720982,0.010591161,0.021965615,0.014509084,-0.047985405,-0.033540558,0.022228394,0.076027796,-0.009336909,-0.0055721537,0.006395203,-0.0235194,-0.016401695,-0.018284706,-0.009818265,0.051857684,0.05668158,0.071536995,0.035448786,0.017732773,0.0771057,-0.061436765,-0.011943025,-0.012578244,-0.050644603,-0.09423075,0.009446603,-0.083562985,-0.02829794,-0.07959511,-0.011332664,-0.05566979,0.13988727,0.06191632,0.06559095,0.013310372,-0.060659755,0.049815845,0.04111634,-0.04591821,0.07245907,0.037670713,0.06557958
cyber+security,-0.053633694,-0.022044344,-0.0695703,-0.032664105,-0.020236285,0.051327292,0.05086804,-0.017641738,-0.042594302,-0.060504533,-0.038375873,-0.055016704,0.07824068,0.053991,0.03746354,-0.038462054,0.0012047862,-0.028079506,-0.043104053,-0.050685488,0.009588955,-0.010363084,-0.030657722,-0.038092144,-0.16640769,0.010373342,-0.0018718694,-0.09362264,-0.12331364,-0.07229681,0.022381881,-0.00797715,0.062174793,0.080839545,-0.0006011575,0.044447165,0.03930945,-0.02884439,0.079434276,-0.05064733,-0.06535586,-0.07553384,-0.028530221,-0.02804059,-0.004536642,-0.025436876,0.050814826,-0.046946593,0.05044174,-0.040379625,0.016816873,-0.03466796,-0.01539191,0.0034901982,-0.06523364,0.032036547,0.040128157,-0.035900544,-0.00054663594,-0.08588187,0.030752495,-0.0008895099,0.0507825,0.03398355,0.011361168,-0.0009828986,0.03760814,0.056289144,0.0507199,-0.008164385,-0.056222796,0.0048785554,0.0330661,0.10136455,-0.004794059,0.07640472,0.041771017,-0.010502496,0.111136734,-0.029568821,0.091090575,0.025732286,-0.075274244,0.08687417,-0.03363706,0.037458163,-0.05490172,-0.05065332,0.018316364,0.077925876,0.075121954,0.017645376,0.0013914627,-0.009580792,0.111965396,-0.052087143,-0.043458465,-0.05949873,-0.04424318,0.026306864,-0.051175233,-0.0032851784,0.05642321,-0.0039385157,-0.041364152,0.0006383996,-0.029966602,-0.02420313,0.06557985,5.404516e-05,-0.018877506,0.028544579,-0.07094816,-0.047683023,-0.004863337,0.029598925,-0.032311156,0.059935905,0.013453488,0.008843989,0.03632998,0.095732,-0.0050857062,-0.07163816,0.02546101,0.011564798,-0.024157757,1.7812716e-33,-0.12844592,0.10469218,0.024305522,0.011102928,0.0074214316,-0.06922193,-0.00489633,0.06119186,-0.06589251,0.022058388,-0.0791933,0.026028508,0.06631312,0.000101142905,0.09118097,0.0044361213,0.007877249,-0.035590086,0.025160475,-0.06061138,0.020960052,-0.052302554,0.040990006,-0.0091605205,0.14324981,-0.032008827,0.052347362,0.07465206,0.10672443,0.025518792,-0.048196774,0.06312314,-0.02089202,0.0049964464,0.07670722,0.03426234,-0.029565804,-0.07735827,0.047184486,-0.036045842,-0.02076962,0.003571517,-0.045155525,0.0326965,0.027706936,-0.016716557,-0.015953109,-0.028059237,0.025834288,-0.005285108,-0.06556613,-0.008897792,-0.012425008,0.0023094965,-0.017168766,-0.045093227,0.06810095,-0.008852019,0.043356065,-0.011602993,-0.059617307,0.024361227,-0.016205173,-0.020522695,0.031090733,-0.061824683,0.013239785,0.06751982,0.030762905,-0.024071936,-0.048618738,-6.500919e-05,0.0484975,0.0028488436,-0.069704264,0.018104224,0.013266151,0.038550753,0.04738402,0.02938767,-0.10655903,0.04526672,0.004064279,0.0010788854,0.03862967,0.039982866,0.0028224057,-0.012983436,-0.017442092,-0.011338232,-0.020848257,-0.11236541,0.082487516,0.11501924,-0.044248197,-5.256534e-33,-0.04528831,-0.049559735,-0.06202766,0.039195415,0.02671929,0.0049349177,-0.014194084,0.006867398,-0.06047709,0.056170847,-0.039260786,-0.003071786,0.0937652,-0.06837806,0.06346431,-0.03245253,-0.018320868,0.05283815,-0.073287666,0.018648675,0.11645167,0.09127604,-0.022009857,0.01902492,0.057761725,0.014936689,-0.016618332,-0.001459437,0.072653085,0.067909256,0.0462341,-0.02713734,-0.030767923,0.061246485,-0.060885232,-0.055941496,0.06288987,-0.052930843,0.040271174,-0.036318403,0.07042209,0.0068331026,-0.011187616,0.014169879,-0.028358728,0.025907038,0.031075282,0.031223154,0.01866176,-0.08045551,0.023556136,0.011757935,-0.06436837,-0.012124252,0.01196146,0.029622778,0.029458927,-0.017068718,-0.027792215,0.012213112,0.008943163,-0.024734193,0.029888518,0.0727226,-0.0048695696,-0.08202889,0.06109896,0.12653789,-0.086270176,-0.08606337,4.597348e-07,-0.02090155,-0.06579412,-0.053525615,-0.061397888,-0.098095484,-0.05724956,-0.042412728,-0.020447498,0.027928194,0.06680383,-0.045461625,-0.07444103,0.057758257,0.06816484,0.029889334,0.04968861,-0.0026056159,0.04224403,-0.027644515,-0.1235701,-0.04228463,-0.07667177,-0.02939548,-0.0036820641,-5.403763e-08,0.037345655,0.029031843,0.029351726,0.022863591,0.011748818,0.0020118041,-0.13482924,-0.039401717,-0.007787583,-0.08782146,0.039312158,-0.06897518,-0.060743228,-0.06571792,-0.017463433,-0.0035762405,-0.14610398,0.08854021,0.0041451766,-0.032516748,0.08185518,-0.021823835,-0.015282454,0.044011075,0.00830105,0.037450664,-0.044367403,-0.010410166,0.00689746,0.018343763,-0.057545036,-0.08743342,0.006235968,0.013486988,-0.015476892,-0.034383863,0.06909104,-0.020689784,0.029209865,0.032341562,-0.04907765,-0.04951943,0.049459234,0.05396368,-0.104108855,-0.005760315,-0.040302984,0.009357011,0.0059959637,0.029768078,-0.016919252,-0.04375089,-0.013408986,0.12896672,-0.013428087,0.057627928,-0.0005071269,-0.04364858,-0.014066847,0.12212329,0.019489866,-0.07274421,-0.0477365,0.005626336
cyber+security,-0.06924354,0.042746656,-0.016783386,-0.002425422,0.0150742885,0.025177423,0.058751024,0.035083547,-0.04249966,0.016919054,-0.016521173,-0.06334811,0.11060396,0.0031074344,0.03539972,0.032981355,0.022552576,-0.08229733,-0.03811663,-0.078232475,-0.028309774,0.009504017,-0.026446603,-0.04424258,-0.1027686,-0.016063891,0.0016375445,0.024597654,-0.08282026,-0.06072704,-0.018824989,0.018980423,0.04707593,0.037330158,0.00953674,0.056066256,0.024280425,-0.06782949,0.03783754,-0.018462414,-0.073265135,-0.05550001,-0.021726131,-0.034457043,-0.0076515265,-0.043799996,0.06521676,-0.098563045,0.015805935,-0.014593379,0.03196472,-0.082779124,0.02219849,0.03404755,-0.069811165,-0.01472466,0.017930638,-0.04287047,0.047850907,-0.045818854,-0.0110716075,-0.07066547,0.00860552,0.025599346,0.0021202397,-0.065086775,-0.025263822,-0.006923611,0.041171685,-0.026000079,-0.093572296,-0.036100954,-0.040206835,0.036948655,0.03705426,0.08589703,0.07523563,0.003801352,0.109340996,-0.068167284,-0.0019366457,0.032490462,-0.078125045,0.047153838,-0.008814636,-0.0155907795,0.029397564,0.026498163,0.024512663,0.08088886,0.05125354,-0.02558026,0.025427524,0.027511569,0.03485266,0.0028008858,-0.039711762,-0.026687028,-0.1078444,0.0401321,0.013182177,-0.019257694,-0.013144824,-0.01749969,-0.06937716,0.012715072,-0.01677923,0.07551171,0.02896667,-0.05342881,-0.018145373,0.005483393,-0.07732862,-0.06970167,-0.029307855,0.005052482,-0.081437185,0.009528415,0.013252054,0.042291295,0.098367,0.034195326,0.03718582,-0.06825165,-0.021515656,0.069830194,-0.016677964,1.0272535e-32,-0.01143811,0.10061394,-0.05342398,0.054705936,0.07458459,-0.0152596375,0.024287902,0.07215791,-0.033997566,0.006453725,-0.023452975,0.010374221,0.017580146,-0.035208035,0.015009789,-0.030742513,0.012773701,0.03527011,0.026739076,0.055150308,0.061814673,-0.09474262,0.022150747,0.02310896,0.15610336,-0.032695744,0.02732414,-0.0071820663,0.011128807,0.05379011,-0.019164162,0.026324723,0.016949302,-0.08324126,-0.024894254,-0.00090336445,-0.013978683,-0.056732565,0.03391651,-0.023330739,-0.018432992,-0.0012209975,-0.025121957,0.05017136,0.049447436,-0.027280388,0.03197044,0.020925911,0.07989638,0.0151714,-0.13790138,-0.08226672,0.07291439,-0.0071928254,0.05619127,-0.01598158,0.062392622,-0.05944937,-0.007268014,0.017846124,-0.077219866,0.042168915,-0.052856617,-0.0044815815,-0.021944277,-0.04509378,0.025422009,0.041048948,0.040258102,-0.009687308,-0.054562774,0.04029482,0.124793485,0.0038372905,-0.08390273,-0.044813488,-0.048233412,0.05522302,0.050864294,0.059126515,-0.12155194,0.024238318,0.04095863,0.03156564,0.012589632,-0.014449545,-0.0016989483,0.038591113,-0.026658876,0.020430071,0.0007366333,-0.044141345,0.029054143,0.05121552,-0.03849662,-9.876965e-33,-0.06411754,0.032680083,-0.07621987,0.00088941486,0.046619028,-0.022659406,0.02590546,0.026423732,0.004887029,0.038700297,-0.007894032,0.03888385,-0.00760581,-0.10412989,-0.013831185,-0.05918433,-0.08602913,-0.036758468,0.035130832,0.021301934,0.054087684,0.03996348,-0.02530308,0.021271782,0.0710332,0.026269536,-0.0054211807,0.020536013,0.02270322,0.057696845,0.03854881,0.0031939764,-0.006799391,0.05482294,-0.048644148,-0.089053474,0.09920852,-0.027933065,0.013961521,0.024620382,0.14657688,0.0174368,0.010383046,-0.0033953525,-0.050634697,0.04338203,0.041023638,-0.0057645133,-0.046535954,-0.03429334,-0.05029253,-0.029590605,0.0017315574,0.019092072,-0.004375492,-0.0027707142,-0.00977646,0.031589836,0.009872885,0.01748142,0.083771005,-0.019828249,0.122075535,0.02461604,-0.040214926,-0.0835599,-0.023921607,0.09109356,-0.039219655,0.018702097,-0.056165896,-0.021191167,-0.025280459,-0.11874138,0.003977175,-0.059478205,-0.035159536,-0.08239205,-0.03481908,0.006410708,-0.05240206,0.060711302,-0.12848274,0.02181632,0.053666126,0.038508695,0.05247861,0.026323218,0.051123183,0.0079067405,-0.2283661,-0.09162125,-0.04285274,0.041178692,-0.054143555,-6.413785e-08,-0.006240453,0.058907468,-0.026808552,0.011408598,0.04582171,0.010561833,-0.10255277,-0.006825489,0.0399595,-0.020615049,0.030523458,-0.048484866,-0.017331934,-0.03459811,0.009543002,-0.011579464,-0.06419719,0.104206875,-0.06264655,-0.10167801,0.051975805,0.022990905,-0.018215844,0.016478343,0.0192051,0.05066069,-0.01521143,-0.0044337944,0.007277503,-0.010199101,-0.07991658,-0.060114298,0.010370886,0.03463548,0.0060151,-0.020809337,-0.01406312,-0.050804026,0.056245133,0.08840096,-0.04276317,-0.012910952,0.013774726,0.041458175,-0.067311704,-0.00608613,-0.08635408,0.021576848,-0.03559297,-0.004814913,0.04715836,-0.0507301,-0.03332175,0.15489984,0.04969439,0.10750477,0.05475529,-0.07837546,0.060636982,0.101274565,0.018091705,-0.025906252,-0.050272245,-0.011853312
software+engineer,-0.08583591,0.029109571,0.06676571,-0.005914868,-0.09139976,-0.033208497,0.028598223,0.069996156,-0.0036016635,0.060651235,-0.045872852,-0.09171986,0.027659202,0.018227255,-0.008017111,0.11992147,0.0803975,-0.050332475,0.014207635,-0.057634335,-0.04501841,-0.025922837,-0.038103636,-0.021706985,-0.026035355,0.001504032,0.06049296,0.041545667,-0.015364216,-0.029290715,-0.064298056,0.02603368,0.049715366,0.022348946,0.060043946,0.073676765,0.0533505,-0.04626316,-0.016253665,0.057207283,-0.054770444,-0.029065788,-0.054782093,-0.042386055,0.050083593,-0.04516836,0.04427496,-0.04265414,-0.06278805,0.0549892,0.046888586,-0.057915706,-0.002008405,0.04554267,-0.05580368,-0.025595883,0.07562869,0.025626868,0.03642853,-0.031936727,0.00063877384,0.0179,-0.043972638,-0.024850516,0.004604525,-0.042429026,-0.059570685,-0.025662774,-0.030700402,-0.073830135,-0.07463733,-0.02148424,-0.04211752,-0.075010955,-0.021997001,-0.028811438,0.013981355,0.026033197,0.0877973,-0.102623805,0.065587536,0.05877376,-0.036983784,0.06134145,-0.11542913,-0.040509216,0.07142064,0.07509855,0.08420983,0.06559745,0.07085352,-0.030174354,-0.005314864,-0.0515778,-0.014568691,-0.020733323,0.031667825,-0.016716726,0.022525787,0.023280488,0.046886884,-0.017699586,0.023474352,-0.042692132,-0.024711365,0.04629368,-0.060323156,-0.021518145,0.03360042,0.01893916,-0.041350007,-0.011036222,-0.155609,-0.011285987,0.012522408,-0.011899358,-0.09511694,0.039726347,-0.033840314,0.0011029845,0.043035146,0.030498995,-0.05441296,-0.04761025,0.016829694,-0.0020757474,-0.03549097,5.7341698e-33,0.06690242,0.039958596,-0.044330355,0.027961368,0.08398478,-0.023243187,0.070759274,0.034339275,-0.012494923,-0.008232344,-0.01930451,0.048491623,-0.03843928,-0.05112645,-0.0068145604,-0.025125522,0.0179492,0.053274903,-0.055307195,0.06471464,-0.03188464,-0.077640474,-0.025897574,0.027886331,0.038159117,-0.010626493,0.049045514,0.029713433,0.09865944,-0.017746475,-0.021017136,0.040482357,0.11156534,0.012515781,-0.074870415,-0.016745849,-0.035766974,-0.11438367,0.04103976,0.056446455,-0.045213137,0.002275462,0.019396355,-0.04265646,0.050732438,0.0148069225,0.07160712,-0.021167077,0.01834617,0.046844933,-0.05546196,0.017021907,0.028291577,0.05710859,0.009787545,-0.06216125,0.064479016,-0.102637246,0.032743443,0.11250206,-0.050767705,-0.033971224,-0.016431244,0.06254331,-0.069779396,-0.07806708,0.037487507,0.0022502083,0.07986247,-0.030965367,-0.038835373,0.031170417,0.12465765,-0.022504078,-0.09466009,-0.027071092,-0.00797237,0.117065586,-0.00080231996,0.02285717,-0.016874371,0.019608054,0.029087197,-0.023583764,0.04530438,0.010968801,-0.0033027874,0.021738885,-0.038341302,0.05117939,-0.076667905,-0.03557572,-0.031248279,0.03794744,0.08016239,-6.4710795e-33,-0.011482981,0.012894257,-0.04188362,0.047983907,0.042782612,0.01906896,0.0045845457,0.029207846,0.04931497,-0.007248614,-0.10549165,-0.036783516,-0.0215837,-0.0042448696,-0.10543847,-0.07816335,-0.01688953,-0.030595258,0.019642893,0.07031866,-0.04306906,0.07568931,-0.03244968,0.058062375,0.0022968894,0.045341585,-0.020772599,-0.03945933,0.00087749073,0.00016202523,0.021127276,-0.044777453,-0.04570109,-0.03372577,-0.018537175,-0.09974212,0.03827764,0.0040626363,0.037493177,0.07217176,0.075070284,-0.023188176,0.022105414,-0.014658414,-0.017388383,-0.020120824,-0.034066755,-0.08645189,0.02123399,-0.10568345,-0.020810591,0.008385449,0.00650075,-0.012540397,-0.06355768,0.01837545,0.025134206,-0.017896181,-0.043754026,0.0065327617,0.07529812,0.016765801,0.13762926,0.053929243,-0.01892316,0.04769028,0.10426872,-0.01678083,-0.01004624,0.010120061,-0.06895747,-0.056926657,0.011907612,-0.05955882,0.07082028,-0.06303226,-0.03987685,-0.108532704,0.06290984,0.015461986,-0.052744973,0.0023023365,0.026825914,0.00058600144,-0.021135243,-0.014158438,0.023028467,-0.008691689,0.07668426,0.016609462,-0.13030232,0.008156879,-0.063892394,0.014156976,0.030224008,-6.413402e-08,-0.017865852,-0.020625964,-0.07911271,-0.031112634,0.02010751,-0.041732967,-0.032557853,0.06796367,0.065539114,0.057032507,-0.032417987,-0.0760638,-0.081751026,0.033553556,0.021874707,0.04831326,0.0032697653,0.06891635,-0.08238968,-0.036288958,-0.051491927,0.10230064,0.043125443,-0.056642927,0.035382178,-0.010745139,-0.03300554,0.11101674,-0.02808604,0.035862986,0.037917305,3.364122e-05,-0.02455974,-0.0027103147,0.0017642124,-0.14146343,0.06798529,0.023073334,0.095966496,0.057974048,-0.04087034,0.043451168,0.037050452,0.0343967,-0.0069524352,-0.059245236,-0.15342358,-0.03172514,-0.041708272,-0.035684384,0.0068271896,-0.018293194,-0.0005505222,0.02540004,0.06753545,0.053591363,0.017984398,0.004275598,0.01769836,0.07113185,-0.023863863,-0.07804926,0.02020237,-0.017941944
data+analyst,-0.023594402,-0.032130018,-0.02777369,0.02142441,-0.11571525,-0.014232786,0.010601696,0.02973955,-0.07972495,-0.029390564,-0.067769796,-0.08046377,0.025206208,0.043167043,0.024832299,0.031348355,0.013498527,-0.05005281,-0.023090467,-0.11352737,-0.016264537,-0.016203946,-0.037754558,-0.045486297,-0.095156446,-0.033169493,0.05592904,-0.03541382,-0.014687306,-0.013390085,0.019571574,-0.03484304,0.052161247,0.046852995,-0.0076409844,0.036852837,0.057933856,0.032228425,0.04870661,0.014246138,-0.07010656,-0.07837212,-0.039140563,-0.06123653,-0.011037947,-0.03378817,-0.034278117,-0.01984425,0.035442322,0.078256495,-0.1864921,0.016280647,-0.008050249,-0.0184916,0.01446084,0.076989606,-0.004641664,-0.019173894,0.013595019,-0.0636526,-0.018303966,-0.005486904,0.022586538,0.007968229,-0.035040822,0.025005478,-0.06745511,0.0841765,-0.010712737,-0.006703108,-0.062862456,-0.05058728,-0.14226359,0.06315773,-0.008581694,0.016214289,0.031528987,-0.007545554,0.05609138,-0.063516125,-0.0053719846,0.08212847,-0.05944242,0.14496201,-0.0664441,-0.053320333,0.017106459,0.048649296,0.020154657,0.060286075,0.099184595,0.0011137245,-0.046212196,-0.018185135,0.026073126,0.008424021,-0.06308839,-0.020157563,0.056363326,0.0034153645,-0.017533341,-0.03036975,0.03619134,0.03447282,-0.1420066,-0.022488242,0.040009145,0.02721264,0.014449178,0.00788356,0.0021429525,-0.03495791,-0.11983189,-0.06618892,0.055890568,-0.013923093,-0.10454071,0.026847022,0.024562262,0.07219528,-0.0036749016,0.14110334,-0.011108786,-0.09034148,0.032931063,0.032464866,-0.04514842,8.7672314e-33,-0.053110626,0.027542748,0.0069798334,0.06855886,0.0016287154,0.0204541,-0.02795422,0.04305204,-0.010276375,0.055176586,-0.02204086,0.09094934,-0.04975096,0.0009742438,0.023251148,0.022867378,0.044327583,0.052984364,-0.06088202,0.019819707,0.026363017,-0.04443951,0.029534854,0.034938756,0.095221765,0.027565837,0.082451336,0.073768765,0.06883015,-0.009871641,0.039602414,-0.04751565,-0.06467835,-0.028891202,0.024497254,-0.0010042745,-0.06279342,-0.06334203,0.026240252,0.025252977,-0.0592504,0.022485612,0.003671647,0.024041098,-0.06869488,0.017722178,0.052398585,0.0012733495,0.072263986,0.023669766,-0.03177752,-0.0948718,0.052646317,0.015711218,-0.01923374,0.06580419,0.061283913,-0.10671639,0.0023202063,-0.003443785,-0.0630686,-0.012332389,-0.020403745,-0.011400019,-0.01366817,0.008238449,0.02075934,0.028556047,0.059997268,-0.05927592,-0.06522142,-0.026996452,0.08671048,0.024668487,0.012132716,0.0020528978,-0.034197595,-0.012147192,0.058143504,0.07746609,-0.011911806,-0.028722966,0.092129864,-0.07560023,0.06812201,-0.012109048,0.057220142,0.019390527,-0.036171816,-0.011254927,-0.07958579,0.050385963,-0.10128482,0.08743641,-0.06750281,-1.002078e-32,-0.054875735,0.018298874,0.013413172,0.07733993,0.07077834,0.062726386,0.021285111,-0.07464653,0.083832085,-0.05247346,-0.033199202,-0.035390224,0.0043208473,0.029020386,-0.047379248,0.021924114,-0.04274616,0.0018565506,-0.08604956,-0.019493714,-0.05148168,0.1037248,-0.058914278,0.014569603,-0.0016830808,0.012085286,0.0021504157,-0.0026217871,0.043615613,0.05510279,0.00650239,-0.04238191,-0.022784783,-0.009452999,-0.014943835,-0.10593969,0.05426335,-0.08978016,0.013763914,0.065214165,0.078652404,0.058086004,0.00074221217,7.459589e-06,0.009140798,0.025829619,0.06815565,0.021712743,-0.00072595745,-0.066375725,-0.032174204,0.014153004,-0.018125802,0.0016305363,-0.015821932,-0.025145935,0.016842911,-0.04936512,-0.028896255,0.017467348,0.019288177,0.011297153,0.13645203,0.046536334,0.020829737,-0.009022155,0.0367571,-0.019883655,-0.07849593,-0.08628475,0.0172545,-0.028817441,0.017331384,-0.046858713,-0.0579813,-0.036475435,-0.117346965,-0.04716693,-0.013369177,0.05499528,-0.0057096323,-0.014280548,-0.020114202,0.0644608,0.010588647,0.036485504,0.0067917723,-0.029983187,0.069389604,-0.067934364,-0.14115945,0.008147637,-0.106299326,0.08762609,-0.005659201,-6.433546e-08,-0.036416076,-0.01833949,0.023898084,0.0074997838,0.018776692,-0.0077562877,-0.08750373,0.014062605,0.061923593,-0.0020626506,0.024022734,-0.08063031,-0.09770042,0.0142311845,0.056548618,0.0008065299,0.018472143,0.083722174,0.00546656,0.024780069,0.089914486,-0.043242056,-0.022384454,0.036115915,0.040730312,-0.0855414,-0.0596574,0.025943523,-0.029209852,-0.03899917,0.039465476,-0.059772335,0.08191265,-0.060595606,0.004942683,-0.051334403,0.025304737,0.032837376,0.050514575,0.031570688,-0.06705971,0.09892977,-0.005457884,0.03601138,-0.013895004,-0.001381925,-0.10722928,0.060388803,-0.014586742,0.02858132,0.013913481,-0.026687795,0.012421859,0.035789166,0.050579283,0.04472117,0.017253364,0.030244788,-0.033686563,0.045680095,-0.00039114163,-0.019826472,-0.042738467,-0.015505346
cyber+security,-0.042096086,-0.019230718,-0.08013217,0.027561761,0.033290777,0.03756413,0.026948472,0.014698398,-0.024447694,-0.0071140896,-0.024644088,-0.037782837,0.12481805,0.06497947,-0.004449196,0.022661699,0.030213924,-0.017944586,-0.030956335,-0.049605083,0.015071732,0.02011761,0.041452225,-0.03397202,-0.20347853,-0.021330431,0.0027038248,-0.02705684,-0.1443403,0.020412432,0.05339947,-0.01788885,0.06267912,-0.005869853,-0.027596759,0.009516889,0.069022715,0.07645071,0.07197953,-0.05369744,-0.02064787,-0.058971636,-0.004114582,-0.027832445,-0.014194127,-0.03367035,-0.0527324,-0.028094783,-0.06502927,-0.02159318,-0.083707504,-0.07488936,-0.0071365656,0.061484415,-0.033944793,0.05816201,0.029935785,-0.048393276,0.0118018035,-0.016460687,-0.036804076,-0.0895225,0.05130421,-0.00156282,-0.0048396536,0.013683477,0.0414123,0.042769,-0.0024166098,0.009430023,0.04583384,0.00042197807,-0.041805536,0.054436255,0.010977222,0.08542998,0.05281125,0.013949548,0.120207444,-0.07179218,0.06966949,0.03184028,0.039978933,0.049904637,-0.0131842075,0.010882823,-0.08644864,-0.012660501,-0.00818424,0.09583083,0.08964233,-0.048016112,0.0154776815,0.010719858,0.11448715,-0.07095368,-0.060444213,-0.045115337,-0.04400877,-0.012177517,-0.053832985,-0.03942219,-0.014629317,-0.051935717,-0.0245378,-0.04745915,0.008776341,-0.006319209,0.033547323,0.028172508,-0.009517419,0.029727383,-0.033266924,-0.034734577,0.074985854,0.038116556,-0.054816082,0.07775451,0.050203383,0.010896805,0.032583468,0.053948704,-0.0006477888,0.0184539,-0.0024922923,0.06196813,-0.049351644,3.036244e-33,-0.031210542,0.074576445,-0.01919484,-0.0011930655,0.0005357865,-0.042722594,0.0075792037,0.058219545,-0.008130201,-0.0142347,-0.06737352,-0.023244264,0.04451024,-0.0027247255,-0.0041432334,0.043616977,0.02890142,0.05503966,-0.06685983,-0.05501187,0.03406996,-0.07207004,-0.0043153935,-0.010558912,0.12537132,0.05946802,-0.011839099,0.03197184,0.02895561,-0.0017359263,-0.03868386,0.045504864,-0.079053335,-0.023664836,0.09997522,-0.016470686,-0.0793817,-0.046019472,-0.045241397,-0.035914604,0.0047004195,0.036680426,-0.024354348,0.02510145,0.025673546,-0.080322534,-0.019133424,-0.025673984,0.023786342,-0.03375586,-0.053864826,-0.007250411,0.0542903,-0.006363027,-0.034966342,-0.03569288,0.067178205,-0.035519153,0.08724887,-0.05197031,0.0017671061,-0.025790974,0.00043024804,-0.013614578,0.08614323,-0.047454145,0.045478817,0.03219399,0.026701815,0.050684292,-0.040352594,-0.0036674193,0.044093326,0.0045658248,-0.03379372,-0.00091546273,0.0041354722,-0.017302794,-0.015027165,0.024104323,-0.1293275,0.014325847,0.04459754,0.01391106,0.029041028,0.034236785,0.0131111005,0.0031623167,-0.04059948,0.07657377,-0.0044404203,-0.06300059,0.0033596242,0.1579399,-0.05603023,-5.0391444e-33,-0.044766564,0.016687734,-0.08157833,-0.017759895,0.02640147,-0.025200317,-0.040146455,0.0024320984,0.041809425,-0.07465817,-0.005853759,0.0009770064,0.017206801,-0.024528215,0.041731924,0.05802526,-0.0139542045,-0.013697167,-0.06766899,-0.02866474,0.049012244,0.04350661,-0.043861315,0.0019693805,0.004688016,0.044284403,0.10412073,0.036141872,0.030570004,0.032180093,0.016437164,-0.07627825,0.042217012,0.049008925,-0.05168687,2.0749714e-05,0.08268038,-0.15041132,0.023426298,0.043244474,0.069248304,0.0841181,-0.06432963,-0.041409135,-0.036930192,0.03243613,0.05922163,0.023952551,0.012686926,-0.06723596,0.015405267,0.032623928,-0.035897035,0.011307383,0.00078523497,-0.019742727,0.019350149,-0.03589056,-0.036672663,-0.02745672,0.039574567,0.068562254,0.016719967,0.029420283,0.026418608,0.004761263,-0.009926356,0.013331985,-0.06443114,-0.011993246,0.021654824,0.028764777,0.0013432505,-0.015032457,-0.078140266,-0.13443857,-0.046540715,-0.027292471,-0.07788121,0.035348393,0.019195426,-0.026972832,-0.09203216,0.02560699,0.02176596,0.03363497,0.05152293,0.050406583,-0.004691232,-0.022232974,-0.06661448,-0.104067706,-0.0571045,0.025384938,-0.0014175415,-4.9671034e-08,0.07120631,0.016536063,0.047397915,0.0038341982,0.07866147,0.013487399,-0.12269139,-0.08298954,-0.0024886895,-0.02763818,0.08893265,-0.052188784,-0.0048186914,-0.11240361,0.050557192,-0.073454656,-0.056059968,-0.01626383,-0.01952123,-0.061813217,0.05119069,-0.035139382,-0.11266175,0.0031771122,0.08939603,-0.026113609,-0.027483676,0.0044108503,0.0066216956,0.068265535,-0.120790295,-0.05308446,0.057894792,-0.001318909,0.04861136,0.05601037,0.037524972,-0.090862736,0.06880049,0.0016326742,-0.002164125,-0.028111538,0.0089318445,0.06153485,-0.0736757,-0.033439357,-0.047969118,-0.027931139,0.034386013,0.019288722,-0.03793449,0.015099914,0.049736608,0.15264301,0.0268597,0.076704875,0.039784335,-0.07312221,-0.026550071,0.10719771,0.07333873,-0.09069072,-0.03946976,-0.031591084
data+analyst,-0.021540739,-0.0028245482,0.011511645,-0.00296475,0.0008383743,-0.047013715,-0.032621585,-0.0025209826,-0.07674101,-0.060801238,-0.12596503,-0.10813406,0.031862143,0.021829383,0.0016592431,0.061137807,0.00778974,-0.091614716,-0.012542558,-0.0230096,-0.015230731,0.025567506,-0.077544816,-0.06944528,-0.05973416,0.061290257,0.10468874,-0.06454647,-0.045124352,-0.042942207,0.068153195,0.014841707,0.05539699,0.104910225,0.004154758,0.07450379,-0.015825931,-0.07115842,0.015630823,-0.07317533,-0.0630042,-0.04383605,0.0053200615,-0.040491,0.08761188,-0.017692242,-0.043598283,-0.04905051,-0.0018896118,0.024404882,-0.09851387,-0.08520663,4.7464323e-06,0.021820532,-0.050987612,0.09498637,-0.013483598,0.034367587,-0.03454666,-0.04727246,0.08386327,-0.034662064,0.00038324686,-0.01846905,0.02669463,0.05966461,-0.044062193,0.07514258,0.0051203603,-0.055110198,0.013789293,-0.02445707,0.0050031887,0.023291325,-0.0051146257,0.057457384,0.07294469,0.017743602,0.13594069,-0.08246913,0.002967444,0.058271784,-0.10728565,0.13989104,-0.04082558,-0.016187496,-0.029620087,0.036277965,0.00042596017,0.011604612,0.08230201,-0.040139962,-0.029604632,-0.0152998455,0.0805792,-0.036269087,-0.04439176,-0.052418187,-0.042054985,0.02379368,-0.066915974,0.082946,0.04368978,0.0014589523,-0.10083293,0.005132384,0.045695353,0.05100289,-0.028392684,-0.0458693,-0.03654627,0.011050601,-0.023352472,-0.058165442,0.0378223,-0.06364051,-0.061635386,0.036002472,0.04032197,0.036509216,-0.03224851,0.05327792,-0.057438638,-0.032399237,0.017112367,0.010180828,-0.0787853,6.6056905e-33,-0.09326468,0.071079485,0.019967224,0.03707499,0.064023905,-0.083382994,0.022157118,0.0369809,-0.05055612,0.06887468,0.0054785726,0.0046948567,-0.04688109,3.161283e-05,0.074280724,-0.060815513,-0.019125478,0.059794836,-0.036888678,-0.041908752,-0.0047593717,-0.071004584,0.029783042,0.024077013,0.13897626,0.014791884,0.0753916,-0.018681895,0.0559209,0.008199422,-0.026414657,0.017655274,-0.03646169,0.019733934,-0.02879136,0.035032086,-0.08206293,-0.094775334,0.0075767883,0.06684245,-0.028859418,0.040439848,-0.038787615,0.018042091,-0.027662685,-0.0032669757,0.04687211,-0.042245463,0.08571443,-0.025102608,-0.03613662,-0.034987148,0.0379603,0.038351055,0.045346092,-0.047881782,0.03481865,-0.099074714,0.031492006,0.018446565,-0.025543062,-0.094304785,-0.06647898,0.047684845,0.010048999,-0.018210325,0.046537895,0.07618966,0.08418236,0.0008361467,-0.00834075,-0.067364134,0.08302202,0.016229967,-0.07365925,-0.0041551106,-0.003311808,0.002128521,0.028501652,0.04403089,-0.09502512,0.025162162,0.005061705,-0.04004003,0.088787265,0.030337695,0.028970491,-0.04526324,-0.040506683,0.042568877,-0.05514274,-0.011455085,-0.024148392,0.07040854,-0.00269159,-6.583768e-33,-0.06588369,-0.020311693,-0.06803834,0.018216142,0.07705705,-0.019035816,-0.029676815,-0.047254447,0.098720536,-0.030151859,-0.04836029,0.0041392436,0.000699617,0.00018314781,-0.038167782,0.009645326,0.008938557,-0.06569605,-0.005254769,0.04334081,-0.01801006,0.123132125,-0.03990642,-0.012209296,0.022166515,0.03728691,-0.006503087,0.0213755,0.08762183,0.0029752813,0.014253134,-0.07543959,0.0059883785,-0.0039034337,-0.028083744,-0.028419599,0.06464072,-0.054850776,0.039887533,0.08120642,0.033041477,-0.040780123,-0.015909845,0.011903328,-0.022431483,0.0651371,0.03250917,0.031712923,-0.022914212,-0.11244857,0.025583412,0.033916738,0.0013637778,-0.046061497,0.023699062,-0.011442503,0.086680144,0.0067375507,0.025996482,0.08352299,0.06272239,0.018664096,0.10877736,-0.015382911,-0.0008208268,-0.035684094,0.041558854,0.00816264,-0.092706755,-0.06247571,-0.011028002,-0.059810106,-0.04641419,-0.00088573556,-0.075570434,-0.05797475,-0.06595694,-0.017894384,0.057230294,-0.07163301,-0.05589322,-0.0077025234,-0.015684463,0.06383134,0.05223077,-0.013973188,0.038262192,-0.033858843,0.009745372,0.007882563,-0.12592904,-0.016700719,-0.07164123,0.028836306,-0.07474341,-6.3397174e-08,-0.029128121,-0.009961164,-0.029049478,-0.027911449,0.02937405,0.035280146,-0.013883023,0.07213976,0.07535718,-0.025974782,0.04390452,-0.054184012,-0.03824072,-0.0031446826,0.04495021,-0.05308627,-0.06507001,0.07711336,-0.02029136,-0.030999716,0.090677515,0.029394414,-0.013394349,-0.08499688,0.03187276,-0.035522386,0.003630664,0.062325902,4.760833e-05,0.006788342,-0.03041927,-0.021394027,0.117496185,-0.009269221,0.07914637,-0.012079995,0.12510253,-0.005705587,0.03080986,-0.019160932,-0.022858772,0.07791665,-0.009023471,0.027770618,-0.054726694,0.023022529,-0.0133235315,0.037388146,0.021149162,0.0210463,-0.020052986,-0.010451885,-0.01753296,0.12098816,0.05941912,0.03462553,0.05013518,-0.009767883,0.047374163,0.07915592,0.06529127,-0.01962227,-0.07224466,0.007119096
ui+ux,-0.011712639,0.025621023,-0.0126586445,7.1264796e-05,-0.014017833,-0.08832724,-0.013724215,-0.022789637,-0.08619814,-0.026584208,-0.040125184,-0.031568684,0.041799743,0.021041755,0.049475733,-0.012437256,0.027377816,-0.037403643,-0.045515236,0.004242329,0.022044633,-0.06767706,0.012268704,-0.044837844,-0.09305013,0.02693332,0.030842936,-0.027729407,0.042691622,-0.15698525,-0.016184272,-0.04468791,0.058079418,0.04801583,-0.067744315,0.11557765,0.08299239,-0.056489397,0.0262496,-0.00076982303,-0.08075111,-0.10914035,-0.08429831,0.020867515,0.046759713,0.00037149462,-0.023084689,-0.0085143875,-0.027296575,0.06293266,-0.05429876,-0.067453355,-0.0014214552,-0.041806024,-0.052604035,0.07901883,0.093326926,-0.020956436,0.008483041,-0.102529295,-0.0065853,0.032996453,0.010597452,0.05406645,0.06593361,-0.04592623,0.021841878,-0.03884531,0.018428328,-0.0395198,0.01807372,-0.08381401,-0.07745592,0.015639847,-0.033531938,-0.02686336,0.018535236,-0.023037907,0.03851825,-0.03138772,0.10324722,0.13909526,0.012193157,0.084222466,-0.02119513,-0.024329646,0.02024604,0.073251106,-0.0046968427,-0.0024154275,0.040584642,-0.08601296,0.011599181,0.0032893296,0.041428298,0.0053562564,0.005961225,-0.053473517,0.038056236,-0.012305441,-0.008804013,-0.042442963,0.0175618,-0.0054802587,-0.055935472,0.08336551,0.027700182,0.083991565,-0.02772756,0.01619115,0.010686217,-0.0012095415,-0.11078704,-0.0075497134,0.06217833,-0.05642375,-0.09418753,0.023241343,0.09231672,0.0054460913,-0.012992422,0.12249811,0.031027876,-0.043440357,0.000822051,0.0074908594,-0.04980793,2.963293e-33,0.04719446,0.030032104,-0.088127755,0.027322482,0.05659638,0.009600442,0.0680901,0.06183437,-0.05214565,0.034552764,0.049877044,0.0132275475,-0.047221094,0.06892664,0.061851807,-0.04763618,0.05846676,0.00924153,0.05713497,0.005828874,0.02781321,-0.038809907,-0.006055294,0.024519471,0.05215225,0.04012462,-0.03853652,0.06919314,-0.078116685,-0.0069220033,0.013526876,-0.09553603,-0.03199588,0.054009832,-0.04565375,0.0054352777,-0.024557082,-0.02652714,0.035414822,0.040135354,-0.07649916,0.023970893,-0.036354285,0.0005947982,-0.019430632,0.06271817,0.040816728,-0.053739063,0.051308617,0.03700279,-0.036292374,-0.05916663,0.07064922,0.066632606,0.012236295,-0.013964814,0.0517805,-0.16570745,0.036187027,-0.0049025486,-0.0401456,-0.028818207,-0.10831447,0.07568315,-0.006079165,-0.05605809,0.06447568,0.013948429,0.07795176,-0.12308949,-0.09254289,-0.009162568,0.11769817,-0.004498774,-0.05475589,0.010265797,-0.045742776,0.0027712903,-0.02974954,0.05165652,0.021723796,0.120065466,0.067825004,-0.008656799,0.04195435,0.053872243,0.06549181,0.015385773,-0.09952944,0.07251149,-0.03254965,0.0046253134,-0.021822315,0.05197995,0.009146349,-4.8923208e-33,-0.007518308,-0.029011704,0.034202375,0.038753808,0.005462234,-0.036854252,0.00874505,-0.036015596,0.04101705,-0.041125532,0.023691267,0.03322608,-0.025546934,0.025098024,-0.1209817,0.01758047,-0.017322037,-0.06364882,-0.044837806,-0.02546926,0.015938213,0.075479135,-0.108000115,0.02058013,0.0071213106,0.044478495,-0.0031326045,-0.087242246,0.022951791,0.025005616,0.059605915,-0.042780038,0.016682534,-0.0074257026,0.07249736,-0.057826627,-0.04043275,-0.012463869,-0.012953697,0.10244324,0.00260013,0.02020815,0.045043558,-0.011198922,0.014625615,0.04131691,-0.048808254,-0.007162371,-0.054107763,-0.018693041,0.029650953,0.041861102,-0.036401726,-0.08653584,0.02403206,-0.052870065,0.039163377,-0.03260152,0.054198686,0.012880205,0.038380824,0.06366815,0.040542774,0.053983558,-0.04197012,-0.034307588,-0.061755866,0.054832898,-0.02812786,0.02432666,-0.07589743,-0.0353729,-0.037586,-0.058045603,-0.045833435,-0.0941493,0.035212755,-0.06482305,0.059315056,0.05205147,-0.011484826,0.0720547,-0.03568583,0.006753703,-0.010706065,0.0030192486,0.016775891,0.007840477,0.011517668,-0.06989355,-0.13350593,0.0012586884,-0.042514887,0.026712095,-0.020370735,-6.021243e-08,0.001223387,0.04878622,0.027682642,-0.028464183,-0.029884512,-0.03049173,-0.006547639,-0.007773703,0.06952914,-0.048823345,0.088894255,-0.023602944,-0.02782432,0.0777074,0.06489133,-0.0077416827,-0.008264194,0.07800467,0.006348474,-0.13642141,0.021938527,-0.025156077,-0.02231768,-0.03478365,0.06840675,-0.001965465,-0.00751336,-0.0057808626,-0.08189016,0.04783653,-0.019159965,0.0073967017,-0.022054005,0.039995622,0.019390756,-0.08335421,-0.044736236,-0.028809832,0.057504773,0.011789015,-0.03267442,0.08776945,0.104422614,0.030264867,-0.075431526,-0.029584376,-0.035530448,0.047952086,-0.030957686,-0.009434905,-0.0732536,-0.012463313,0.0021710112,0.081293486,0.06657566,0.044608083,0.067820266,0.011196884,0.0711738,0.026506664,-0.008088156,-0.0023232645,-0.022158481,-0.02674468
cyber+security,-0.05293661,-0.027576325,-0.064378865,-0.035229795,-0.036464125,0.055084303,0.063609086,-0.032731336,-0.02445328,-0.05363057,-0.040273175,-0.052342206,0.08133439,0.05322332,0.04056355,-0.02336841,0.01957598,-0.038733482,-0.04036947,-0.05190389,-0.028237436,-0.010035399,-0.027744861,-0.04530943,-0.16493171,0.01328698,0.0047186194,-0.09788013,-0.123737335,-0.06490367,0.016658086,-0.012536277,0.06647805,0.10515823,0.01122756,0.045407996,0.028475361,-0.02919139,0.07717027,-0.04258266,-0.07301073,-0.09099406,-0.05053589,-0.029573712,0.0007176455,-0.0153103415,0.037164226,-0.042219143,0.04933608,-0.02186206,0.010781336,-0.042937435,-0.0042989943,-0.0013567198,-0.0742922,0.03801782,0.039049663,-0.019209467,0.0059029018,-0.09020802,0.018440941,-0.005436998,0.04468454,0.034739908,0.0148133,0.0045291553,0.03326074,0.051085155,0.044796236,-0.00366328,-0.04593041,-0.0023175003,0.020171927,0.09705391,-0.0015314231,0.07135864,0.036281027,-0.01942581,0.10089336,-0.035960358,0.09798047,0.048324287,-0.0604117,0.09926253,-0.059240647,0.036863532,-0.040592514,-0.051797774,0.014516297,0.066895686,0.087265015,0.01508601,0.0013559678,-0.009525895,0.11171914,-0.046794657,-0.041496992,-0.056339715,-0.04405356,0.01771654,-0.046421777,-0.010951233,0.04411443,-0.016830115,-0.032870833,0.01999739,-0.020678872,-0.0313989,0.060048494,0.0063347705,-0.013500346,0.01669598,-0.0814836,-0.05680859,0.006976848,0.023676688,-0.036641058,0.06335567,-0.015044447,0.009506361,0.04986785,0.09273402,-0.0046042255,-0.0646437,0.012194355,0.013466543,-0.046795633,1.9071411e-33,-0.11037162,0.10055144,0.020516504,0.008725054,0.023709897,-0.051321846,0.012080068,0.053069953,-0.075602554,0.024154691,-0.09026345,0.03540103,0.061604034,-0.001331431,0.07741486,0.0026174563,0.012035657,-0.0313715,0.041167486,-0.060912255,0.014195691,-0.04865056,0.044682007,0.001944219,0.14800514,-0.035305593,0.063620776,0.073104955,0.11802871,0.019088598,-0.049795575,0.05897659,-0.01806014,0.008368905,0.07822014,0.031579103,-0.044801354,-0.07565123,0.044259075,-0.018354721,-0.03588211,0.01736748,-0.043939143,0.01780279,0.0032160967,-0.017398668,-0.004562723,-0.021569194,0.022474,0.006676231,-0.06990175,-0.023179771,-0.015072168,0.0138581935,-0.0109552555,-0.046163104,0.078943685,-0.022078402,0.054831807,-0.0011336,-0.08317936,0.015297329,-0.013576358,-0.027635064,-0.00042928456,-0.08624891,-0.00066604745,0.0825984,0.029509084,-0.02253134,-0.0460479,0.024199044,0.06937963,-0.00042870844,-0.06716327,0.010790016,-0.004500417,0.04235911,0.027410239,0.022779323,-0.10057125,0.0488794,0.022430886,0.013134162,0.010025685,0.04923385,0.0032624558,-0.0053657605,-0.035515275,0.011453752,-0.025785387,-0.11245223,0.08544341,0.103792995,-0.036046285,-5.1910804e-33,-0.04675257,-0.052148346,-0.0727998,0.04202836,0.035983533,-0.0015033854,0.0025743933,0.009206871,-0.057086606,0.05463247,-0.033108447,0.012512731,0.08874999,-0.06522657,0.05170253,-0.013227786,-0.024994148,0.035378885,-0.06703539,0.0076826313,0.08938569,0.085758045,-0.01671745,-0.0018117935,0.05553178,0.03361135,-0.020784762,-0.00085247384,0.07757344,0.0712338,0.02715763,-0.021996468,-0.02804961,0.06469146,-0.05534053,-0.049781963,0.070137404,-0.04867373,0.023401141,-0.044161007,0.06330629,-0.0034762698,-0.0015465312,-0.008233691,-0.022643829,0.032485563,0.04619893,0.03328353,-0.001639087,-0.08458927,0.011023265,0.016212946,-0.05932973,0.0017566109,0.0065610437,0.025942015,0.029847732,-0.0008397202,-0.034507547,0.022877425,0.011972964,-0.02646088,0.054068252,0.08121646,0.0025684093,-0.05609657,0.054269526,0.11495028,-0.08401512,-0.09387982,-0.02292547,-0.025625823,-0.07035771,-0.06673063,-0.056352794,-0.10460791,-0.056076523,-0.056097373,-0.019959146,0.0471319,0.051796667,-0.042056467,-0.088885605,0.057549693,0.06418661,0.024300817,0.060887225,-0.00586246,0.035062827,-0.014897437,-0.14092258,-0.045047667,-0.06930604,-0.01904026,0.011194796,-5.4760633e-08,0.023612127,0.030048918,0.037565794,0.02001362,0.024561869,-0.004823971,-0.12044635,-0.019041453,-0.0149485795,-0.080138214,0.0508031,-0.078007944,-0.056408968,-0.04954755,-0.009882741,-0.010348382,-0.12655321,0.082200244,0.0027004029,-0.036121387,0.06981219,-0.008593536,-0.025548693,0.04962473,0.011488447,0.042789005,-0.046440803,-0.007141619,-0.0029009928,0.0041231564,-0.07206331,-0.09581757,0.009234123,-0.0054481234,-0.00023044186,-0.044515908,0.049665242,-0.03528399,0.03672565,0.044297814,-0.06396273,-0.033342037,0.05691515,0.049993187,-0.10067823,-0.0059750653,-0.025014076,0.003939535,0.013891634,0.04405998,-0.020472547,-0.04748375,8.8775905e-06,0.13869289,-0.0009389514,0.055351377,0.0164497,-0.04607272,-0.0041497606,0.13433142,-0.0028765935,-0.052151106,-0.040208388,0.005187469
cyber+security,-0.013761388,-0.007804391,-0.035960566,0.0071380525,0.014901869,0.032631256,0.046635684,-0.015518248,-0.07281289,-0.0151215,-0.019409657,-0.108529456,0.044820007,0.057026044,0.010338882,0.04113392,0.026784431,-0.055089794,-0.027776614,-0.10931952,-0.016146038,-0.004466142,0.0074322335,-0.06493745,-0.15652816,-0.028577028,0.0004488972,-0.050438788,-0.08306085,-0.046778694,0.04010138,0.012785357,0.038962502,0.055080447,0.028529732,0.0065038297,0.049778156,0.042283848,0.07175937,-0.009146328,-0.025617102,0.007561185,-0.0031522505,-0.04708749,-0.026101159,-0.0640355,0.02240074,-0.0024404577,0.054761663,-0.02281736,-0.023342334,-0.04411081,0.044320647,0.034841884,-0.028807754,-0.011389588,0.07089665,-0.03980705,0.052219965,-0.08338984,-0.029281156,0.027552444,0.034945667,0.004504521,0.0020721327,-0.047551326,-0.021379126,0.04734015,0.020917177,0.03233614,-0.051932998,-0.06259908,-0.03931627,0.025648309,0.043947622,0.06435941,0.03681944,-0.031869605,0.13477682,-0.019389456,0.05246111,-0.025707774,-0.046904985,0.100343466,-0.014021655,0.0088061,-0.01857453,-0.033493575,0.05925164,0.038431816,0.105320044,0.0017445774,0.030100599,0.009834282,0.09878327,-0.104161106,-0.0040847007,0.023566,-0.04340906,0.031331353,-0.05045886,-0.07460622,0.051081512,-0.052409034,-0.039822854,0.03306662,0.016030082,0.07742239,0.031573553,0.0336499,-0.034748193,0.010440924,-0.09135821,-0.028694035,0.09509449,-0.0004218434,-0.052161697,0.060546946,-0.02918844,0.023971621,0.080537535,0.06456862,0.0032155148,-0.0025211251,0.020580761,0.023371441,-0.08928203,5.8930423e-33,-0.009134193,0.08761165,-0.050838806,0.0017462089,0.037473153,-0.018208196,0.016524684,0.12578191,-0.008610537,0.038789086,-0.06604014,0.063242644,0.029900486,-0.016401388,-0.034930818,0.013329316,0.06744406,-0.0021619052,-0.08570881,-0.025762472,0.025438027,-0.095546775,0.018505989,0.01869335,0.066180274,-0.055803224,0.025284728,-0.007861439,0.10330509,0.0033259047,-0.023473363,0.027924845,-0.06941563,-0.032086812,0.031800505,0.022955583,-0.03716721,-0.028781964,-0.023623401,-0.0242567,-0.052287307,0.021547684,0.049782503,-0.051027477,0.014465907,-0.028793542,-0.014648081,0.014446026,0.050193336,0.030934557,-0.110355325,-0.09730059,0.011710363,0.02287982,-0.06308998,0.006479612,0.027954446,-0.045604356,0.10576906,-1.0005138e-05,-0.047810115,0.04852216,-0.027468994,-0.025039306,-0.023877095,-0.09798364,0.029765423,0.05119656,0.031938232,0.0009502139,-0.018652428,0.029928686,0.12354689,0.031893216,-0.067054026,-0.01299411,-0.020407729,-0.031729195,0.009152797,0.0814985,-0.011802051,0.0407806,0.11789467,-0.015816184,0.048020557,0.051176872,-0.033538636,-0.019188857,-0.012120178,0.071415514,-0.013809877,-0.09295107,0.011879231,0.086151734,-0.03371527,-6.749165e-33,-0.06774962,-0.007900301,-0.060770195,-0.03838529,0.0471642,-0.016435297,0.053486932,0.05132783,0.012294658,-0.0036742683,-0.04965269,0.05164407,0.0061760433,-0.05596558,0.012666938,-0.033146348,-0.018644815,-0.011560153,-0.03819459,-0.009539096,0.008576668,0.012058386,-0.07621298,0.010715835,0.050830904,0.08639343,0.085901774,0.02583869,0.014848228,0.078739055,-0.037046455,0.00058601005,0.0016767482,0.06472112,-0.030388033,-0.060155183,0.06521634,-0.10436758,0.021929385,-0.011134177,0.040093873,0.053685356,0.03157535,-0.044058025,0.052605618,0.046331976,0.025600951,0.08700814,-0.010194836,-0.10449954,0.024030471,0.025469862,-0.026194127,0.024939043,0.0011919638,0.009757051,0.041533038,-0.05970839,-0.010929648,-0.015847063,0.0021466091,0.004361946,0.064761996,0.011539372,0.013834385,-0.028069971,0.002971597,0.013803207,-0.08361312,-0.0513743,0.01336984,0.054296702,-0.0069128377,-0.0642674,-0.07567482,-0.07182388,-0.042442042,-0.04013715,-0.030736675,0.08738621,-0.0040271925,-0.007365194,-0.0744369,-0.0064979233,0.041209426,0.077979006,0.0027363587,0.016899318,0.016046042,-0.054846443,-0.14326416,-0.11582981,-0.020941518,0.018132193,0.03016269,-5.399061e-08,0.022399796,0.028421408,0.06426025,-0.0058588735,0.032523952,-0.012664025,-0.11192542,-0.05004193,0.0618866,-0.050422907,0.007032533,-0.06421862,-0.015995882,-0.067197405,0.032257736,-0.034128036,-0.07074298,0.029785179,-0.032453794,-0.08299867,0.10374897,-0.02586708,-0.10051275,0.05705005,0.024787541,-0.013853813,-0.04189569,0.026144763,-0.038555454,0.0020126405,-0.11891464,-0.008083856,-0.019134441,-0.016683443,0.02113734,-0.023602217,0.044959035,-0.048451703,0.00021142208,0.021477515,-0.039405417,-0.05475535,0.0049845106,-0.0091188215,-0.027350824,-0.026772128,-0.06352265,-0.008020598,0.026825216,-0.010230357,0.038499538,0.02242028,0.006995638,0.17636378,0.025305986,0.042696454,0.064950846,-0.07173597,-0.051452987,0.12748648,0.059073165,-0.16483459,-0.09009828,0.011143168
data+analyst,-0.04108322,0.006246082,-0.0702959,0.03887012,-0.099151134,-0.06991515,-0.038067304,0.03774655,-0.04838126,0.012143032,-0.040672295,-0.082048275,0.062649176,0.041270513,0.043580167,0.05051303,0.023953628,-0.07866163,0.00048388616,-0.09447557,-0.04365291,0.022091296,-0.006333505,-0.04171072,-0.016112305,-0.006744553,0.046867747,-0.020175487,-0.05311602,-0.08538835,-0.039746158,-0.02440895,0.0098211765,0.09221057,-0.0023131187,0.051615994,0.041729067,-0.009502723,0.036096245,-0.04034425,-0.0017328185,-0.06897815,-0.11505232,-0.045939963,-0.02845587,0.012256308,-0.01263831,-0.02276068,-0.0044941865,0.0441196,-0.096194245,-0.028046,0.018718263,0.04445279,-0.005856496,0.042723484,0.06535259,0.00941478,0.006165957,-0.07123422,-0.0065945787,0.029281113,-0.04584894,0.008830304,-0.010546723,-0.01465759,-0.061262526,0.008861616,0.0028938784,-0.09668292,-0.060972255,-0.08992485,-0.11006564,0.02379714,-0.009033768,0.03398893,0.014060339,0.023273481,0.003973855,-0.046434738,0.043606494,0.08090677,-0.09268589,0.124712326,-0.079530604,-0.043215454,0.036926042,0.112583816,-0.007975778,0.029932508,0.09218023,-0.021838803,0.030996863,0.022506058,0.016567916,-0.0020325386,0.03337187,-0.03692723,0.0569458,0.024274202,0.017263003,-0.010738673,-0.040097907,0.026373671,-0.15747774,-0.018821562,0.027784828,-0.007617361,-0.010978361,-0.0060798945,-0.01662735,-0.018239789,-0.1300145,-0.07715367,0.015163121,0.032197606,-0.14179392,0.09744796,0.03450207,0.02229898,0.0018946305,0.07891142,-0.008567576,-0.07649151,0.0885482,0.06763403,-0.107096344,6.2468576e-33,-0.023443181,0.04698759,-0.032067273,0.032108814,0.03134953,0.05310935,0.018467804,0.021274172,-0.06858097,0.012490835,-0.028519368,0.08713299,-0.026915835,-0.10264141,0.018240014,0.021722341,-0.043221492,0.03518285,-0.05833509,0.06660643,0.05875995,-0.06970271,-0.00422874,0.05886029,0.05580477,0.0018835412,0.020152463,-0.0030049118,0.0440239,0.04198945,-0.08831392,-0.030601764,-0.059153378,0.0046544685,-0.0071137073,0.03193595,-0.078061685,-0.09453982,0.017700292,0.011620838,-0.050844718,0.014415744,0.0012241062,-0.044042673,-0.018610906,0.016806405,0.05309076,0.04248553,0.060636908,0.057824373,-0.026782518,-0.08650143,0.07519298,0.02521449,0.023941897,0.027503267,0.06536374,-0.10458477,-0.018104423,0.014106488,-0.033847,-0.036571056,-0.05757936,0.021827867,-0.023823673,-0.02398896,0.08331459,0.055190977,0.10007234,-0.0036761302,-0.01211504,-0.021873662,0.08390882,0.016456226,-0.017183006,-0.045692,-0.015440627,0.004158708,0.0242156,0.070526704,-0.033974368,-0.0023279993,0.011077464,-0.049522888,0.038335413,-0.026740478,0.008217904,0.058390945,-0.056079425,0.040124375,-0.06805957,0.0407749,-0.007885173,0.060557485,-0.03031661,-6.604395e-33,-0.0058929264,0.0024490552,-0.0048116785,0.05555901,0.077076614,0.0002068994,0.011795369,-0.0604035,0.066234365,-0.0070209233,-0.06980745,-0.06039613,0.01803943,-0.02925588,-0.009706193,0.02448368,-0.027317673,-0.061512083,-0.038540933,-0.01273815,-0.07385929,0.0529327,-0.047766298,0.029332161,0.06287813,0.002057828,-0.0015447155,-0.034052607,0.04241159,0.030999897,-0.018347956,-0.052917108,-0.043070197,-0.0012312126,-0.03718524,-0.05689941,0.10954668,-0.05656242,-0.014548495,0.069072895,0.07614524,0.0615137,-0.063192524,-0.011000663,-0.02134361,0.053141512,0.028911848,0.063963756,0.00997904,-0.062225796,0.040329713,0.043607794,0.034330323,0.041245926,-0.030011669,-0.0066614794,0.100741796,0.041962754,-0.07422482,0.0191543,0.050290737,0.018814363,0.09436575,0.112161115,-0.039486628,-0.027738156,0.057229444,-0.006669664,-0.06962015,-0.038006235,-0.002690359,-0.11273947,0.015884353,-0.04266512,0.00012754006,-0.0034926143,-0.122314245,-0.0699197,-0.014111066,0.029753035,0.018971892,-0.0012350971,-0.045458086,0.056150466,0.03452734,0.014354746,0.028482595,-0.024541672,0.019015405,-0.0106876865,-0.14297464,0.005265314,-0.058966145,0.087690055,0.032753646,-5.8337744e-08,0.0428202,-0.015125702,-0.043540306,0.020359028,0.03237565,-0.006444941,-0.049553,0.11483325,0.032254435,0.049966592,0.039874516,-0.0889507,-0.06818284,0.032648157,0.08723533,0.018929005,0.038234547,0.054745313,-0.022289237,-0.0054473504,0.073150985,-0.0065167933,-0.0385153,-0.023983486,-0.0005215026,-0.016896252,-0.042471208,0.026697613,0.011636533,-0.028944327,0.0056217727,-0.07198587,0.03509207,-0.07305303,-0.024933096,-0.0352368,0.07216138,0.0003218732,0.06323387,0.040866945,-0.06401769,0.06739056,-0.039921753,0.032871984,-0.057935033,-0.009549872,-0.13752012,0.015660321,-0.019950664,0.0019351363,-0.0033784106,-0.05446769,0.048972595,0.08407969,0.06383251,0.099831484,0.025166243,-0.0049851155,0.016871268,0.032974742,0.068319045,0.012675295,0.030834068,0.017044041
cyber+security,-0.1049872,-0.026395772,-0.00012265756,-0.00053540006,-0.00026358257,-0.082597055,0.10294864,0.032254115,-0.06408656,0.027581258,-0.060787603,-0.066574,0.03225507,0.070384175,0.044740256,0.009445901,0.031356115,-0.0709531,-0.034030396,-0.04530268,-0.004167452,0.008744945,-0.0236814,-0.050507944,-0.037669446,0.0049349843,0.05441328,0.014687762,-0.041227765,-0.006302169,-0.01405743,0.025420098,0.049501926,0.09408988,0.01808671,0.008631489,0.040831055,0.04688122,-0.02127693,-0.019856961,-0.06513845,-0.04570558,0.04416366,-0.0063645276,0.05308709,-0.044171575,-0.014779542,-0.108705975,-0.006327633,-0.002967156,-0.09096105,0.0016440274,-0.01027196,0.03111402,0.012679819,0.010716928,0.0373946,0.016915958,-0.0309554,-0.048698213,-0.020697072,-0.007384581,0.018824873,-0.023348965,0.045561787,0.02341541,-0.018345244,0.07236689,0.100149125,-0.11391189,-0.03651938,0.022669494,-0.08428807,0.053112138,-0.067687295,-0.020740183,0.055549297,0.021825094,0.12798868,-0.10480097,0.084242314,0.07006736,-0.087861925,0.061288122,-0.014543539,0.009586091,-0.028836224,0.022479614,0.029713254,0.06323196,0.033627648,-0.008551801,-0.04560359,0.023435486,0.074830465,-0.056694105,0.01043364,-0.05428725,-0.041833416,0.057280734,-0.02427452,-0.041704137,-0.040767074,0.0437696,-0.050217353,-0.02706786,0.0465653,-0.06283765,0.040230114,-0.032415956,-0.060086276,0.053060405,-0.07576537,-0.03895673,-0.04512609,-0.01028008,-0.12969276,0.07427388,-0.023547575,0.037954457,-0.022857595,-0.003240348,-0.06416279,-0.012429491,0.06050463,-0.047912423,-0.0907609,1.9557989e-33,-0.026931124,0.04712256,0.057014134,-0.0013512627,-0.015637832,-0.11750627,0.03012083,0.041157164,-0.050112315,0.07196438,-0.1365607,0.12185925,-0.025963956,0.05480519,0.03589267,-0.003466232,0.008886964,0.013039946,-0.027997512,-0.047795415,0.030950546,-0.03342818,-0.0042480067,-0.013259954,0.14047663,-0.0085566845,-0.012596159,0.043584906,0.112477854,0.05636773,-0.105380885,0.0063022403,-0.012170878,-0.02266905,0.074566305,-0.03934422,-0.08235982,-0.09954577,0.020646958,0.062167056,0.03613804,-0.006339125,-0.026479179,-0.004704427,-0.031106174,0.0034309074,0.077708706,-0.013475581,-0.025522428,0.06328075,-0.039697215,-0.02871394,-0.024370952,0.003985429,-0.0016545596,-0.002363356,0.015518841,-0.107448556,0.020099677,0.010194174,-0.077115275,-0.03255457,-0.04253121,-0.027581189,-0.0076697343,-0.04316754,0.02162427,0.041189305,0.07776799,-0.00016814066,-0.0149893975,0.014594041,0.021439126,-0.067485765,-0.025685266,0.022849876,0.032385394,0.09920432,-0.011651045,0.02940025,-0.04093823,-0.010147477,-0.023803193,-0.0034877385,0.08088886,0.10196413,0.03421951,-0.11463369,-0.04590644,0.02953473,-0.050744887,-0.0842858,0.010122522,0.05598989,-0.0306954,-3.1401767e-33,-0.018109936,-0.030786507,-0.08060558,-0.028372347,0.08866913,-0.0063643944,0.06570844,-0.043280344,-0.018890861,0.041020967,-0.03106023,-0.022977157,0.04164646,-0.04640848,-0.024875298,0.005268174,-0.017052757,0.056664165,0.0033633322,0.04737786,0.039046165,0.07882964,-0.03558237,-0.022855887,0.027494276,0.008310699,0.02540944,0.01689498,0.01714737,0.039643325,0.018158503,-0.02937071,-0.060360447,-0.021589562,-0.026042692,-0.03332385,0.11402508,-0.06303998,-0.0399705,0.056936454,0.017578345,0.041322965,0.0125661595,-0.0002581964,-0.10521644,0.00839977,0.04365294,0.067733675,0.007017762,-0.06656679,0.11073494,0.01231394,-0.01143732,0.0064131487,-0.0031013973,0.011379126,0.07632859,0.017901957,-0.040388066,0.091284044,0.024055304,-0.03957518,0.051746935,-0.0066593476,0.04020226,0.0040796446,0.060782887,0.05023046,-0.10532718,-0.030422427,0.03672559,-0.07706587,0.001298743,-0.022230374,-0.055199176,-0.07795357,-0.06493378,-0.003450676,-0.0021889596,0.022292979,0.009002503,-0.03802927,-0.025238369,0.08601042,-0.01196669,0.06803419,0.023082284,0.042511187,0.037971485,-0.043580875,-0.13704795,0.004031291,-0.02891066,0.08079104,-0.024091989,-4.968644e-08,-0.01516887,-0.006587954,-0.0076378807,0.058646873,-0.055843547,-0.011453709,-0.0643733,0.008216913,0.04446395,-0.052885663,0.06388343,-0.03648481,-0.049905267,-0.06516822,0.050388586,-0.0101195,-0.014432879,0.02248339,0.0076078954,-0.05746325,0.10588582,-0.014011798,-0.082639985,0.029169403,0.03378318,0.022039812,-0.0506435,0.020307185,-0.0019279309,0.020970352,-0.01985106,-0.030239355,0.038008854,0.023079742,0.07245367,-0.07776294,0.057131562,-0.09083901,0.014785872,-0.029298443,-0.0024430624,0.08500525,0.0074632885,0.03989617,0.017201131,0.04493498,0.01634626,-0.019045824,-0.02965701,0.050128113,0.037874285,-0.010802211,-0.020191796,0.13162751,0.06418784,0.053091634,0.05281155,-0.009744501,-0.044510342,0.16146946,0.041922573,-0.04292468,-0.082737066,0.0283353
ui+ux,-0.08342647,0.006838382,0.05553694,-0.08216494,-0.011118582,-0.07234913,0.023393666,-0.03416766,-0.06107207,0.033163622,-0.0074699502,-0.0043566534,0.042458236,0.019178778,0.078156106,0.028991105,0.059604727,-0.09769991,-0.018615449,0.033468213,-0.000110837595,-0.03721727,-0.022610174,-0.022453535,-0.039141912,-0.05581531,0.0033250586,0.0128556555,-0.013610785,-0.1114345,-0.0077721705,0.09404934,0.049660306,0.057087585,0.03338707,0.03222672,0.060432933,-0.09354707,-0.06920193,-0.11826672,-0.054569524,-0.05591782,-0.030506665,-0.043782752,0.077715434,-0.069208354,0.037616834,-0.04136464,-0.052726295,0.055370577,-0.012839561,-0.08271928,-0.03529495,0.013708107,-0.06829357,0.11066449,0.021904651,0.053394444,0.009820048,-0.017820146,0.04884628,0.010482577,-0.021098495,0.03669491,0.017962942,-0.021061484,0.053922188,0.050157834,-0.016431686,-0.03714555,0.0059872153,-0.04824678,0.008022197,0.018800352,-0.017113158,0.048431914,0.034891658,0.016071761,0.063716516,0.018872201,0.079884514,0.0708872,-0.0670553,-0.0038553043,-0.08814121,-0.036856312,-0.027572054,-0.004368126,-0.016120553,0.0038316841,-0.00827609,0.03685614,0.010815905,-0.004388851,0.025076272,-0.0319466,-0.027332796,-0.099881805,-0.007893227,0.053622074,-0.030803667,0.095437355,0.043569017,-0.004583843,-0.05609869,-0.03067013,0.063412525,0.04505952,0.055066273,0.03824871,0.025747156,0.030452546,-0.078036,-0.040705957,-0.0034888007,-0.035992287,-0.060760196,-0.010365836,0.052894738,0.023328142,-0.0052025747,0.0013202111,-0.04985356,-0.070145875,0.014300381,0.0673094,-0.037740752,3.6869006e-33,0.040735714,0.11986357,0.0377411,0.03764975,0.07723404,-0.049285084,0.09794572,-0.008367816,-0.065444276,-0.0659563,-0.07387174,-0.0018117687,0.0049495436,0.056492493,0.03736284,-0.12433874,0.01721129,-0.04501965,0.013943448,-0.031631645,-0.08181243,0.0014617769,0.010874707,-0.070080206,0.11035707,0.03697982,0.013668115,0.04308603,0.08532708,0.049803324,-0.08245264,0.017624676,-0.024320064,-0.024832297,-0.058062907,-0.015541738,-0.052328363,-0.13354486,0.0366982,0.02519096,-0.042098016,0.011330559,-0.090599254,-0.020601245,-0.071550146,0.007200982,0.045383327,0.02779165,0.019913478,0.0031733534,-0.08816568,-0.012060649,-0.03920869,-0.0028658,0.04683894,-0.06029256,0.03225186,-0.08694338,0.031421546,-0.03592456,0.02244318,-0.036486283,-0.022411263,0.09568727,0.00853443,-0.029808851,0.026672965,-0.0032753008,0.067049146,-0.05594935,-0.06525553,-0.02157338,0.08682599,-0.0066765253,-0.024730163,-0.010624979,0.0038808458,0.04295053,0.014769086,0.08131354,0.015781552,0.063869774,-0.0025496702,-0.024590574,0.013692543,0.023743713,0.08499732,-0.09070783,-0.037628256,0.108031936,-0.032061223,-0.019787172,0.03849962,0.0555777,-0.039568234,-4.8277123e-33,-0.033038277,-0.0074751503,0.0076524867,0.032437652,0.059923287,-0.09552139,0.05912811,0.032836467,-0.08970418,-0.0026436786,-0.0198238,-0.012472404,-0.0154691115,-0.023629101,-0.033307232,-0.0064956737,0.070808776,-0.09303922,0.033742096,0.027342722,0.0872046,0.03869231,-0.041133437,0.018165182,-0.03352872,0.009316555,-0.054962482,-0.045275625,0.035389412,-0.051446382,-0.01638136,-0.06648361,0.0013451013,0.0070120892,0.037620563,0.012352543,0.02688634,-0.019661114,0.012580356,0.06552476,0.0842328,-0.07157632,0.010988412,-0.03484004,-0.017393226,-0.030635249,0.041509453,-0.067843586,-0.051166106,-0.05195507,0.056798425,0.07373157,0.0105812345,-0.038754452,0.0141451,-0.05857454,0.060975634,-0.035127215,0.020450415,0.046070118,0.12722339,-0.035546184,-0.0048785433,0.016643152,0.038028583,0.029740926,0.04080783,0.008724397,-0.07181945,-0.007880576,-0.057097428,-0.04445131,-0.036522783,-0.08216965,-0.02189294,-0.05408418,-0.08077187,-0.08290345,0.016072402,-0.049519297,-0.0024578029,0.043167118,-0.030226972,0.060736366,0.0030023134,0.03744045,0.03881561,0.046695042,-0.04550149,-0.009894179,-0.11508881,0.007461371,-0.06404739,0.06845486,-0.01442241,-6.696075e-08,-0.019578015,-0.014458474,0.021641092,0.023524204,-0.035050377,0.030860368,-0.020127304,0.008356486,0.112616606,-0.013921376,0.05180277,-0.08703394,-0.06203558,0.048726216,0.09240591,0.0091955755,-0.0897063,0.06882276,-0.05119487,-0.018990295,0.054366186,0.089949794,-0.019777803,-0.00052072987,0.027101476,0.026734391,-0.0798609,0.10384629,0.009003391,0.0025146431,-0.05961025,0.01169168,-0.052818935,0.041649565,-0.035633244,-0.09946913,0.039177027,0.004796678,0.01993046,0.0015815847,0.059192173,0.013921047,-0.009272775,0.070437066,-0.046643753,-0.056050595,-0.038472284,-0.043196697,-0.06841993,0.042059578,-0.05519977,0.009327258,0.012467764,0.09017692,0.056155432,-0.02388542,0.09037323,0.040800117,0.0068169367,0.12188774,0.11377289,-0.027404252,-0.10239224,0.043330576
ui+ux,-0.047438137,-0.014287846,0.032062892,-0.049269672,0.021944642,-0.028540822,0.031690978,0.034050077,0.040507387,0.0040120785,-0.045876298,-0.06257679,0.06782242,0.03411397,0.045087267,0.013877273,0.0334176,-0.11278967,-0.107601635,-0.09996063,-0.043430652,-0.072494864,-0.03620029,-0.004218467,-0.011640324,-0.043303803,0.020545688,-0.031503364,0.012034085,-0.05144444,-0.02381232,0.07859951,-0.016057052,0.118607454,0.0047558844,0.08322585,-0.032808658,-0.008095087,-0.035149083,0.012377428,-0.037663747,-0.055603556,-0.068910375,0.007274784,0.018090144,-0.013648001,0.031115249,-0.07434676,-0.0025088412,0.013367631,-0.111531824,-0.09321228,-0.06286148,-0.008005289,-0.0011277349,-0.020962005,0.0052169724,0.0067988033,0.028970582,-0.00071565266,0.028116882,-0.05621644,-0.02320721,0.063871644,0.0029327103,0.003264877,-0.0595275,0.10745512,-0.042592816,-0.014103678,0.038591597,-0.015572022,-0.061872914,0.093131535,-0.06420276,-0.01233431,0.07453007,0.016841754,0.05491785,-0.05547099,0.059442833,0.008382648,-0.013194248,0.115926996,-0.0808992,-0.04225707,0.00566168,0.054932788,-0.027612913,0.0050910306,0.0328961,0.060032528,0.023884181,0.011786014,-0.012019117,-0.027948488,0.011816079,-0.055306245,-0.033922188,0.038333084,-0.025202917,0.09532726,0.05617024,0.006664373,-0.05269958,-0.08677978,0.0426095,-0.03035868,0.043443188,0.025330177,-0.045111448,0.01380765,-0.057521604,-0.019300953,-0.013922731,-0.05349555,-0.14993049,0.03700534,-0.0062201535,-0.009488629,0.011143605,0.08299706,-0.05100051,-0.04347145,-0.046079405,0.024409745,-0.028338399,4.2926045e-33,-0.00093410764,0.07736283,0.065225296,0.018253641,0.053489834,-0.045290325,-0.028032588,0.0023087878,-0.046741653,0.065509826,-0.03273787,0.030304497,-0.049839947,0.029687839,0.040966097,-0.02042892,-0.08064003,0.04179587,-0.12222018,0.021079063,0.03212928,-0.09225031,0.016196903,-0.019714927,0.009387363,-0.0234701,0.04015343,-0.016882613,0.07348512,0.023495767,-0.048534974,-0.021762548,-0.0017017835,0.009257138,-0.06479609,-0.035858102,-0.042236824,-0.11716695,0.063955,0.04001903,-0.05076356,0.027558906,-0.07419906,0.02593593,-0.009853041,0.02146807,0.08771777,-0.041698184,0.020406444,0.0029425188,0.023282742,-0.047734216,0.005258808,-0.0402203,-0.013991469,0.027621364,0.07623235,-0.13827574,-0.0013372136,0.020674117,0.008102062,-0.05410384,-0.008101325,0.05955808,-0.0033850987,0.04612389,0.026907371,-0.011207952,0.039373454,-0.01343816,-0.04732375,-0.01779159,0.09909828,-0.06965103,0.034121227,-0.005761266,-0.004296215,0.0048156627,-0.021635512,0.054571055,-0.06429464,-0.068249665,0.018168954,-0.01514361,0.072265856,0.0133152455,0.078293025,-0.12142261,-0.031860232,0.13257058,-0.10307748,0.029864062,-0.09185872,0.0027274408,-0.029110601,-3.9820665e-33,-0.019482315,0.031555735,-0.05211214,0.033117555,0.07878042,-0.024018317,0.045306846,-0.039894696,0.086482555,0.0010674682,-0.078759454,-0.059224613,0.04655254,0.0001512722,-0.07654316,-0.033514325,0.04716906,-0.04458909,-0.09469933,-0.022705317,-0.057920173,0.066495046,-0.031390294,0.01810319,0.05951076,0.025862062,-0.028980201,0.006569688,0.05134606,0.012728668,0.030460792,-0.09018304,0.005726171,-0.012414728,-0.012611266,0.008477502,0.08413245,-0.08134494,0.006663888,0.059072662,0.050011557,-0.0444142,-0.08710029,-0.0039336677,-0.07536384,0.029676493,-0.03850315,0.009493163,-0.0069343788,-0.089209765,0.019954983,0.074684136,-0.010865923,0.025403626,0.020542275,0.022863738,0.0129124075,0.0025116787,-0.058707107,0.012282493,0.023832383,0.030373033,0.061882082,0.041789453,-0.002168679,0.022292193,0.06952603,0.02527133,-0.03525274,-0.032753978,0.017546851,-0.017719664,-0.031171242,-0.050015233,-0.04500442,0.009556124,-0.048266668,-0.060197584,-0.032579593,-0.06353403,0.036043055,0.065010995,0.039818473,0.047975954,0.02051062,0.04528612,0.03156651,0.06730395,-0.021276146,0.01930343,-0.1149329,0.023261001,-0.09156051,0.16229768,0.023454152,-5.5982362e-08,-0.035825316,0.035825834,0.0038015721,-0.009715089,-0.009725529,-0.042732984,0.020657878,0.09488641,0.06275296,0.08809162,0.031143358,-0.090443805,-0.074146315,0.0427917,0.043081928,0.051725704,0.073385835,0.016155194,-0.006605615,0.066911556,0.0659092,0.07753124,-0.029977888,-0.08980675,0.025434773,0.0049275663,-0.06510542,0.10066183,0.022909725,-0.020646904,0.010816554,-0.00608925,0.006342167,0.032183647,0.025993139,-0.086753055,-0.02077673,0.074708715,0.036178797,0.06398799,-0.018973934,0.088023,0.015138895,0.058990445,-0.08183559,-0.007818797,-0.031008894,-0.011503015,0.0425749,0.0560112,-0.070160285,-0.019765213,0.02484879,0.064646125,0.08501835,0.063234195,-0.017393535,0.037908576,-0.035754044,0.09559955,0.023829322,-0.07073258,-0.01764888,0.012101187
